<Nnet3> 
input-node name=ivector dim=100
input-node name=input dim=80
component-node name=tdnn1.affine component=lda.tdnn1.affine input=Append(Offset(input, -1), input, Offset(input, 1), ReplaceIndex(ivector, t, 0))
component-node name=tdnn1.relu component=tdnn1.relu input=tdnn1.affine
component-node name=tdnn1.batchnorm component=tdnn1.batchnorm input=tdnn1.relu
component-node name=tdnn1.dropout component=tdnn1.dropout input=tdnn1.batchnorm
component-node name=tdnn2l0 component=tdnn2l0 input=Append(Offset(tdnn1.dropout, -1), tdnn1.dropout)
component-node name=tdnn2l component=tdnn2l input=Append(Offset(tdnn2l0, -1), tdnn2l0)
component-node name=tdnn2.affine component=tdnn2.affine input=Append(tdnn2l, Offset(tdnn2l, 1))
component-node name=tdnn2.relu component=tdnn2.relu input=tdnn2.affine
component-node name=tdnn2.batchnorm component=tdnn2.batchnorm input=tdnn2.relu
component-node name=tdnn2.dropout component=tdnn2.dropout input=tdnn2.batchnorm
component-node name=tdnn3l component=tdnn3l input=Append(Offset(tdnn2.dropout, -1), tdnn2.dropout)
component-node name=tdnn3.affine component=tdnn3.affine input=Append(tdnn3l, Offset(tdnn3l, 1))
component-node name=tdnn3.relu component=tdnn3.relu input=tdnn3.affine
component-node name=tdnn3.batchnorm component=tdnn3.batchnorm input=tdnn3.relu
component-node name=tdnn3.dropout component=tdnn3.dropout input=tdnn3.batchnorm
component-node name=tdnn4l0 component=tdnn4l0 input=Append(Offset(tdnn3.dropout, -1), tdnn3.dropout)
component-node name=tdnn4l component=tdnn4l input=Append(tdnn4l0, Offset(tdnn4l0, 1))
component-node name=tdnn4.affine component=tdnn4.affine input=Append(tdnn4l, Offset(tdnn4l, 1))
component-node name=tdnn4.relu component=tdnn4.relu input=tdnn4.affine
component-node name=tdnn4.batchnorm component=tdnn4.batchnorm input=tdnn4.relu
component-node name=tdnn4.dropout component=tdnn4.dropout input=tdnn4.batchnorm
component-node name=tdnn5l component=tdnn5l input=tdnn4.dropout
component-node name=tdnn5.affine component=tdnn5.affine input=Append(tdnn5l, tdnn3l)
component-node name=tdnn5.relu component=tdnn5.relu input=tdnn5.affine
component-node name=tdnn5.batchnorm component=tdnn5.batchnorm input=tdnn5.relu
component-node name=tdnn5.dropout component=tdnn5.dropout input=tdnn5.batchnorm
component-node name=tdnn6l0 component=tdnn6l0 input=Append(Offset(tdnn5.dropout, -3), tdnn5.dropout)
component-node name=tdnn6l component=tdnn6l input=Append(Offset(tdnn6l0, -3), tdnn6l0)
component-node name=tdnn6.affine component=tdnn6.affine input=Append(tdnn6l, Offset(tdnn6l, 3))
component-node name=tdnn6.relu component=tdnn6.relu input=tdnn6.affine
component-node name=tdnn6.batchnorm component=tdnn6.batchnorm input=tdnn6.relu
component-node name=tdnn6.dropout component=tdnn6.dropout input=tdnn6.batchnorm
component-node name=tdnn7l0 component=tdnn7l0 input=Append(Offset(tdnn6.dropout, -3), tdnn6.dropout)
component-node name=tdnn7l component=tdnn7l input=Append(tdnn7l0, Offset(tdnn7l0, 3))
component-node name=tdnn7.affine component=tdnn7.affine input=Append(tdnn7l, Offset(tdnn7l, 3), tdnn6l, tdnn4l, tdnn2l)
component-node name=tdnn7.relu component=tdnn7.relu input=tdnn7.affine
component-node name=tdnn7.batchnorm component=tdnn7.batchnorm input=tdnn7.relu
component-node name=tdnn7.dropout component=tdnn7.dropout input=tdnn7.batchnorm
component-node name=tdnn8l0 component=tdnn8l0 input=Append(Offset(tdnn7.dropout, -3), tdnn7.dropout)
component-node name=tdnn8l component=tdnn8l input=Append(tdnn8l0, Offset(tdnn8l0, 3))
component-node name=tdnn8.affine component=tdnn8.affine input=Append(tdnn8l, Offset(tdnn8l, 3))
component-node name=tdnn8.relu component=tdnn8.relu input=tdnn8.affine
component-node name=tdnn8.batchnorm component=tdnn8.batchnorm input=tdnn8.relu
component-node name=tdnn8.dropout component=tdnn8.dropout input=tdnn8.batchnorm
component-node name=tdnn9l0 component=tdnn9l0 input=Append(Offset(tdnn8.dropout, -3), tdnn8.dropout)
component-node name=tdnn9l component=tdnn9l input=Append(Offset(tdnn9l0, -3), tdnn9l0)
component-node name=tdnn9.affine component=tdnn9.affine input=Append(tdnn9l, Offset(tdnn9l, 3), tdnn8l, tdnn6l, tdnn5l)
component-node name=tdnn9.relu component=tdnn9.relu input=tdnn9.affine
component-node name=tdnn9.batchnorm component=tdnn9.batchnorm input=tdnn9.relu
component-node name=tdnn9.dropout component=tdnn9.dropout input=tdnn9.batchnorm
component-node name=tdnn10l0 component=tdnn10l0 input=Append(Offset(tdnn9.dropout, -3), tdnn9.dropout)
component-node name=tdnn10l component=tdnn10l input=Append(tdnn10l0, Offset(tdnn10l0, 3))
component-node name=tdnn10.affine component=tdnn10.affine input=Append(tdnn10l, Offset(tdnn10l, 3))
component-node name=tdnn10.relu component=tdnn10.relu input=tdnn10.affine
component-node name=tdnn10.batchnorm component=tdnn10.batchnorm input=tdnn10.relu
component-node name=tdnn10.dropout component=tdnn10.dropout input=tdnn10.batchnorm
component-node name=tdnn11l0 component=tdnn11l0 input=Append(Offset(tdnn10.dropout, -3), tdnn10.dropout)
component-node name=tdnn11l component=tdnn11l input=Append(Offset(tdnn11l0, -3), tdnn11l0)
component-node name=tdnn11.affine component=tdnn11.affine input=Append(tdnn11l, Offset(tdnn11l, 3), tdnn10l, tdnn9l, tdnn7l)
component-node name=tdnn11.relu component=tdnn11.relu input=tdnn11.affine
component-node name=tdnn11.batchnorm component=tdnn11.batchnorm input=tdnn11.relu
component-node name=tdnn11.dropout component=tdnn11.dropout input=tdnn11.batchnorm
component-node name=prefinal-l component=prefinal-l input=tdnn11.dropout
component-node name=prefinal-chain.affine component=prefinal-chain.affine input=prefinal-l
component-node name=prefinal-chain.relu component=prefinal-chain.relu input=prefinal-chain.affine
component-node name=prefinal-chain.batchnorm component=prefinal-chain.batchnorm input=prefinal-chain.relu
component-node name=prefinal-chain-l component=prefinal-chain-l input=prefinal-chain.batchnorm
component-node name=prefinal-chain-batchnorm component=prefinal-chain-batchnorm input=prefinal-chain-l
component-node name=output.affine component=output.affine input=prefinal-chain-batchnorm
output-node name=output input=output.affine objective=linear
component-node name=prefinal-xent.affine component=prefinal-xent.affine input=prefinal-l
component-node name=prefinal-xent.relu component=prefinal-xent.relu input=prefinal-xent.affine
component-node name=prefinal-xent.batchnorm component=prefinal-xent.batchnorm input=prefinal-xent.relu
component-node name=prefinal-xent-l component=prefinal-xent-l input=prefinal-xent.batchnorm
component-node name=prefinal-xent-batchnorm component=prefinal-xent-batchnorm input=prefinal-xent-l
component-node name=output-xent.affine component=output-xent.affine input=prefinal-xent-batchnorm
component-node name=output-xent.log-softmax component=output-xent.log-softmax input=output-xent.affine
output-node name=output-xent input=output-xent.log-softmax objective=linear

<NumComponents> 76 
<ComponentName> tdnn1.relu <RectifiedLinearComponent> <Dim> 16 <ValueAvg>  [ 0.6594459 0.1717201 0.3332118 0.394506 5.619104e-05 0.18956 0 0 0 0.3765824 0.4079774 1.097103 0 1.070884e-06 6.593912e-05 2.746503e-05 ]
<DerivAvg>  [ 0.9888676 0.6042843 0.9623923 0.9314765 0.000626836 0.6276063 0 0 0 0.8915064 0.949562 0.9988109 0 6.024511e-05 0.0001133182 0.001246859 ]
<Count> 2788608 <OderivRms>  [ 0.340848 0.3600523 0.2190279 0.2874295 1.129956 0.3209421 1.060312 0.9889395 1.048401 0.3799047 0.4359615 0.2922019 1.342057 1.190255 1.058312 0.7457192 ]
<OderivCount> 4070016 <NumDimsSelfRepaired> 2574 <NumDimsProcessed> 3536 <SelfRepairScale> 1e-05 </RectifiedLinearComponent> 
<ComponentName> tdnn1.batchnorm <BatchNormComponent> <Dim> 16 <BlockDim> 16 <Epsilon> 0.001 <TargetRms> 1 <TestMode> T <Count> 47231.01 <StatsMean>  [ 0.6429469 0.1607723 0.3399945 0.3971607 4.281175e-05 0.1969761 0 0 0 0.3586336 0.4021055 1.034911 0 7.287817e-06 8.241384e-05 1.268588e-05 ]
<StatsVar>  [ 0.09654358 0.04306003 0.03515708 0.0743586 1.56196e-06 0.05046063 0 0 0 0.06646509 0.05995153 0.1402035 0 2.503974e-07 5.455471e-05 3.289787e-07 ]
</BatchNormComponent> 
<ComponentName> tdnn1.dropout <GeneralDropoutComponent> <Dim> 16 <BlockDim> 16 <TimePeriod> 0 <DropoutProportion> 0 <TestMode> <Continuous> </GeneralDropoutComponent> 
<ComponentName> tdnn2l0 <LinearComponent> <MaxChange> 0.75 <L2Regularize> 0.004 <LearningRate> 0.0004991947 <Params>  [
  -0.3078074 -0.1962933 -0.311087 -0.372416 0.1807046 -0.06452659 -0.1041037 -0.151716 0.1374758 0.2384589 0.2413708 0.03197136 -0.1983783 0.001350512 0.1873642 -0.06432588 -0.2343895 -0.1991378 -0.05826968 -0.4029999 0.05046465 0.1058763 -0.1297085 0.1432887 0.1936705 -0.009675344 -0.1023754 0.1197674 0.1197748 -0.2076079 -0.01980414 0.08095531 
  0.03799073 0.4690337 -0.07568166 -0.1263153 0.2298302 -0.4468136 0.07590456 -0.1981246 -0.1577021 -0.09675258 0.2139769 0.0676077 -0.2098147 0.01983362 -0.06880329 -0.142288 0.3496183 0.1174718 -0.08515005 -0.06380924 -0.1769729 -0.1693604 0.03129599 -0.2050586 -0.03869037 -0.2209042 0.1134488 0.07775214 -0.06354177 -0.2248127 0.01128446 -0.05855187 
  -0.08516768 -0.2254076 0.3541378 -0.1226943 0.1423597 0.009321189 0.3818589 -0.0865348 -0.190948 0.0396312 0.0137094 0.1864023 0.07437016 0.1488071 -0.1750734 -0.1246126 0.08281004 -0.03374377 0.2810731 -0.3634599 -0.2456506 -0.07080391 0.1484429 -0.07302521 -0.1261518 0.08676046 -0.4038657 0.01691145 -0.1214681 0.1935131 0.0020248 0.2370519 
  0.7114052 -0.06702785 -0.1254367 -0.2592894 0.04065568 0.04939397 0.04388782 0.03737996 0.0872133 0.06154901 -0.1100457 -0.2129243 0.03777811 -0.1944306 0.1273055 0.09072903 0.2934719 -0.1276111 0.04981459 -0.2004167 0.1078624 -0.177448 -0.07684438 -0.08962566 0.09313271 0.2703454 -0.1361478 -0.07125665 0.05585742 -0.1152865 -0.003058791 0.1341084 
  0.02595136 -0.03770794 -0.04656678 0.1037812 0.1073291 -0.2436215 0.02172396 -0.2577213 0.1367237 -0.2441108 -0.2079144 -0.4688757 0.07787221 0.1437701 -0.169446 0.01155111 -0.1706136 -0.05491284 -0.164745 0.1683381 -0.1373519 -0.03032042 -0.03757743 0.2034763 0.07981838 -0.1611522 -0.5460678 -0.04591448 0.06115222 -0.1299887 0.1461786 -0.03681605 
  0.05363319 0.2374817 0.0317486 -0.2721307 -0.06086161 0.2998758 0.2174316 -0.08202025 0.2437688 -0.4463828 -0.05140278 0.2024414 -0.2973697 0.1402778 0.05641715 0.122768 -0.009313656 0.09383778 -0.02669685 -0.1290549 0.1593818 0.2515381 -0.3334082 0.01558444 -0.06242248 -0.1325432 -0.1160041 -0.1337303 -0.05992637 0.1974279 0.178397 -0.09697015 
  0.05496521 -0.1563313 -0.09156942 0.1338623 0.01376239 0.1838036 -0.1400725 0.1471025 -0.2820698 -0.5120478 -0.06301556 0.09830702 -0.1278472 -0.1575165 -0.05141262 -0.08342578 0.1132437 -0.4640153 0.05864473 -0.1179186 -0.1057 0.1227584 0.1278151 0.00988131 0.01816126 -0.2534016 -0.06820484 -0.008676821 0.1127317 -0.2455206 -0.3206358 -0.07081366 
  0.1573913 0.1310194 -0.1642284 0.01893402 0.03506835 -0.04518643 -0.03933745 -0.1631011 0.1438369 0.1511413 -0.4883806 0.4438512 0.1213265 -0.02992385 -0.2371155 -0.09646944 -0.02774821 -0.07501835 -0.1051895 0.07487003 -0.04563879 0.2432269 -0.137234 0.02251788 0.1188939 -0.009238563 -0.03392359 0.4557775 -0.1877898 -0.01699378 -0.182128 0.1870354 ]
<OrthonormalConstraint> -1 <UseNaturalGradient> T <RankInOut> 16 4 <Alpha> 4 <NumSamplesHistory> 2000 <UpdatePeriod> 4 </LinearComponent> 
<ComponentName> tdnn2l <LinearComponent> <MaxChange> 0.75 <L2Regularize> 0.004 <LearningRate> 0.0004991947 <Params>  [
  0.06547353 -0.2271827 -0.02138408 0.2134912 0.3079117 0.2936455 0.2514268 0.01615373 0.2344305 -0.2447504 0.1191904 0.5532717 -0.3655783 -0.03361386 0.1614653 0.1650271 
  -0.2945669 0.3242329 -0.03430876 0.3845892 0.279621 0.3507479 -0.04401324 0.1047671 -0.4417096 0.06794139 -0.145008 0.1616788 0.2973465 0.2152905 -0.03531625 0.02487807 
  0.1644056 -0.01022482 -0.26144 -0.1049859 0.07178243 -0.3122526 0.356074 0.5169089 0.1424046 0.4058636 -0.06900642 0.2828881 0.2462523 0.1795333 0.09554311 0.03530777 
  -0.45073 0.2744298 -0.01481766 -0.2020342 -0.4160844 0.1179519 0.2813 0.04378203 -0.08777941 0.1549904 -0.1404673 -0.0007822458 -0.527987 0.1609841 0.1715894 0.009751656 
  -0.1997202 0.1002056 0.3015597 0.0240721 0.01493386 -0.1711307 0.2293766 -0.4806481 0.097045 0.1940953 0.07063764 0.2500656 0.3252913 -0.1929711 0.4007555 -0.2832835 
  0.5115419 0.3993009 0.07448956 0.06307079 -0.2706193 -0.03709723 -0.3110096 -0.1697781 -0.1064897 0.1486411 0.1767751 0.3316236 -0.09751104 0.1911604 0.1138813 0.2779082 
  -0.1803684 -0.2262988 0.3671483 0.1242464 -0.06862865 -0.2187685 -0.162678 0.378177 -0.345571 0.1581616 0.243862 0.05097552 -0.09517699 -0.3901773 0.1733407 0.2983212 
  0.2721989 -0.0382829 0.5585657 -0.155858 0.2262353 0.2356869 0.2155694 0.1242675 -0.03130336 -0.00334974 0.06796494 -0.3607617 0.05121615 0.4064829 0.2820586 0.0442346 ]
<OrthonormalConstraint> -1 <UseNaturalGradient> T <RankInOut> 8 4 <Alpha> 4 <NumSamplesHistory> 2000 <UpdatePeriod> 4 </LinearComponent> 
<ComponentName> tdnn2.affine <NaturalGradientAffineComponent> <MaxChange> 0.75 <L2Regularize> 0.004 <LearningRate> 0.0004991947 <LinearParams>  [
  -0.07593157 -0.3048679 0.2409433 -0.003021262 -0.2918278 0.05413739 0.005249411 0.04890738 0.03053901 -0.2159538 0.1109532 0.07268893 0.04685101 0.1385485 -0.2673799 0.5305545 
  -0.3291571 -0.1651854 -0.04648728 0.1100339 -0.03381829 0.4275056 0.3217976 -0.4335795 -0.1949847 -0.0421258 0.1721278 -0.02995289 -0.0138326 0.007371069 -0.0996832 0.3601693 
  0.01335295 -0.2854072 -0.1517077 -0.04071799 -0.04835852 0.2265761 -0.2904291 -0.2710613 -0.2490816 0.1901204 0.2388638 -0.2252976 0.006409751 0.2404756 0.07062693 0.3500774 
  -0.004830856 -0.06598279 0.01906572 0.1848844 0.07018859 0.1939745 -0.4109273 -0.004359863 0.2192061 0.2068801 0.09544227 -0.164453 0.3456569 0.1990217 0.02161038 0.02522416 
  -0.120547 0.1822784 -0.09405547 0.374167 -0.170664 -0.09086053 -0.06716505 0.1849527 0.1344453 0.07711948 -0.05379312 0.1059964 -0.04497091 -0.1766766 0.003832218 -0.0369417 
  -0.06115392 0.1137519 0.08971435 -0.0962443 -0.04344581 -0.151149 -0.06805578 0.03136628 0.04995521 -0.07585584 0.1873281 0.1023797 0.1759699 0.0193936 0.1126839 0.03468044 
  0.2102271 0.02409589 -0.006513017 0.09296592 -0.06532879 -0.02450959 0.02441168 0.06755649 -0.1415657 0.01361212 -0.05646243 -0.1087532 0.09749402 0.1116505 -0.2231957 0.01521572 
  -0.1245545 -0.1676441 0.2357952 -0.06105832 0.1836107 -0.02958881 -0.3566693 -0.04544839 0.1970787 -0.01338372 -0.07569736 -0.05519409 0.1465989 -0.1042353 -0.1567366 -0.587611 
  -0.2967443 0.2134884 -0.07357106 -0.2038725 -0.1771725 -0.514042 -0.197374 0.08778291 -0.2187906 -0.06474461 -0.1829592 -0.1213027 0.06280429 -0.1585587 0.03006223 -0.1326689 
  0.1223309 0.4170523 0.03496473 -0.4120105 0.1095332 -0.2668522 0.004857013 -0.06296255 0.1810814 0.121921 0.0465867 -0.2259386 -0.07060675 0.1017636 -0.1348676 0.03076792 
  -0.1605889 -0.464525 0.0990961 -0.1323568 -0.2813656 -0.07024333 -0.006897023 0.0886225 -0.1430919 0.3419325 -0.01204417 0.1341729 0.1123976 -0.2333219 -0.2476991 -0.08248817 
  -0.1984788 -0.2354245 -0.1461133 -0.3233018 0.1985419 0.03598768 -0.04513695 -0.1999175 -0.03535042 0.0348625 -0.040457 -0.2357177 0.0009514166 0.09071599 0.3576857 -0.1801037 
  0.3125881 -0.2516932 0.07852855 -0.1220151 -0.01932023 -0.333479 -0.1020697 0.09431913 0.1657382 -0.5504798 0.1768212 -0.3431749 0.4392451 -0.01835887 0.280934 0.2216235 
  0.1105312 -0.2574296 0.08381968 0.1210423 -0.4787826 -0.08912752 -0.03140334 -0.2687824 0.1812048 -0.08317321 0.008290524 0.07343789 0.02168362 0.281502 0.1226769 -0.2797507 
  0.2732281 0.2081744 -0.2431921 -0.1505209 -0.2667325 0.008505201 -0.07874706 0.07444796 0.2390798 -0.1202516 0.01223072 -0.03790549 -0.4461743 0.008834796 0.1522245 0.1362082 
  -0.2694634 -0.2964733 -0.4060981 0.03259917 -0.08267235 0.4600626 -0.1904132 0.05928547 -0.04759355 -0.05178029 -0.2460101 -0.14776 0.2708167 -0.09975734 -0.006709012 0.2424095 ]
<BiasParams>  [ 0.3657752 -0.1169473 0.8463954 0.5247855 0.5952724 -0.4353611 -0.7751862 0.4762613 0.1460989 0.3368486 0.920813 0.2741418 -0.009872328 0.4095221 -0.1494701 0.3146364 ]
<RankIn> 8 <RankOut> 8 <UpdatePeriod> 4 <NumSamplesHistory> 2000 <Alpha> 4 </NaturalGradientAffineComponent> 
<ComponentName> tdnn2.relu <RectifiedLinearComponent> <Dim> 16 <ValueAvg>  [ 0.8310778 0.373695 1.048747 0.6375459 0.7679691 0.002984388 1.103471e-05 0.8125406 0.5249994 0.7213137 0.9557973 0.7307603 0.6092972 0.7126411 0.3003762 0.8068137 ]
<DerivAvg>  [ 0.5489933 0.4705313 0.7679316 0.7699476 0.671462 0.01691873 0.0001890837 0.6663837 0.4857199 0.6168284 0.9344935 0.6087376 0.5248777 0.5977303 0.3895857 0.6330097 ]
<Count> 2813568 <OderivRms>  [ 0.04370896 0.07442238 0.06224788 0.07364614 0.04145544 0.3858158 0.7246573 0.04239343 0.0422508 0.07003494 0.07644179 0.04938236 0.06414404 0.06479236 0.04882883 0.0665651 ]
<OderivCount> 3980928 <NumDimsSelfRepaired> 558 <NumDimsProcessed> 3632 <SelfRepairScale> 1e-05 </RectifiedLinearComponent> 
<ComponentName> tdnn2.batchnorm <BatchNormComponent> <Dim> 16 <BlockDim> 16 <Epsilon> 0.001 <TargetRms> 1 <TestMode> T <Count> 46463.01 <StatsMean>  [ 0.8371843 0.3787957 1.032902 0.6569174 0.7683775 0.04095374 6.864003e-06 0.7999094 0.5778828 0.7419296 0.9393412 0.7101812 0.6528915 0.7694889 0.2992422 0.7825572 ]
<StatsVar>  [ 1.198672 0.3301024 0.6580964 0.4301528 0.8766963 0.01209269 7.159631e-07 0.7413414 0.7629392 0.7311045 0.3580729 0.6740435 0.7277224 0.9011535 0.2625365 0.7014014 ]
</BatchNormComponent> 
<ComponentName> tdnn2.dropout <GeneralDropoutComponent> <Dim> 16 <BlockDim> 16 <TimePeriod> 0 <DropoutProportion> 0 <TestMode> <Continuous> </GeneralDropoutComponent> 
<ComponentName> tdnn3l <LinearComponent> <MaxChange> 0.75 <L2Regularize> 0.004 <LearningRate> 0.0004991947 <Params>  [
  0.005179258 0.06533863 0.1099153 -0.129073 -0.05294801 -0.01811629 0.2905065 0.1130491 -0.2829739 0.3084126 -0.2483356 0.2177068 0.09293986 0.1550416 0.239629 0.2588421 0.05682332 -0.1164856 -0.1159085 0.2604449 -0.125813 0.0260294 -0.2948891 -0.02272524 0.08787305 0.05423985 0.1762196 -0.1094783 -0.009539574 -0.2760412 -0.02871593 -0.2108581 
  0.0801531 -0.3343445 -0.1450597 0.03478083 -0.1248865 0.1417615 0.1297007 0.2000405 0.08827123 0.2233269 0.2310075 -0.2865067 0.07310101 0.008067389 0.2113923 -0.256186 -0.3953466 -0.310029 0.08079021 0.04828995 -0.1663211 -0.04015929 -0.02279441 0.1922328 0.1945599 -0.1000891 0.06881747 -0.06097654 -0.05132883 0.05669379 -0.0942959 -0.006949434 
  0.2152583 -0.05478241 0.2699111 -0.2464933 -0.2555984 -0.1472443 -0.1496799 -0.1625034 -0.04105482 -0.1476376 0.2101739 0.1039075 -0.006645069 -0.2263032 -0.06203124 0.1288455 0.002321364 -0.2673738 0.1990872 0.06906262 -0.04989107 -0.05463692 -0.01138084 -0.2001519 0.2645734 0.1768009 0.3088863 0.08336961 -0.1749137 -0.04088312 0.09971404 0.2692945 
  0.2404022 -0.04780445 -0.2745585 -0.3502825 0.2181606 -0.029882 0.00371591 -0.05912679 -0.1536783 0.06849411 0.1290985 0.04451299 0.04881191 0.1302342 0.1466812 -0.3784357 0.2895978 0.1046111 -0.01407451 -0.2036303 -0.176114 -0.1306324 -0.1921273 -0.3067459 0.03899989 -0.09414592 -0.01646252 -0.1168997 0.1942227 0.03843359 0.05758058 0.1581381 
  0.2707206 -0.001122623 0.09118224 0.1742422 -0.2292203 0.05158024 0.01031825 -0.1436616 -0.01143749 0.2476001 0.00376963 -0.2671391 0.1078088 -0.00438306 0.007066444 0.1407237 0.1415372 -0.2044526 -0.02258405 0.07130989 -0.2030838 0.02711582 0.1376527 -0.09062568 -0.3515691 0.1230277 -0.3564909 0.05672786 0.2910002 -0.1875458 0.2246676 0.1899396 
  -0.1496352 -0.1220432 -0.06200548 -0.1871074 0.1518896 -0.05407168 -0.06842256 -0.1511809 -0.1139304 -0.1545449 -0.1310172 -0.02407746 0.5866287 0.1105749 0.002299769 0.2387956 -0.2397609 -0.1249778 0.05525527 -0.07401776 0.1056375 0.08433327 -0.001431546 0.064069 0.02135318 0.05917379 0.04548136 0.07940508 0.4150516 0.2056268 -0.1198363 0.1277135 
  -0.2523437 -0.1337193 -0.1759292 -0.0009206955 0.1323317 -0.03422592 -0.06769612 0.1290264 0.1553358 0.2849309 -0.1015556 0.2625471 -0.1154501 -0.3404411 0.04124028 0.0220562 -0.1315521 0.1227511 -0.06430653 -0.08800681 -0.08247764 -0.01488718 -0.05980929 -0.00561487 0.1839942 0.2683097 -0.1811553 0.2313086 0.08908134 -0.2690519 -0.05135139 0.3728922 
  0.1554423 0.1916534 0.1261526 -0.06356385 0.2131225 0.07938436 -0.07468445 0.3343744 0.03847704 0.08462782 0.2962649 0.08595791 -0.02217871 0.4843395 -0.04420336 0.1099378 -0.03530714 0.1350931 0.3656659 0.18717 0.001073111 -0.03723949 0.007438029 0.1254005 0.07360564 0.1904851 -0.1769467 0.2237133 0.003156879 0.05346874 -0.005917562 0.09718505 ]
<OrthonormalConstraint> -1 <UseNaturalGradient> T <RankInOut> 16 4 <Alpha> 4 <NumSamplesHistory> 2000 <UpdatePeriod> 4 </LinearComponent> 
<ComponentName> tdnn3.affine <NaturalGradientAffineComponent> <MaxChange> 0.75 <L2Regularize> 0.004 <LearningRate> 0.0004991947 <LinearParams>  [
  0.01680387 -0.05194944 0.1422771 0.06787872 -0.03744088 0.0518517 0.02256588 0.2752122 0.04404903 -0.2330944 -0.1135535 0.1585798 0.2338952 -0.1726819 0.1775113 -0.02493877 
  -0.1930169 0.05601794 -0.007692708 -0.1765576 -0.0839041 -0.2195568 0.109236 0.07951186 0.01651466 0.09766895 0.2456836 -0.06785466 -0.1147795 -0.08072474 0.03263772 -0.04593588 
  -0.1782412 -0.1618894 0.2108393 -0.1807014 -0.1216155 0.1836476 0.08343666 -0.4119487 0.169435 -0.05369629 0.1467256 -0.04597243 0.1815656 0.2039383 0.2174353 -0.1021491 
  -0.08524682 -0.2885516 0.186853 0.1255454 0.3462647 0.1535386 0.006490195 -0.1200942 0.05747413 -0.2146565 0.08737339 -0.00930695 0.03211616 0.1403161 -0.08187442 0.005634387 
  -0.004555822 -0.02071881 0.07364286 -0.02551186 -0.1529558 -0.1222988 -0.08001308 -0.4290044 -0.05746604 0.09975747 -0.2396606 0.1512075 -0.1520213 0.05824035 -0.0980858 -0.0579349 
  -0.1883627 -0.09859866 -0.01399102 0.1099082 -0.007729646 0.2374673 -0.02190593 -0.09578378 0.02153352 0.01035815 -0.4136675 -0.2143736 0.09271186 -0.1080402 0.02556368 -0.4457175 
  0.147499 -0.02507174 -0.1039809 0.05918073 0.02961639 -0.4343508 -0.2243569 -0.03023965 0.2023488 -0.08028428 0.08577301 -0.006420779 -0.05192522 -0.2340456 -0.258808 0.09515209 
  0.05331822 0.1198718 0.256445 0.1356957 -0.05698225 -0.1674414 0.3373111 0.04025401 -0.1321975 0.02074161 0.2689387 -0.1024518 -0.004524016 -0.2196712 -0.05283623 0.0004498325 
  0.03457546 -0.1511613 0.04664881 0.1788247 0.1205853 0.2062463 0.1126841 -0.3125542 0.006318945 0.1819913 -0.1466864 0.06036182 -0.1659508 -0.07482376 0.09806146 -0.1023746 
  -0.0818691 -0.102158 0.1246211 -0.3221654 0.3633578 -0.2612549 0.05330766 0.09147231 -0.2039363 -0.06702662 -0.1519399 0.02790084 -0.2595913 0.1710496 0.1781021 -0.2594281 
  0.01690441 0.2973888 0.06737658 -0.01099944 -0.1888295 0.07028547 0.2666425 -0.09008379 -0.03812077 0.06299032 0.06269927 -0.0057641 -0.06524599 0.3663026 0.04347445 0.2743809 
  -0.2177374 -0.1148615 -0.2633185 0.06441154 0.2103327 -0.2295524 0.220849 0.01828796 -0.08758371 -0.1634904 -0.1823732 0.1510011 -0.1218004 -0.02263778 0.09608341 -0.1579411 
  -0.1841015 0.278207 -0.07546941 0.2503611 0.05634745 0.2047835 -0.09078117 -0.1607637 -0.2660402 0.06939256 -0.2450507 0.208363 -0.09114877 0.07213438 0.03507372 0.06588007 
  0.08442131 0.03060009 0.02429472 -0.03228034 -0.001584828 -0.001382496 0.1787436 0.0445388 -0.2360468 0.02101447 0.02366211 -0.1970151 -0.3420323 -0.02898592 -0.07189433 -0.2567708 
  0.1066394 0.03918646 -0.1956588 0.181969 0.06525157 0.1668741 -0.1620722 0.07920899 0.1896405 -0.02693345 0.02200519 0.04049802 -0.0253493 -0.009871827 0.03870523 -0.1392831 
  -0.2241432 0.074856 0.2544539 0.004877546 -0.06930137 -0.3540836 0.08529829 -0.1017084 -0.2468285 0.01734182 0.06487706 0.009258019 -0.1349027 0.07141587 0.1479711 0.2075799 ]
<BiasParams>  [ 0.004923877 0.4668061 0.1200635 -0.2433975 0.1569761 -0.7440972 1.132817 -0.1104375 -0.5687689 -0.08493835 0.4537288 -0.4066801 0.4245282 0.647149 0.8080816 0.4193822 ]
<RankIn> 8 <RankOut> 8 <UpdatePeriod> 4 <NumSamplesHistory> 2000 <Alpha> 4 </NaturalGradientAffineComponent> 
<ComponentName> tdnn3.relu <RectifiedLinearComponent> <Dim> 16 <ValueAvg>  [ 0.2341027 0.6678703 0.4430806 0.4124565 0.5682566 0.1760096 1.229506 0.3444738 0.1712127 0.2451317 0.6595992 0.1958254 0.7044277 0.7959023 0.8963308 0.6169413 ]
<DerivAvg>  [ 0.4779132 0.7000044 0.6314752 0.3545135 0.5295495 0.2926749 0.9328579 0.3747551 0.334957 0.4963895 0.6724944 0.322188 0.6379954 0.7747273 0.8975951 0.6240728 ]
<Count> 2547584 <OderivRms>  [ 0.05070534 0.02239411 0.04575356 0.03726117 0.03859565 0.04257895 0.03775264 0.03042429 0.06986859 0.0509164 0.02876634 0.04012012 0.04854676 0.02967232 0.03419642 0.02201293 ]
<OderivCount> 3937408 <NumDimsSelfRepaired> 21 <NumDimsProcessed> 3568 <SelfRepairScale> 1e-05 </RectifiedLinearComponent> 
<ComponentName> tdnn3.batchnorm <BatchNormComponent> <Dim> 16 <BlockDim> 16 <Epsilon> 0.001 <TargetRms> 1 <TestMode> T <Count> 45951.01 <StatsMean>  [ 0.2241902 0.644856 0.4037157 0.4040498 0.5390028 0.1666696 1.174331 0.3127144 0.1683137 0.2339863 0.6436632 0.2029304 0.6985741 0.766896 0.8516522 0.5861528 ]
<StatsVar>  [ 0.1250063 0.5697018 0.2294099 0.5342835 0.4480806 0.1036436 0.7434198 0.3871838 0.07560959 0.1129145 0.6077322 0.1253069 0.5571647 0.3982 0.2849962 0.6408223 ]
</BatchNormComponent> 
<ComponentName> tdnn3.dropout <GeneralDropoutComponent> <Dim> 16 <BlockDim> 16 <TimePeriod> 0 <DropoutProportion> 0 <TestMode> <Continuous> </GeneralDropoutComponent> 
<ComponentName> tdnn4l0 <LinearComponent> <MaxChange> 0.75 <L2Regularize> 0.004 <LearningRate> 0.0004991947 <Params>  [
  0.09827478 -0.08124389 0.03935973 0.1110292 -0.008757942 -0.004885051 -0.05520449 0.1441291 -0.0690809 0.01506571 -0.01697362 -0.2667209 0.1111042 0.1693628 0.004061184 0.2116173 0.1479149 0.08940775 -0.293318 -0.1188722 0.06747765 -0.3450442 -0.1061102 -0.040105 0.1334608 -0.1280261 -0.0351681 -0.1916997 0.05600558 -0.087431 0.08256277 0.02530899 
  -0.27782 0.0428418 0.002682282 -0.05682864 -0.1398949 0.02647976 -0.2124663 -0.1341111 -0.07542668 -0.1536283 0.06855726 0.0007274759 0.1978543 0.1174411 0.194246 -0.03727775 0.1603285 -0.1529412 -0.009074613 0.2773965 0.127073 0.08264159 -0.00521924 0.0150199 -0.01371945 -0.1762533 0.2581543 -0.08529145 0.03894189 -0.1527562 0.03924858 0.02584818 
  -0.005087201 0.002678394 -0.01282279 -0.1406218 0.2670147 -0.1733918 0.06958621 -0.07383272 0.1608705 0.03141146 0.09271657 0.05963746 0.2067418 -0.007099238 0.1015871 -0.0253647 0.2953535 0.2000676 -0.04894589 -0.09076275 0.05035662 0.06552926 -0.1824905 -0.1113772 -0.08160517 0.1203276 0.1111793 -0.04856128 -0.006560894 0.1734214 -0.2008535 0.2282472 
  -0.03917696 0.1698169 0.1237997 -0.2562319 0.1965076 -0.1383352 -0.3086433 -0.04684892 0.06068597 -0.1712999 0.004810638 -0.1714104 -0.131544 0.02880936 -0.1247114 0.1397515 -0.02812894 -0.07503709 0.1069782 -0.16738 0.108825 0.09400818 0.02857071 0.08038183 0.06875458 -0.232037 -0.184155 0.01479172 0.05121841 0.08842246 -0.1088662 -0.04730748 
  0.2715396 -0.03658714 -0.100032 0.1029525 0.1211671 -0.01953242 -0.2543488 -0.2237416 -0.2019746 0.1445455 0.1599774 0.02025888 0.1403518 -0.2142871 -0.005088281 0.01046766 -0.1302158 -0.2149736 -0.07138465 0.06599198 0.05750297 -0.01742745 -0.1010974 -0.190631 0.03268385 0.05852765 0.01122638 0.01896497 0.2038608 0.1193027 -0.01979674 -0.1019195 
  0.02030567 0.129271 -0.214768 -0.271755 -0.04613574 0.09543706 0.1055358 0.1005267 0.08947671 0.1413762 -0.0537926 0.02768709 0.3215823 0.02949908 -0.100468 0.0823555 -0.03355876 -0.1057687 -0.1426037 -0.1028518 0.0436256 0.1215426 0.3734915 -0.0430871 0.02620247 -0.01312726 -0.02278351 -0.03075116 0.1436055 0.05301271 0.1453625 0.05218123 
  0.1080039 -0.03457289 0.05544679 0.05119891 0.2554326 0.2215157 0.09258793 -0.07076082 -0.2486805 -0.09219151 0.03367091 -0.1042855 0.1467261 0.1589533 -0.0334459 0.01799264 -0.1766542 0.02122281 0.1488937 0.07133624 -0.1760506 -0.01278286 0.1581143 0.2112455 0.0844191 -0.03781895 0.1279399 -0.1343643 -0.06661745 0.08513128 -0.1842551 0.2189445 
  -0.1784879 -0.1581521 0.05511029 0.06120683 0.06945445 -0.005861457 -0.03897487 -0.02405234 -0.1803224 -0.02734011 -0.4217544 -0.04864383 0.06527306 -0.01002156 0.08732876 -0.02397084 -0.01882575 0.1296708 0.1080583 -0.08466662 0.2431884 -0.03585266 0.04565455 0.09891693 -0.06710142 0.1755624 0.01531926 0.1114964 0.3140391 0.1309542 0.06349742 -0.02230474 ]
<OrthonormalConstraint> -1 <UseNaturalGradient> T <RankInOut> 16 4 <Alpha> 4 <NumSamplesHistory> 2000 <UpdatePeriod> 4 </LinearComponent> 
<ComponentName> tdnn4l <LinearComponent> <MaxChange> 0.75 <L2Regularize> 0.004 <LearningRate> 0.0004991947 <Params>  [
  0.01883543 0.06724553 -0.1110468 -0.1405887 -0.1433151 0.05829604 -0.09308202 0.09091207 -0.04166576 -0.2693956 0.3821047 -0.0639549 -0.1255191 0.3330056 0.224887 -0.1629126 
  0.2471378 0.173574 0.1448744 -0.02437713 0.1208779 -0.1851536 0.08972099 0.2211488 0.09408911 0.1686361 0.2247079 0.1460209 0.350454 -0.02571589 -0.04252217 -0.2289236 
  -0.2080679 0.2276586 0.1521477 -0.1821014 -0.006016422 -0.1738052 -0.1615803 -0.1043016 0.1068952 0.3220327 0.01726595 -0.1933946 -0.1960708 -0.1402806 0.2445639 -0.09669922 
  -0.3098002 -0.2684928 0.1261678 -0.03551028 0.05437289 -0.03409947 -0.06775344 0.05955092 -0.04272408 0.1382015 0.3215355 0.1235461 0.1885941 0.02277067 0.05696209 0.3689101 
  -0.02016129 -0.3068134 -0.3249929 -0.1150909 0.09663816 -0.2423622 -0.2243108 -0.1037817 0.146044 0.1047371 -0.1369437 -0.01235667 0.1533958 0.2343133 -0.01626733 -0.1747638 
  -0.270838 0.1079506 -0.3193559 -0.1424749 -0.1547216 0.02593115 0.3802472 0.06043496 -0.1391122 0.1402948 0.04518573 -0.1769447 0.135473 -0.03612439 -0.1457224 -0.0653614 
  -0.1876966 -0.1032254 -0.09521794 0.06709642 0.05840333 -0.2826242 0.126924 0.1417699 -0.06069947 -0.1107971 0.03025914 0.3747866 -0.2854304 -0.2189918 0.04006317 -0.1932485 
  0.04312262 0.2427837 -0.1110744 -0.358987 0.3742585 -0.1058792 -0.04971937 0.1362268 -0.1412207 -0.107494 -0.1075952 0.04048518 -0.07125741 0.07986955 -0.07134257 0.2755143 ]
<OrthonormalConstraint> -1 <UseNaturalGradient> T <RankInOut> 8 4 <Alpha> 4 <NumSamplesHistory> 2000 <UpdatePeriod> 4 </LinearComponent> 
<ComponentName> tdnn4.affine <NaturalGradientAffineComponent> <MaxChange> 0.75 <L2Regularize> 0.004 <LearningRate> 0.0004991947 <LinearParams>  [
  0.243898 -0.2276551 -0.07958967 0.07447966 -0.1830973 0.1302509 -0.009550548 0.01444091 -0.0166641 -0.1700732 0.001661027 -0.226778 0.05221806 -0.05902748 0.1509546 -0.1615827 
  -0.1468566 0.2299286 0.1509495 -0.2065337 -0.1939187 0.02823724 -0.09795311 -0.05111237 0.01463783 -0.3769946 -0.04395404 -0.03278899 -0.0051525 0.075138 0.1935945 -0.02801339 
  0.1851899 -0.07637931 -0.1684769 -0.007823083 -0.01315568 -0.1054907 0.2175732 -0.1407845 0.003063173 -0.07391705 -0.0381866 -0.218081 0.2117614 -0.2304688 0.1406838 -0.1610276 
  -0.1573339 -0.003491888 -0.02631195 0.2043364 -0.05872891 -0.1316069 0.08750654 0.07924812 0.07855515 -0.2005673 -0.1390872 0.07169951 -0.1161164 0.09553567 -0.1439826 0.02153923 
  0.3030806 0.06564091 0.08924498 0.2724882 -0.26199 0.2212365 0.1602687 0.03843138 -0.1731742 -0.1798341 0.189056 -0.2744635 -0.02132242 -0.01027841 0.2318457 -0.02982954 
  -0.1241568 -0.02100695 -0.08467697 -0.126298 -0.0622049 0.09976042 -0.1836701 0.001920715 -0.2643056 -0.1414744 -0.09009524 -0.2064139 0.2236389 0.1467381 -0.05776862 0.01976081 
  -0.06394278 0.04227867 0.03541036 -0.1210652 0.08684804 0.03410329 0.3446981 0.206278 0.09964137 -0.1341652 0.002762902 0.170488 -0.06108144 -0.1416602 0.2758613 -0.05667016 
  -0.2685077 0.07281835 0.1675546 0.1340097 -0.0691081 0.05969233 0.05340433 -0.009320918 -0.2394779 0.1114971 0.08340099 -0.12949 0.09369259 -0.02520142 -0.05671011 0.251116 
  -0.1743595 -0.2156526 -0.3085515 -0.09327319 -0.1185307 -0.007488654 -0.1662121 -0.3342607 -0.4179999 0.09400578 0.05468956 -0.07115386 -0.002622576 0.06488502 -0.1973373 -0.03600591 
  0.05626128 -0.0777021 0.00340278 -0.1418739 -0.070274 0.1044336 0.08731358 -0.1193553 -0.06410812 -0.3470196 0.08546243 -0.1560354 -0.027481 -0.1568488 0.1909959 0.01021157 
  -0.2111501 0.243557 -0.06302627 -0.1754693 0.2011439 0.04951571 0.1109768 -0.05086034 0.2349408 0.1439658 -0.1403707 0.0944131 0.06589316 -0.2588191 0.1280909 -0.05574828 
  0.2013611 0.1741538 0.1081961 -0.04313879 0.05059325 -0.1831729 0.1858315 0.02059411 -0.05272187 0.1043437 -0.1979486 -0.4370607 -0.07500909 0.09293342 0.1268107 -0.3181374 
  0.1586899 0.10192 -0.02902824 -0.1725199 0.2039817 0.06676859 -0.3014073 0.2237639 0.2637866 0.1756411 -0.157891 0.06199062 0.03460602 0.0939591 -0.1249133 0.286058 
  0.03064117 0.1195687 -0.08385736 0.03752045 -0.1849222 0.09118158 0.07834633 0.1294646 -0.04078574 -0.03439894 0.1190104 0.124052 0.1282359 0.3805881 0.4690633 0.1794104 
  -0.08892424 0.4045213 -0.1609798 0.0045491 -0.2467135 0.02863889 -0.1147154 -0.2023918 -0.08382239 0.2090904 -0.08949697 0.2934639 0.004132435 0.168409 0.01329624 -0.2300983 
  -0.04701534 0.1240536 0.2032992 -0.09911024 0.1598964 -0.1094664 0.1918856 -0.08863979 0.1147606 0.3697982 0.1369199 0.1460883 0.09138514 0.2675128 0.2134823 0.02969238 ]
<BiasParams>  [ 0.2444469 1.281425 0.06597477 0.1607002 0.1133284 1.423308 0.314791 -0.1239044 -0.09244113 0.04961837 0.3262608 -0.3547025 -0.8335686 0.2953497 -0.5381688 0.401965 ]
<RankIn> 8 <RankOut> 8 <UpdatePeriod> 4 <NumSamplesHistory> 2000 <Alpha> 4 </NaturalGradientAffineComponent> 
<ComponentName> tdnn4.relu <RectifiedLinearComponent> <Dim> 16 <ValueAvg>  [ 0.3539695 1.368672 0.2967746 0.2496627 0.2229315 1.511752 0.411381 0.2023656 0.05774938 0.226586 0.3589288 0.1566417 0.03908443 0.4044072 0.05994151 0.4700532 ]
<DerivAvg>  [ 0.7171585 0.9997976 0.4484404 0.5623983 0.6011239 0.9850135 0.7848036 0.316843 0.3073656 0.5273826 0.8532017 0.250211 0.102332 0.752323 0.1351125 0.7563319 ]
<Count> 933696 <OderivRms>  [ 0.09130384 0.122683 0.06708952 0.1064907 0.109577 0.07937328 0.07736917 0.1180899 0.2683032 0.1157878 0.1254121 0.07533642 0.1580387 0.0737034 0.1770553 0.04509444 ]
<OderivCount> 1324800 <NumDimsSelfRepaired> 422 <NumDimsProcessed> 3376 <SelfRepairScale> 1e-05 </RectifiedLinearComponent> 
<ComponentName> tdnn4.batchnorm <BatchNormComponent> <Dim> 16 <BlockDim> 16 <Epsilon> 0.001 <TargetRms> 1 <TestMode> T <Count> 15231.67 <StatsMean>  [ 0.3486901 1.283249 0.3077489 0.2465709 0.2204122 1.428785 0.3839571 0.2181906 0.06968208 0.2284914 0.359176 0.1454895 0.04013288 0.3596812 0.06633037 0.4450431 ]
<StatsVar>  [ 0.1441423 0.1207561 0.2039739 0.08038113 0.09885431 0.3166144 0.1163992 0.1792272 0.0201145 0.1090279 0.07210581 0.1122895 0.02385585 0.1626703 0.05361601 0.2452323 ]
</BatchNormComponent> 
<ComponentName> tdnn4.dropout <GeneralDropoutComponent> <Dim> 16 <BlockDim> 16 <TimePeriod> 0 <DropoutProportion> 0 <TestMode> <Continuous> </GeneralDropoutComponent> 
<ComponentName> tdnn5l <LinearComponent> <MaxChange> 0.75 <L2Regularize> 0.004 <LearningRate> 0.0004991947 <Params>  [
  0.2871662 -0.1304901 0.01981943 -0.02218823 0.04144906 0.1945363 -0.08280779 -0.2262888 0.1730332 -0.1619889 -0.3133703 -0.06855441 0.08690729 -0.2059308 0.151796 0.09611054 
  0.09011327 0.1613239 -0.1221417 -0.1315567 0.2177175 -0.206476 0.1589306 -0.1700925 -0.07674461 -0.06095577 0.1723412 0.1872132 -0.190446 -0.1693635 0.2508888 0.1293534 
  0.2204047 0.008948484 -0.2635411 0.2726819 0.1734971 -0.2505886 0.09639455 -0.09097853 -0.007706817 -0.04486112 -0.1509646 -0.0713433 0.06413313 0.2126217 -0.2253051 -0.01940995 
  0.3073782 0.2587326 0.3693996 0.1193242 -0.03953215 -0.0002612555 0.07603966 -0.04259008 -0.05767104 0.04152645 0.2109291 -0.1550187 0.2153386 0.02121752 0.03516231 0.03178054 
  -0.0924817 0.3542867 -0.123848 -0.03859226 0.03626985 0.05694994 0.07765626 0.2327457 0.2562368 -0.05204366 -0.135474 0.1534701 0.2830617 0.06037518 0.06655177 0.1670999 
  0.2236532 -0.09661791 0.04702801 -0.311288 0.2839026 0.04884661 0.1202958 0.2228831 0.07037327 0.3440806 -0.08003023 -0.0849456 -0.05832961 0.07286739 -0.05902933 0.0175947 
  -0.008057158 -0.2793823 -0.008120142 0.07296397 -0.159823 -0.2262716 0.2718324 0.2701706 -0.02443773 -0.09188158 -0.008812153 -0.1638007 0.08242594 -0.1379687 0.1555032 0.211826 
  -0.04318083 -0.1787896 0.2424484 -0.125013 0.052639 -0.2660573 -0.111533 -0.1278528 0.3148986 -0.120373 0.1212999 0.1429706 0.06013241 0.06898604 -0.2274356 0.1514443 ]
<OrthonormalConstraint> -1 <UseNaturalGradient> T <RankInOut> 8 4 <Alpha> 4 <NumSamplesHistory> 2000 <UpdatePeriod> 4 </LinearComponent> 
<ComponentName> tdnn5.affine <NaturalGradientAffineComponent> <MaxChange> 0.75 <L2Regularize> 0.004 <LearningRate> 0.0004991947 <LinearParams>  [
  -0.1628672 0.03686954 0.06315771 0.2173961 -0.2107128 -0.0152048 -0.04387636 0.1214532 -0.06699167 0.03397585 0.3459746 0.2170538 0.2173055 -0.1278137 -0.530634 0.03142593 
  0.02299849 0.3508267 0.2147395 0.1893712 -0.111475 0.1844039 -0.1698629 0.3119124 -0.03234248 -0.1408437 0.1782113 -0.06667731 -0.02324196 -0.1406759 -0.01626807 -0.07571514 
  -0.0704485 -0.05914226 0.03157637 0.05392022 0.09731506 0.260501 0.01947388 0.157468 0.05932985 -0.2499982 0.2030036 -0.03286195 -0.0222966 -0.05701383 -0.1366864 0.2696064 
  -0.1025501 0.09076194 0.06975834 0.06488902 0.2400333 0.2604137 -0.08170716 0.05732151 -0.2355763 -0.1318626 -0.268108 0.2793196 -0.07862679 -0.004570717 -0.1048498 -0.02404791 
  0.1161815 -0.08674601 0.1685919 -0.2097432 0.06705265 -0.07021246 -0.2615407 0.0864277 -0.06439875 -0.03580684 0.02789539 0.2722442 0.04622578 -0.005333959 -0.2550409 -0.1174934 
  0.0831958 -0.05461692 -0.1646802 -0.243391 -0.06706254 0.05315766 0.2338902 0.04187677 0.2195202 0.1316564 -0.135334 -0.1308359 0.2452418 -0.1953622 0.1739147 -0.2940155 
  0.1008851 0.1105726 -0.222339 -0.01449389 -0.1745415 -0.1155725 -0.1595421 -0.2211035 -0.1839732 -0.0568918 -0.02935046 -0.2461017 -0.3851373 0.1123224 0.1205551 0.1572899 
  -0.09458419 0.08495038 -0.1816216 0.2050039 0.192561 0.2431509 -0.115923 0.2078341 0.1475135 0.3931145 -0.01903871 -0.05801454 0.07290138 0.1118757 0.1932887 0.1891108 
  0.02047991 0.02873509 0.2569333 -0.05883499 -0.1116267 -0.22831 -0.1425057 0.0673641 -0.03532141 -0.02990082 -0.2282314 0.08190443 0.04156835 0.1056252 -0.05159276 -0.1824028 
  -0.1515656 -0.2629184 -0.1294282 0.009965274 0.133638 -0.04215372 -0.03402569 0.03809476 -0.06715959 -0.02655051 0.2919044 0.2422992 0.2060029 0.0123728 -0.07062064 -0.1571543 
  -0.2209301 0.0809766 0.06681405 0.1242391 -0.2080457 -0.2573986 -0.02812878 0.2247143 0.01736481 0.1370608 0.01980518 0.1384122 -0.1816596 -0.05953395 0.2749105 -0.399002 
  0.2818071 -0.1538736 -0.1978142 -0.1518109 0.08472746 -0.0627396 -0.3506839 0.03891654 -0.2668772 0.2031922 -0.03955951 -0.2888884 -0.2241561 0.003387943 -0.1786806 0.1329563 
  0.1772553 0.00859653 0.04856824 0.03106228 -0.01449196 -0.03179691 -0.05401481 -0.08324794 0.1436091 -0.4472374 0.1357197 0.1624699 0.01333223 -0.1772268 -0.03032225 -0.1145865 
  0.05894014 0.2561303 -0.04737634 -0.08683638 -0.02843767 -0.1968204 0.3177199 0.1719976 -0.03283009 0.07606594 0.02078524 -0.1356577 -0.2838711 0.03941189 -0.3540263 -0.2962936 
  -0.2994194 0.02175763 -0.04067945 0.1787253 -0.0486979 -0.09967248 0.08302829 -0.1271776 0.2116587 -0.08060334 0.1213736 0.005761274 0.09811474 0.2557926 -0.1891014 0.1250004 
  -0.05802109 0.09398549 0.04727227 0.08657617 0.02025435 -0.07099465 0.0654102 -0.1817171 0.2010507 -0.001637419 0.1607995 -0.4986078 0.08824895 0.0003446514 0.01723503 0.118873 ]
<BiasParams>  [ 0.2404477 -0.678751 0.03582298 0.8646897 0.07316031 0.4324417 1.082223 -0.7163237 -0.1061194 -1.116242 0.5288443 -0.5866098 -0.5826114 -0.08410823 0.4422218 -0.2042735 ]
<RankIn> 8 <RankOut> 8 <UpdatePeriod> 4 <NumSamplesHistory> 2000 <Alpha> 4 </NaturalGradientAffineComponent> 
<ComponentName> tdnn5.relu <RectifiedLinearComponent> <Dim> 16 <ValueAvg>  [ 0.5354897 0.1246932 0.4219846 0.9201581 0.4261451 0.699407 1.189134 0.1822123 0.271592 0.0844929 0.8207453 0.1320035 0.06915734 0.2271045 0.5443485 0.3054498 ]
<DerivAvg>  [ 0.509366 0.1577414 0.4897882 0.9068384 0.5637961 0.6674557 0.8755597 0.2308736 0.4336367 0.1295437 0.6524675 0.2359883 0.1565983 0.3588402 0.6438776 0.3985221 ]
<Count> 803968 <OderivRms>  [ 0.1179945 0.1141893 0.132087 0.1747481 0.1403535 0.1454085 0.1297273 0.09084931 0.1393266 0.1450897 0.1361791 0.130692 0.1821734 0.2185139 0.120639 0.1444176 ]
<OderivCount> 1280448 <NumDimsSelfRepaired> 0 <NumDimsProcessed> 3760 <SelfRepairScale> 1e-05 </RectifiedLinearComponent> 
<ComponentName> tdnn5.batchnorm <BatchNormComponent> <Dim> 16 <BlockDim> 16 <Epsilon> 0.001 <TargetRms> 1 <TestMode> T <Count> 15231.67 <StatsMean>  [ 0.5611318 0.1496131 0.4545957 0.9003841 0.4201949 0.6764683 1.149805 0.2045553 0.2761575 0.07496127 0.8203499 0.12452 0.0827321 0.2519198 0.5510997 0.2900437 ]
<StatsVar>  [ 0.6130711 0.1765088 0.3612639 0.30064 0.3210391 0.4670977 0.7230982 0.2385566 0.1667502 0.06253703 0.6787353 0.0939317 0.05756862 0.2697116 0.431233 0.2426035 ]
</BatchNormComponent> 
<ComponentName> tdnn5.dropout <GeneralDropoutComponent> <Dim> 16 <BlockDim> 16 <TimePeriod> 0 <DropoutProportion> 0 <TestMode> <Continuous> </GeneralDropoutComponent> 
<ComponentName> tdnn6l0 <LinearComponent> <MaxChange> 0.75 <L2Regularize> 0.004 <LearningRate> 0.0004991947 <Params>  [
  0.08222219 -0.09742875 0.005983616 -0.1049347 -0.1776083 0.04285375 -0.02158638 -0.07786711 0.2230398 0.06426295 -0.1113017 -0.09966747 0.03153524 -0.4938659 -0.3408736 -0.0349405 -0.3838296 0.1198357 0.09201615 -0.1558741 -0.1515001 0.06961097 -0.09152453 -0.1255419 -0.001023207 0.1060458 -0.1152122 -0.1083027 -0.02344603 -0.2926453 -0.01270747 -0.009515595 
  0.06631336 0.1250391 -0.0121719 0.3875763 0.2471278 -0.2690164 -0.1267275 -0.1573948 -0.02207234 0.03560155 -0.2574181 0.01372531 0.02740891 0.1145423 0.1541407 -0.2204446 0.07254432 0.03704201 0.1094168 -0.2784226 -0.1450031 0.02267302 -0.1277464 0.08741287 -0.1563192 0.0340839 -0.2804525 0.06616119 -0.04271783 -0.2615349 0.1602349 0.1424107 
  0.004606213 0.2564026 -0.07094213 -0.08635183 -0.04655916 -0.1495255 -0.02953035 -0.2226851 -0.2187829 -0.02499759 0.157975 0.2842519 -0.1154786 0.2587767 -0.02838191 0.176256 -0.4449306 0.05452811 0.02953392 0.03464532 -0.03648749 0.1402474 0.1538618 0.08378379 0.1201114 -0.004812321 0.04420725 0.1128949 0.2410438 -0.2695649 0.03657934 -0.1853968 
  -0.1037944 0.004119087 -0.01780821 -0.0336765 0.08891851 0.1125214 0.03858336 0.02815046 -0.1250558 -0.1160974 0.1897856 0.07178597 -0.121775 0.02080006 -0.2083976 0.185094 0.08840676 -0.06660545 -0.2166556 -0.0184851 0.01009497 0.09534441 -0.513554 0.06902937 0.1822172 0.1993819 -0.3245496 -0.1048364 -0.0728517 0.0536917 0.3413833 -0.1204021 
  -0.03315558 0.03038478 0.382908 0.05914156 -0.2510668 -0.3259678 0.03528552 0.2916007 -0.211611 0.02925421 -0.0361959 -0.1287542 0.00787344 -0.1444639 0.2009604 0.06276253 0.04362693 -0.08932615 -0.1578019 -0.3441356 0.02359909 0.1294285 -0.01274992 -0.07678604 0.2713534 -0.03794629 -0.07423617 -0.0102363 0.135412 -0.007997495 -0.1593343 -0.1464336 
  0.02980503 0.006452573 -0.005570431 -0.320206 0.007224543 -0.08839172 -0.1532035 -0.1455027 0.06220015 0.09850174 -0.356647 0.03867377 -0.009029357 -0.02842098 0.4269974 0.2550113 -0.002587562 0.1526528 -0.3589065 0.1889351 0.02057582 0.01844901 -0.113198 -0.2379091 -0.1299857 0.002621432 0.001381691 -0.1046315 -0.1072251 -0.1063992 0.09344 -0.0299715 
  0.01008291 0.1862444 0.03023168 -0.1639626 0.1976627 -0.3226409 0.6015844 -0.04358447 0.01125959 -0.09906569 0.04139031 -0.1313475 -0.03942256 -0.02267635 -0.02643405 -0.09233233 0.09186016 -0.08241383 0.04383636 0.2624199 -0.1222627 0.05011079 0.02989764 -0.01859584 -0.06761777 0.01498589 -0.08576547 -0.3052712 -0.04830788 -0.1446842 -0.1223828 -0.004430455 
  -0.352538 -0.3345318 -0.1469027 -0.03387765 -0.2353995 0.06760696 0.01980668 0.1260432 0.004815905 -0.1797256 0.1122376 0.02631279 -0.0001095785 0.1610155 0.1784738 -0.1271853 -0.06495575 -0.05518103 -0.024679 0.05899958 -0.08658256 -0.2473131 0.1647733 -0.1567559 -0.09636343 -0.01924287 -0.4372529 -0.08343006 0.195546 -0.1807101 0.03211869 0.01215504 ]
<OrthonormalConstraint> -1 <UseNaturalGradient> T <RankInOut> 16 4 <Alpha> 4 <NumSamplesHistory> 2000 <UpdatePeriod> 4 </LinearComponent> 
<ComponentName> tdnn6l <LinearComponent> <MaxChange> 0.75 <L2Regularize> 0.004 <LearningRate> 0.0004991947 <Params>  [
  0.01878352 0.2554512 0.137733 -0.3744308 -0.2559148 0.08101372 -0.1850866 -0.06524387 0.08646253 -0.4769284 0.2596243 -0.02700752 0.174036 -0.08213939 -0.1316205 0.3097274 
  0.4954613 -0.06780338 -0.04661769 0.1094271 0.2094284 0.3003228 -0.2009672 0.07043646 -0.3384995 -0.2661362 -0.11387 -0.2598319 -0.1587976 -0.1917965 -0.111129 -0.05083073 
  0.346687 0.4058262 -0.08387462 -0.07030776 -0.1219934 -0.5075371 0.03298175 0.1479711 -0.004068856 -7.093325e-05 -0.1000109 -0.2452478 0.0861878 0.2465379 0.04364678 -0.2312123 
  -0.2431556 0.4328457 -0.379566 -0.1590076 0.3756725 0.1293798 0.1605314 -0.2165307 0.04965255 -0.09616365 0.1103267 -0.1509699 -0.2126915 -0.05482763 0.2465973 -0.04585138 
  -0.1649512 -0.02416941 0.354483 -0.2399303 0.3573898 -0.1356414 -0.1093169 -0.02280687 -0.09168596 -0.2625861 -0.1756183 0.2056722 0.2167833 -0.1101555 0.1017786 -0.4645455 
  -0.1679847 -0.0508124 -0.01612037 -0.2205982 -0.2571941 0.0703583 -0.3698726 -0.1210209 -0.2374303 0.3176144 -0.1260092 -0.3703142 0.150988 -0.2025023 0.3255063 -0.02746392 
  -0.02524533 0.1807969 0.007982294 0.4293012 0.03650171 -0.193142 -0.2627572 -0.5110224 0.1803028 -0.01139614 -0.1872191 -0.04766714 0.157715 -0.185392 -0.2385907 0.06827231 
  -0.3582215 0.1130636 -0.1800109 0.3673317 -0.2350621 0.219562 -0.1092795 0.406774 0.1143337 -0.2718722 -0.05275748 -0.1110338 0.1370059 -0.002610558 -0.04257091 -0.2958239 ]
<OrthonormalConstraint> -1 <UseNaturalGradient> T <RankInOut> 8 4 <Alpha> 4 <NumSamplesHistory> 2000 <UpdatePeriod> 4 </LinearComponent> 
<ComponentName> tdnn6.affine <NaturalGradientAffineComponent> <MaxChange> 0.75 <L2Regularize> 0.004 <LearningRate> 0.0004991947 <LinearParams>  [
  0.07932666 -0.2290332 0.2007424 -0.1108574 -0.2139886 0.08472527 0.04784504 -0.08888957 0.1974418 0.17338 0.2468649 0.01312883 -0.01982657 -0.06273253 -0.0535879 0.05867657 
  0.005126518 0.0731061 0.1113986 0.08750299 -0.1696046 0.04060481 0.1085717 -0.119251 -0.2404494 0.1481451 -0.1064284 -0.09870175 0.06471999 0.1640551 -0.1596679 -0.06152132 
  0.03277081 0.2005547 -0.1066558 0.01089623 0.2103182 -0.329938 -0.1492083 -0.1171484 -0.3195701 0.2573673 0.06149519 0.1138517 0.006185034 0.1829666 -0.1252793 0.25327 
  -0.08259924 -0.2653656 -0.06790788 -0.03879429 -0.1192016 0.02635032 0.2603118 -0.0009928381 -0.135111 -0.1320387 0.0570471 0.1806172 -0.398615 0.01431936 0.1623765 -0.02043894 
  -0.0155665 -0.1208165 0.1590322 -0.06743046 0.1017006 -0.1730399 -0.2017434 -0.09966242 0.3178453 0.1864366 0.00518926 0.02869695 0.2283081 -0.09949365 -0.02278522 0.09552302 
  -0.09274842 0.2947869 0.01654472 -0.1924185 -0.02101861 -0.5478493 0.03178821 -0.02812827 -0.03489488 -0.01110758 0.001421072 0.2019658 0.04613297 0.5777503 -0.1218723 0.06847475 
  0.05017005 0.3777986 -0.2399082 0.1270803 0.04567673 -0.1039382 -0.1064687 0.2946455 0.0803788 0.02234578 0.07085048 0.2755514 0.02209847 -0.09898861 0.0561894 -0.2139469 
  -0.08754552 -0.1123753 -0.1451959 -0.4685673 -0.06637374 0.1891442 0.1089138 -0.1435947 -0.2308541 0.005515717 0.296187 0.0235045 -0.003598629 -0.04760762 -0.2237243 0.07606228 
  0.1510042 -0.1898616 0.09951323 -0.02936544 0.3455002 0.08197983 0.09579062 -0.07174233 0.2208672 0.0987557 -0.2243897 -0.3091352 -0.07807799 -0.05477721 -0.06363815 -0.1736517 
  -0.1224948 0.1218871 -0.01966308 0.06252614 0.1722393 -0.2385838 -0.1417543 -0.1119868 -0.2780123 -0.1401233 -0.2177231 -0.1393175 -0.08011753 -0.126619 -0.07864239 -0.08804432 
  0.09920387 -0.1353458 0.2181295 -0.2424117 0.003749301 0.09320864 -0.1579837 -0.03104002 -0.1177146 0.003496049 0.2606462 -0.01233806 0.1350739 -0.08436608 -0.02022847 -0.2744032 
  -0.1566611 -0.2157841 0.2227625 0.1543455 -0.1533308 -0.04699714 -0.08230996 0.3749833 0.3241537 0.168713 0.08813311 -0.1023692 0.2366591 -0.02672977 0.07744523 -0.06695239 
  -0.05321973 0.0542139 -0.3769591 -0.2499641 0.04210765 0.06228975 -0.1860799 -0.05705899 -0.05825444 -0.008080486 -0.05230037 0.1112483 -0.01564785 0.09107344 0.05273419 0.09227717 
  -0.2774124 0.2163703 -0.1770092 -0.1468905 -0.1224653 -0.1762885 -0.06398749 -0.1885136 0.3155737 -0.2017777 -0.174315 0.0009977537 0.07319634 0.2245638 -0.1369001 0.06929591 
  -0.0712407 -0.2464345 0.3081322 -0.09526251 -0.01807151 0.1553293 0.1892016 0.2309472 0.1007734 0.09850701 -0.009927236 0.1280277 -0.1175477 0.08569469 -0.1949774 -0.2168709 
  0.2636235 -0.1463476 0.201599 0.09052786 0.01435777 -0.3335548 0.2104423 0.304185 -0.2690461 -0.3015881 -0.2916551 0.01334465 -0.01001287 -0.06634694 -0.2582253 -0.1037653 
  0.02980338 -0.1453867 0.04340769 0.07524435 -0.1123952 0.1578803 -0.08142958 0.1646484 0.04021622 -0.4156215 -0.1104669 -0.09710296 -0.1250123 -0.05924982 0.08735961 -0.1261286 
  -0.1847629 -0.1582224 -0.01614451 -0.1786581 0.2356272 0.06215325 -0.2211932 0.4511231 0.1319455 0.2936267 0.04489763 -0.003731186 -0.1164743 -0.1487558 -0.05561569 -0.07574777 
  -0.2665914 0.09473905 0.2445942 0.1504996 -0.1561358 0.04968145 -0.08161101 -0.07966572 -0.0004842931 -0.005412947 0.1002982 0.1855367 -0.008695724 -0.1319976 0.01426965 0.04957017 
  0.09541374 -0.360959 0.1002971 -0.1897302 -0.1841741 -0.146376 -0.2040129 0.196678 0.221537 -0.1115648 -0.3477091 -0.01793181 0.1533484 -0.2711274 0.1320757 0.1118075 
  -0.2253777 -0.04484515 0.04922984 -0.3222367 -0.005391133 -0.02359492 0.06596513 0.1683812 -0.3220958 -0.06533824 -0.2441869 -0.1159289 -0.04587438 0.06514075 0.1047572 -0.08545293 
  0.2294241 -0.1500479 0.07942307 -0.4280311 -0.07568821 0.4839852 0.3078593 0.1764652 0.02171035 -0.2014289 0.05016263 0.208645 0.1148103 -0.09810934 0.04396255 -0.06669533 
  -0.167388 0.07390774 -0.104437 0.2600365 0.01740582 0.217932 0.1836663 0.1415465 -0.05327845 -0.1348971 -0.04149545 0.02479926 -0.1380371 -0.223295 0.06570892 0.2650895 
  0.167221 0.04580479 -0.1201533 -0.188052 0.134773 0.2950949 -0.1413557 0.01235697 -0.05240288 0.0800886 0.2161644 -0.2555657 0.1661915 0.01753691 0.1420284 0.3224722 
  -0.04968499 -0.4379345 -0.009077164 -0.2476967 -0.1789428 0.1147552 -0.06278761 -0.1824337 -0.2676732 -0.05976817 0.1683673 -0.1026378 -0.1390613 -0.01767789 -0.2603115 0.1235597 
  -0.2944404 -0.3781877 0.2055061 -0.002112968 0.1229267 0.1193211 -0.1212846 -0.1302451 -0.01883296 -0.02889156 -0.2462996 -0.2002949 -0.06521124 -0.3816783 0.1300732 -0.007506844 
  0.1945272 0.08485908 -0.01851933 0.4142806 -0.1730841 0.03214836 0.3743291 0.02688104 0.3104 0.04754074 -0.08881789 0.01392914 0.05834812 -0.1388393 -0.2266478 0.1675774 
  0.03673378 -0.07700214 0.2314691 -0.3325859 -0.1987864 -0.0197002 -0.1942542 -0.1116257 -0.2127847 0.05453619 0.07757638 0.1394556 -0.07057224 -0.03036359 0.05567653 -0.01653729 
  0.1626439 0.1476667 -0.1960195 -0.003914052 0.1030167 -0.2191839 -0.03456051 0.03960738 0.1114694 0.1426345 -0.2070535 0.1156628 0.1700212 0.04245532 0.006979132 -0.02771827 
  -0.07909217 0.05420756 -0.2965007 -0.2987195 0.03946094 -0.04395027 0.02855049 -0.05251566 -0.1835831 -0.1508442 0.1296107 -0.03826679 -0.1963588 0.2035218 -0.0557753 -0.1218221 
  0.00276887 0.1948778 0.05861303 -0.2898362 -0.3238288 0.03486039 -0.1722836 0.1576894 0.01390082 0.1978555 0.04880354 0.3736459 0.3287546 0.03816788 0.09893858 -0.02051413 
  0.03660015 0.1294457 0.005933321 -0.2037087 0.02305492 -0.05691809 0.1932868 0.004610375 0.08234158 0.0007067746 -0.04059911 0.08023774 -0.1987317 0.1903386 0.04760585 -0.1421144 ]
<BiasParams>  [ -0.1935724 -0.1847228 -0.1029111 0.005666833 -0.03935193 -0.04524034 -0.0129707 -0.03861205 0.1872662 -0.8846912 -0.07724451 -0.005785313 0.5739164 -0.04852135 -0.5604053 -0.1022544 0.8642755 0.1517044 -0.1898976 -1.025906 0.2180105 0.08590158 -0.1946554 -0.003839204 0.01973526 -0.1153465 -0.03026301 0.2800273 0.9150265 -0.03111741 -0.03126264 -0.8250833 ]
<RankIn> 8 <RankOut> 16 <UpdatePeriod> 4 <NumSamplesHistory> 2000 <Alpha> 4 </NaturalGradientAffineComponent> 
<ComponentName> tdnn6.relu <RectifiedLinearComponent> <Dim> 32 <ValueAvg>  [ 0.1488113 0.08820437 0.2134715 0.3411769 0.2704656 0.2629026 0.1849545 0.2873871 0.4432162 0.02274326 0.2343546 0.2578637 0.6553944 0.2055228 0.1014587 0.1637009 0.9339109 0.2864388 0.2074735 0.02506181 0.3856609 0.3933764 0.2031537 0.2627485 0.3763718 0.1934663 0.261602 0.4023584 0.9960049 0.2808198 0.189436 0.007623627 ]
<DerivAvg>  [ 0.3419412 0.3295715 0.4178067 0.4366157 0.5234472 0.4625899 0.5541895 0.4511071 0.6323677 0.06596962 0.3828885 0.4836972 0.8368977 0.4206038 0.2213951 0.3660675 0.9671203 0.6605312 0.3735392 0.06465813 0.6308394 0.598587 0.315606 0.5140616 0.4757165 0.4213569 0.5007337 0.7244673 0.8976032 0.488712 0.4348601 0.02849456 ]
<Count> 770112 <OderivRms>  [ 0.1293647 0.08383824 0.1156446 0.07471272 0.0909889 0.1927871 0.1101622 0.1289678 0.06057992 0.2007291 0.1052952 0.1130918 0.04322505 0.09855329 0.09577923 0.08157699 0.06290139 0.07687703 0.06825281 0.1630148 0.07092123 0.06674938 0.08578791 0.06418932 0.06450715 0.1835543 0.1332323 0.0763081 0.04841408 0.1065922 0.1954104 0.5425141 ]
<OderivCount> 1298368 <NumDimsSelfRepaired> 551 <NumDimsProcessed> 7296 <SelfRepairScale> 1e-05 </RectifiedLinearComponent> 
<ComponentName> tdnn6.batchnorm <BatchNormComponent> <Dim> 32 <BlockDim> 32 <Epsilon> 0.001 <TargetRms> 1 <TestMode> T <Count> 14463.67 <StatsMean>  [ 0.1622315 0.07110079 0.2110559 0.3411571 0.2659835 0.2665571 0.1722424 0.3030947 0.4475656 0.03130841 0.2364566 0.2637999 0.6276386 0.220506 0.09513492 0.1918716 0.8845673 0.3032471 0.210946 0.02911827 0.3824731 0.3803106 0.1667323 0.2426379 0.379832 0.1952858 0.2503419 0.3902439 0.9391235 0.2985739 0.2249954 0.007797881 ]
<StatsVar>  [ 0.09409444 0.02655272 0.1658608 0.2885263 0.1525203 0.2375344 0.08264492 0.3050522 0.2533628 0.019782 0.1782384 0.1945754 0.2639678 0.1759139 0.06587568 0.1330238 0.247393 0.130112 0.1238825 0.02019842 0.1951232 0.3442457 0.1186114 0.1427071 0.3409631 0.1330054 0.1803156 0.2118365 0.5015277 0.24644 0.1587445 0.003680742 ]
</BatchNormComponent> 
<ComponentName> tdnn6.dropout <GeneralDropoutComponent> <Dim> 32 <BlockDim> 32 <TimePeriod> 0 <DropoutProportion> 0 <TestMode> <Continuous> </GeneralDropoutComponent> 
<ComponentName> tdnn7l0 <LinearComponent> <MaxChange> 0.75 <L2Regularize> 0.004 <LearningRate> 0.0004991947 <Params>  [
  0.2673458 0.1337568 -0.04683947 -0.04530464 0.006816384 -0.1388598 0.102877 0.05155383 0.02844583 -0.1817058 -0.0347839 0.05090979 0.1896365 0.06864233 0.1356087 0.06248616 -0.09676978 0.1394481 -0.008365101 -0.05240002 -0.07230302 -0.1659929 -0.06113001 -0.08747085 0.1627663 -0.1654348 0.006565183 0.06117111 0.07692651 -0.08043589 -0.04299437 -0.12565 0.2382224 -0.06151854 -0.1848851 0.1955427 0.06871664 -0.1748512 -0.0279959 -0.07363609 0.09616379 -0.02610874 0.1521704 0.1290039 0.004215346 0.04703025 0.09965208 -0.06389528 0.1281692 -0.03431687 -0.01352577 0.07850371 -0.1086528 -0.05580427 0.1460135 -0.08774172 0.1259448 -0.3071754 -0.1340937 0.05001216 -0.1911824 0.1304253 -0.03789527 -0.04153422 
  0.00628798 0.02334215 0.1123014 -0.06743303 0.1170776 -0.01152485 -0.03527704 -0.2804425 0.2823521 0.02408379 0.1736116 -0.07085592 -0.0760343 0.09296641 -0.09402043 0.05662099 -0.07695333 -0.04349755 0.1110648 0.08155502 -0.172141 0.01139801 0.136868 -0.03787607 0.1148076 -0.1091667 -0.2025429 0.06690033 0.09973267 -0.1361733 -0.2113227 0.1211799 -0.1317829 0.0883048 0.02049206 -0.03339698 -0.057081 0.0004420992 -0.1666642 0.1056107 0.1158068 0.02549672 -0.03727627 -0.1420504 0.07356814 -0.01405908 0.08918935 0.02982366 -0.01556901 0.0252127 0.1789939 0.1164249 -0.1338911 -0.1566889 -0.2247223 -0.0193206 -0.09048785 -0.261402 -0.07269413 -0.1378492 0.1192499 -0.06007461 -0.0199396 -0.1409273 
  -0.03262203 -0.002676206 0.1228098 0.06929204 -0.07390819 -0.1848619 0.04390464 -0.1090144 -0.08586836 -0.01320465 -0.127473 -0.06818615 -0.2163211 0.1049588 0.07926399 -0.1631439 -0.01230829 -0.03184823 0.003066546 0.1299403 0.05585523 -0.1711491 0.14128 -0.002011802 -0.1972888 -0.239113 -0.02678747 0.02274218 -0.05916812 -0.03540481 -0.06903388 -0.02166738 -0.03164539 0.005420046 -0.07837339 -0.06785432 -0.07595596 -0.1629809 0.0265695 -0.2024834 -0.1337882 0.01562798 -0.06067856 0.08361199 0.1487782 -0.07575581 -0.03463906 0.07142905 -0.3386296 0.05352942 0.03018297 -0.1159499 -0.08767076 0.01782863 0.09741774 -0.1018741 -0.09524684 -0.103613 -0.01811605 -0.01601879 0.02694901 0.06394396 -0.2933524 0.3078657 
  0.03890556 0.009162024 -0.001888659 0.03824801 0.0736228 0.05861777 -0.2670619 -0.2276646 -0.05996264 -0.1038759 0.08006504 0.1227098 -0.1317728 -0.06596493 -0.01748881 -0.366277 0.09841203 -0.2850037 0.08787664 -0.1077659 -0.03362648 -0.1389921 -0.02877462 -0.06591894 -0.01956443 0.002623419 -0.05032999 0.1606462 -0.09477575 -0.008385601 0.02298822 -0.03591708 -0.03068844 -0.08165234 0.04257777 0.09655889 0.08072717 0.1019386 -0.1412718 -0.06617147 0.264816 0.09604482 0.1409694 0.08235976 0.1633973 -0.03854444 0.06927841 0.007503756 0.1515018 -0.1751727 0.01120909 -0.1199268 0.08065662 0.1339667 0.05318258 0.05469884 0.08921324 0.1312228 0.00684564 -0.111028 -0.1176733 0.1316677 -0.1066575 -0.07491677 
  0.04908119 0.1604928 0.06839375 0.007596134 -0.07478566 -0.007587166 -0.1109214 0.1487256 0.18379 -0.0652781 0.03606614 0.2035141 -0.2147609 -0.2542228 -0.03711175 0.1500858 -0.02007392 -0.06160676 0.05396239 0.1265987 -0.06623447 -0.1299203 0.1640988 -0.1277334 0.001160633 -0.01227869 0.1667892 0.1793846 -0.1281693 0.08465897 0.07414983 -0.1187583 0.02591486 -0.1040924 0.1076931 0.09219968 -0.08565788 0.08098274 -0.04895004 0.1978169 -0.1221535 -0.082827 -0.1534233 0.175403 0.09206329 -0.08737755 -0.02364445 -0.03006796 -0.04585954 0.04813175 0.2142309 -0.01886554 0.02583582 -0.1844605 0.09839137 -0.1213306 -0.04205878 -0.02202659 0.1233364 0.04943004 -0.01234025 0.1251134 0.278032 0.05456782 
  -0.1728771 0.05311605 -0.155762 -0.1323321 0.09419572 -0.1200458 -0.2953931 0.006777134 0.06595641 0.02606161 0.2488649 -0.0537083 0.02009065 -0.1845814 -0.07214928 0.06624997 -0.07833677 0.04665273 -0.04347138 0.08712737 -0.1867717 -0.1553878 -0.1215546 -0.00654573 0.03811072 0.01126513 -0.1335767 0.1766696 0.1047509 -0.1115304 -0.03564363 -0.005815779 0.02943183 -0.06809649 -0.07330096 -0.2544811 0.1827171 -0.2189649 0.03478071 -0.1175885 -0.1535044 0.07680187 0.03109354 0.1436957 -0.06990102 0.05136738 -0.1558875 -0.1004386 0.07190266 0.1084914 -0.002730302 -0.0278501 -0.002818842 -0.08128832 0.1547713 0.08496533 0.03765547 0.1878427 -0.0513123 0.0614655 0.05467311 -0.2007522 -0.08320713 0.07922698 
  0.02467031 0.05923258 -0.06335436 0.1354065 -0.1176035 -0.1867765 -0.1846553 -0.2433445 0.02370745 -0.02186531 -0.09766158 -0.002808846 0.08153474 -0.2848365 0.0468238 0.09511423 0.03487318 -0.01944766 -0.2771862 -0.1238205 0.1473567 0.1508324 0.0468508 -0.06939482 -0.1407826 -0.2612717 -0.1001404 -0.1449508 0.1041053 0.1181273 0.05419993 0.08121297 -0.01039849 -0.1057981 0.05622034 0.01974852 -0.0244356 -0.09002189 -0.006573927 0.03836413 0.05253196 0.05848797 -0.1841831 0.04493381 -0.0564637 0.07062623 0.2990297 0.06357601 0.0103861 0.104427 -0.0147765 -0.05874033 0.02758553 -0.06974285 0.06278546 0.2198131 -0.1545973 -0.02554272 0.008763853 0.05563387 -0.1163637 -0.06931494 0.01249113 -0.1477997 
  0.07539579 0.1468525 0.2764688 0.07800351 -0.02344056 0.2857147 -0.05733022 -0.001600299 0.1370285 -0.07277149 0.1121648 0.1614655 -0.01194025 0.2185195 0.1547595 0.07414925 -0.0945632 0.0253876 -0.06717349 -0.1094116 -0.1121054 0.01468472 0.0494198 -0.06200822 0.01266904 0.05276633 -0.03342739 -0.1208444 0.1850822 0.1149868 0.1054986 0.1853644 0.004614179 -0.04296535 0.1212542 -0.1615015 -0.05426906 0.1351762 -0.006777236 -0.1391581 0.02539528 -0.1277307 0.03097946 0.2309263 -0.05347746 0.2343926 -0.02891431 -0.02186867 -0.1474527 0.03613802 -0.03805118 -0.1077506 -0.2766791 -0.03161665 0.0412131 0.01027694 0.02744435 0.1950525 -0.05596761 0.03029511 -0.1005336 0.03759251 -0.1007514 -0.02377928 ]
<OrthonormalConstraint> -1 <UseNaturalGradient> T <RankInOut> 20 4 <Alpha> 4 <NumSamplesHistory> 2000 <UpdatePeriod> 4 </LinearComponent> 
<ComponentName> tdnn7l <LinearComponent> <MaxChange> 0.75 <L2Regularize> 0.004 <LearningRate> 0.0004991947 <Params>  [
  0.02134671 0.347635 -0.2181891 -0.04022478 -0.3016917 -0.03988736 0.1574039 0.2061083 0.2305694 -0.1811393 -0.03952872 -0.06034086 -0.1535814 0.1007195 -0.1525177 -0.2854674 
  0.08511843 -0.001523415 -0.2759838 -0.1359244 0.2802198 -0.1588523 -0.2667159 0.1584902 -0.1620618 -0.1160329 -0.09700958 -0.4021853 0.003170971 -0.01370464 -0.1942306 0.08802553 
  -0.03897984 -0.03085123 -0.288397 -0.0145553 -0.03013614 0.1858925 -0.112896 -0.002591175 0.29757 -0.164793 -0.3378046 0.1902577 0.2301563 -0.220142 0.1095374 0.2165884 
  -0.03479644 0.1485183 -0.1183896 0.4684995 0.3261829 -0.058079 -0.04338496 0.1242027 0.1199218 0.1169288 0.1038874 0.2674601 0.003113042 0.118468 -0.2254747 0.04121454 
  -0.1964009 0.05306489 0.1742347 -0.04293272 0.2407455 0.07988545 0.2283982 0.1417571 -0.2505572 -0.4547221 -0.06156041 0.1275245 0.211583 0.005821642 -0.02232253 -0.1372458 
  -0.2066976 0.2684655 0.03482779 0.1133264 0.1783797 0.0689368 0.1499802 -0.1190645 0.2255875 0.03105822 0.2085365 -0.3909828 0.1076606 -0.2276743 0.2030634 0.04420782 
  -0.2488239 0.306211 0.04228593 0.05074736 -0.1808088 0.2094474 -0.1491095 0.1831445 -0.2979636 0.06729534 -0.07138816 0.007093024 -0.2025654 0.05250406 0.08195501 0.3371536 
  -0.3529286 -0.1209518 -0.05168647 -0.07019572 -0.06656934 -0.5218163 0.1134436 0.2125102 0.02320104 0.08951963 -0.0229679 0.09883772 -0.04114238 -0.2044256 0.06245926 0.09063847 ]
<OrthonormalConstraint> -1 <UseNaturalGradient> T <RankInOut> 8 4 <Alpha> 4 <NumSamplesHistory> 2000 <UpdatePeriod> 4 </LinearComponent> 
<ComponentName> tdnn7.affine <NaturalGradientAffineComponent> <MaxChange> 0.75 <L2Regularize> 0.004 <LearningRate> 0.0004991947 <LinearParams>  [
  0.2048395 0.07507972 -0.09460133 -0.2992691 -0.04597614 -0.2094058 0.1003255 0.3254182 0.01847385 -0.2167298 0.2458241 -0.09564118 0.07534913 -0.1763315 -0.4041002 -0.1386513 -0.1222643 0.1302719 -0.2958736 -0.04253064 -0.08608631 -0.01862848 -0.0419443 -0.05172477 0.00581969 0.02375439 0.08115795 -0.1126098 -0.1506153 0.03113955 0.1295604 0.03995766 0.03390591 0.06691546 0.04869289 0.05995395 -0.07290713 0.1669725 -0.189484 -0.175367 
  0.1188038 -0.4308105 -0.2325938 0.0268358 -0.1305002 0.1509898 -0.08078715 -0.357976 0.1384122 -0.2472384 -0.2552909 -0.1320486 -0.1617558 0.198077 -0.1123306 -0.1121139 -0.08427433 0.06662557 0.1415693 -0.06438743 -0.1380083 -0.03738734 -0.004525311 0.001153535 -0.07184569 0.01371618 -0.02389202 0.04119479 -0.1169117 -0.04317137 -0.04029072 -0.01156053 -0.08477832 -0.006873697 -0.01803247 -0.05756912 -0.007187402 0.02584632 -0.000559937 -0.1373371 
  0.1189053 -0.04912154 0.0495046 -0.1479219 -0.06711728 -0.02143677 0.1059274 -0.0709345 0.07654115 0.01903637 0.3344455 0.05990575 -0.1330534 0.2223482 -0.0541471 0.1130153 0.02951842 0.13517 -0.1023564 -0.1811837 0.03481621 -0.00933047 0.00918978 -0.06455031 -0.01248563 -0.008921964 -0.09896174 0.1304957 0.1101806 -0.007370501 0.07940506 0.02905307 -0.2018138 -0.3295259 0.02588265 -0.0099567 0.02032276 -0.08373634 -0.1796054 0.4241253 
  -0.116309 0.1553108 0.1153352 0.1927759 0.07378201 0.1051136 0.04326727 -0.1672957 0.1171984 -0.02265607 -0.3709022 0.08455421 -0.2111491 -0.1151458 0.1107965 -0.09555368 0.01851164 -0.2148475 0.3069026 0.1653544 -0.02581817 0.08246381 0.09371708 0.2430953 0.04374356 -0.1665654 -0.02586866 -0.08727845 0.1369082 -0.0270621 0.01593706 0.1626457 0.03564148 0.06485882 0.01926165 -0.02474865 0.04489297 0.1959412 0.04735772 -0.01095032 
  0.08060268 -0.2446849 -0.005801251 -0.01831398 -0.03939221 0.09149 -0.06950785 -0.2089187 0.1115236 -0.127501 -0.5477198 -0.2111998 -0.2727331 0.01951517 0.07054619 -0.2231167 -0.152641 0.004506834 -0.05685263 0.2327631 -0.1623622 -0.04224825 -0.02874251 0.0444153 -0.01617961 0.06871951 -0.1151787 0.009210304 0.01432339 0.01694038 -0.1122738 -0.00850361 0.07802106 0.04356668 0.1354914 0.006608842 0.02369525 0.07923698 0.135934 0.0576946 
  0.1168229 -0.06541547 -0.2130861 -0.1929575 -0.1801575 -0.06368062 -0.118323 0.1428272 0.1685429 -0.2616315 -0.09899903 0.2592758 0.09980015 -0.08199769 -0.01206008 0.01762179 -0.1370995 0.1095978 0.04119464 -0.4212014 -0.1843904 0.07428771 0.08003674 0.1407531 0.2072839 -0.06194561 0.09196779 -0.1811975 -0.03465596 -0.02432321 0.04731718 -0.1448618 -0.2482428 -0.1895322 -0.07873429 -0.1216457 -0.03802626 -0.1321763 0.1490383 0.01884107 
  -0.1874654 -0.2036726 0.05721888 -0.1702605 0.06066726 -0.04549201 0.1846231 -0.1756129 0.04843855 -0.01501377 0.06220267 0.1396176 -0.1377644 0.007852287 0.06760652 -0.03846869 0.0001637831 0.3035338 0.04921644 0.1653508 -0.06199726 -0.05060245 0.2040688 0.02989342 0.1070992 -0.06657762 -0.0453153 0.01667368 0.1979639 0.06378491 -0.1008798 0.01302764 -0.002886774 -0.3020658 -0.1102864 0.001712589 -0.2668279 0.04828009 -0.03810366 -0.132952 
  -0.07274789 -0.1062866 -0.03270353 -0.1545523 0.07812687 0.1299244 -0.004812782 -0.1313475 0.02592366 0.07674818 0.01037628 -0.01400978 -0.1028991 -0.143831 0.0246995 -0.1716668 -0.0851795 0.06109565 0.006409573 0.08484527 -0.03340966 -0.05533534 0.06741045 -0.0317874 -0.07347154 0.02827514 -0.02934849 0.1951009 0.1107041 -0.04715427 0.05794102 -0.03457254 -0.007821792 -0.003415159 -0.0339214 -0.01723551 -0.07236378 -0.03613832 -0.07294656 0.02980536 
  -0.09351707 0.06219579 -0.01930702 0.01061893 0.04385015 0.02034631 -0.1929342 0.2347903 -0.1166541 0.1287077 0.005314149 -0.04850563 0.03907633 0.04243068 0.06030587 0.04953308 0.1061918 -0.01288864 0.0156669 -0.01950115 -0.3713992 0.0894793 0.09577253 0.05698023 0.1081429 -0.1794633 0.1107872 0.01042091 0.05542734 -0.06594045 -0.05271531 -0.02657561 -0.01373296 0.06336145 -0.2632138 -0.2462227 -0.03857098 0.2118068 -0.1915559 -0.2743862 
  -0.0494025 0.1889164 0.01505148 -0.1069863 0.1858454 0.02464855 -0.0273184 -0.02037675 -0.09133556 -0.1824264 0.09144023 -0.02647332 -0.01344831 -0.1272227 -0.02954569 -0.1909677 -0.02821465 0.02333516 0.1361842 -0.2689525 0.101329 -0.05848826 -0.2534057 -0.1570872 -0.1465727 -0.3275776 -0.2980431 0.06145773 0.1215006 -0.106598 0.2234958 -0.08656899 -0.1298957 -0.1380743 0.2156894 0.1152136 -0.1347346 0.2336459 -0.1719666 0.1397518 
  -0.1119717 0.1716159 -0.2179893 0.04275746 -0.05972598 0.165173 0.1215695 0.08880094 0.0925995 0.126535 0.0910264 -0.01767459 0.04784439 0.1067028 -0.07039273 0.1031298 -0.0105198 0.219726 -0.006724879 -0.05617272 0.04192612 -0.1731398 0.05586785 -0.09327506 0.06291281 0.106279 -0.01127821 -0.003711334 -0.1693196 -0.06908732 0.05450942 -0.08871482 -0.2513604 0.04023198 -0.481037 0.2790358 -0.0370651 0.003072316 -0.1965344 0.1640456 
  -0.02003217 0.07943321 -0.0649402 -0.03091054 0.05542622 -0.1133543 -0.03871826 -0.1974792 -0.1743382 -0.1476789 -0.1636264 0.03633619 -0.1583981 -0.04483226 0.009079458 -0.1763884 -0.1568337 -0.1165652 0.1728111 -0.3072682 0.2580179 0.05388732 -0.07364961 0.005980114 -0.1142467 -0.1124586 0.05935707 -0.2019083 0.103168 -0.0660085 -0.02080443 0.05154776 0.0008347459 -0.1558041 -0.159845 -0.01082318 -0.1158189 0.252467 0.07317626 0.03658158 
  0.06347451 -0.2600754 0.05465982 -0.2422979 -0.1076528 0.02125128 -0.03986926 0.07073469 0.06594833 0.03839041 0.2062813 0.1464433 0.158398 -0.05237759 -0.1945891 -0.005458182 -0.05516231 0.162218 -0.117132 0.08319988 0.002047352 0.03319268 -0.1395 0.07233582 -0.002285174 0.0618549 0.07606492 0.005314856 -0.2114691 -0.1418094 0.1005348 -0.07964527 0.2177215 0.173693 0.1011609 0.0734546 0.1641094 -0.2533526 -0.1817698 0.01297862 
  0.02831792 0.07060594 0.04762156 -0.04606047 0.1893492 0.3198447 0.1452958 -0.003599603 0.07727008 0.03173922 0.1004119 0.144573 0.3239367 0.09031613 -0.1943762 -0.1737847 0.1122816 0.04568376 0.03779225 0.0525862 0.2226004 -0.2450629 0.007666035 -0.1432435 0.1191091 0.01410484 -0.05931885 0.01491717 0.1912937 -0.04608929 -0.1496476 0.1299668 -0.01878493 -0.1021979 0.05524248 -0.1004316 0.02598548 0.1209265 0.1938746 -0.09370705 
  0.01328778 0.1054327 0.08236876 -0.1712637 0.04766951 0.005993344 -0.03583532 0.103415 0.03021581 -0.1740991 0.04617827 0.02380046 -0.09563124 0.1226519 -0.1616972 -0.03685503 -0.1362502 -0.02689846 0.1888851 -0.07920799 0.04018651 0.06320912 0.03805434 0.04947283 0.03019073 -0.0714904 -0.1120671 0.08227607 -0.03486747 -0.03491137 -0.03814753 0.2380352 0.1167553 -0.01603978 0.1587706 0.01669848 -0.2621284 0.06728774 -0.1468621 0.006212032 
  0.1432835 0.005769405 0.2160815 -0.07736877 -0.144059 0.02796968 -0.2366708 -0.4376295 -0.09666333 0.03823291 0.151653 -0.1007706 0.09116466 0.04748829 0.03691105 0.08413628 -0.1596069 -0.06530614 0.1563654 0.07112491 0.07096419 0.01139133 -0.02802179 0.09954707 -0.07498118 0.0132795 -0.0324068 0.02627106 -0.204974 -0.1337275 -0.03185541 -0.04994649 -0.2116676 0.01917023 -0.06781373 0.2874615 0.1240147 0.0333233 -0.04160856 0.207459 ]
<BiasParams>  [ -0.4229106 -0.6929446 -0.1516542 -0.1115856 0.03562357 0.3849925 0.8315367 -0.7837865 0.4762252 -0.3285723 -0.2461835 0.263837 0.07873112 -0.1235929 -0.5419034 0.291109 ]
<RankIn> 20 <RankOut> 8 <UpdatePeriod> 4 <NumSamplesHistory> 2000 <Alpha> 4 </NaturalGradientAffineComponent> 
<ComponentName> tdnn7.relu <RectifiedLinearComponent> <Dim> 16 <ValueAvg>  [ 0.3491862 0.2026229 0.269316 0.3645352 0.51675 0.6422937 0.9361213 5.769407e-06 0.7806318 0.2063026 0.2971542 0.6337892 0.369252 0.3039416 0.1853541 0.4674176 ]
<DerivAvg>  [ 0.3168352 0.2872855 0.4057839 0.4721638 0.4968738 0.6992667 0.8733069 0.0001030483 0.6812656 0.3050206 0.3379553 0.598235 0.4776577 0.4160516 0.2506818 0.6509035 ]
<Count> 834560 <OderivRms>  [ 0.1293226 0.14925 0.1014506 0.09280714 0.1004229 0.09738768 0.1072091 1.120928 0.08974709 0.1535255 0.09787526 0.09580767 0.1203382 0.1017611 0.1222126 0.1006616 ]
<OderivCount> 1226624 <NumDimsSelfRepaired> 237 <NumDimsProcessed> 3792 <SelfRepairScale> 1e-05 </RectifiedLinearComponent> 
<ComponentName> tdnn7.batchnorm <BatchNormComponent> <Dim> 16 <BlockDim> 16 <Epsilon> 0.001 <TargetRms> 1 <TestMode> T <Count> 13695.67 <StatsMean>  [ 0.3633918 0.2104682 0.2372456 0.3519558 0.5171734 0.6467283 0.90597 1.898862e-07 0.8190441 0.247569 0.3062764 0.6070458 0.3594962 0.3175315 0.1574457 0.4695958 ]
<StatsVar>  [ 0.5626062 0.1717159 0.1846839 0.2818314 0.5773003 0.4697921 0.5154607 4.400283e-09 0.6465552 0.2654864 0.4494241 0.5504423 0.2990463 0.3546683 0.1619513 0.3101965 ]
</BatchNormComponent> 
<ComponentName> tdnn7.dropout <GeneralDropoutComponent> <Dim> 16 <BlockDim> 16 <TimePeriod> 0 <DropoutProportion> 0 <TestMode> <Continuous> </GeneralDropoutComponent> 
<ComponentName> tdnn8l0 <LinearComponent> <MaxChange> 0.75 <L2Regularize> 0.004 <LearningRate> 0.0004991947 <Params>  [
  -0.2210975 0.1836514 -0.003921119 -0.03361899 0.02937713 0.07807089 -0.3204567 -0.02486604 -0.2313022 -0.2724511 -0.1913663 -0.1916289 0.3186574 0.07516025 0.0210568 0.1309765 -0.28009 0.06331728 0.1089305 -0.02010853 0.1510959 0.2458509 0.05572297 -0.04328875 -0.001218704 0.05516854 -0.1262152 0.03878256 0.04815599 -0.0536932 0.02147903 -0.1532714 
  0.1429294 -0.1344854 0.07110516 0.1170959 -0.1083192 -0.2889625 -0.1656348 -0.03897334 0.1376865 -0.02411599 -0.05790978 0.05864839 0.01974504 -0.1266526 0.1663751 0.3329519 0.03521478 0.05482199 -0.1705216 0.0544678 0.06423389 -0.07143833 -0.05213924 0.02465075 0.2245284 -0.2301925 -0.1619324 -0.2269759 -0.004311108 -0.3281156 -0.05876694 -0.2233718 
  0.3703961 0.0196789 0.04067062 -0.05228843 -0.2169448 -0.1799658 0.189725 -0.1773573 -0.07627948 -0.07844628 -0.02386273 -0.3639138 0.08819749 -0.0241742 -0.04222554 0.08775733 -0.2397745 0.02563569 0.0212279 0.05958037 -0.2937993 -0.05414926 -0.0218891 -0.1039565 0.1029293 0.02112779 0.1492633 -0.05663588 0.1822981 0.2122798 0.1785391 -0.0424745 
  0.03249253 0.1946823 -0.1271513 0.06524467 -0.1040134 -0.03697043 0.1826044 0.1244091 0.2268703 -0.1121196 -0.1578088 0.05001324 0.2838882 0.08547354 -0.1209596 -0.0729242 0.1909422 -0.1967906 0.109867 0.1143993 -0.2136915 0.2075413 0.1529776 0.01649578 0.349802 -0.08015218 -0.1507958 0.1036584 -0.1788755 -0.09490696 0.0231088 0.1634615 
  -0.2475361 -0.07941303 -0.1195066 -0.2127085 -0.009531058 -0.1442923 0.3133982 0.1384619 0.0509191 -0.04057172 -0.05592377 -0.04657541 -0.1087364 0.1736428 -0.004531321 0.1370182 -0.3295023 0.1728124 -0.1350128 -0.09056095 0.02795019 -0.04771228 -0.1915008 -0.07431482 0.05415045 -0.1858454 -0.2519071 0.07872734 -0.07521195 0.08621947 -0.181276 0.2213248 
  -0.09021191 0.03540546 0.232675 0.1226729 0.1913112 0.02673724 0.2476767 -0.01408502 -0.2934992 -0.3225693 0.04583224 0.1692327 -0.04100217 -0.02394653 0.2078497 -0.0372111 0.1610988 0.1458017 0.1749244 0.07459582 -0.1099146 -0.09845567 -0.006643767 -0.06392186 0.170761 -0.1263646 2.566376e-05 0.00852861 0.3757066 -0.09823056 -0.06918135 0.1105751 
  -0.1735325 0.156409 -0.001670969 -0.02491051 0.3711276 -0.2919409 0.2146815 -0.1032452 0.1303022 0.04078623 -0.1947728 -0.07508618 -0.1290982 -0.04904845 -0.2547075 0.02915902 0.003280841 0.01070233 0.1202902 0.00266383 0.07499816 0.03912489 0.1606602 0.1605347 -0.01081046 0.1658084 0.02831978 -0.409132 0.06854264 -0.000955892 0.01530536 -0.08624654 
  0.01987856 0.2758667 0.04594738 -0.02664778 0.0510538 0.1140868 0.296213 -0.1094647 -0.06285386 0.3353319 -0.1620713 0.2103855 0.1946054 -0.1295048 0.01052382 0.05205049 -0.1867939 0.06459596 -0.08427884 0.1703575 0.1730832 -0.01044648 -0.1746315 -0.02961207 -0.04247817 -0.1202238 0.2133039 0.1479325 -0.02775537 -0.2442316 0.2006668 -0.04550026 ]
<OrthonormalConstraint> -1 <UseNaturalGradient> T <RankInOut> 16 4 <Alpha> 4 <NumSamplesHistory> 2000 <UpdatePeriod> 4 </LinearComponent> 
<ComponentName> tdnn8l <LinearComponent> <MaxChange> 0.75 <L2Regularize> 0.004 <LearningRate> 0.0004991947 <Params>  [
  0.1789446 -0.1617809 0.1328703 -0.05190074 0.1293396 0.1523134 0.1353361 0.4368985 0.1785532 -0.1021569 0.2575924 0.2827665 -0.3087448 0.07902144 -0.01898477 -0.1406854 
  0.2733214 0.2681455 0.3455311 -0.06956156 -0.190903 -0.08842849 -0.2776803 -0.1545641 -0.1144413 -0.08469845 -0.05081604 0.4427145 0.02494754 0.09830523 0.05005527 0.06484817 
  0.1101279 -0.03810466 -0.1509412 0.06821356 -0.2763213 0.1338654 -0.2932227 -0.05785263 0.01876739 -0.1481123 0.1656895 -0.2317268 -0.3770851 -0.1163954 0.3495724 0.1513198 
  -0.04732128 -0.2436639 0.1471199 -0.5526078 0.1136271 -0.04705164 0.0712584 -0.2157898 -0.1580822 0.1150456 0.276416 -0.0004860861 -0.04687263 -0.09815989 0.09147599 0.2145144 
  0.2427596 -0.3832081 0.03401283 0.04727405 -0.2007454 -0.1386391 -0.03364215 0.1276726 -0.2253073 -0.216472 -0.16616 -0.07758278 0.02237454 -0.2237029 -0.3927343 0.1404265 
  -0.4678262 0.06233388 0.4007744 0.01017181 -0.1047379 -0.08998623 -0.1907727 0.2019885 0.08011992 0.1262214 -0.09224993 -0.1163929 -0.2724044 -0.01030225 -0.1840897 0.1384972 
  -0.1081195 -0.02169725 0.1129739 0.2721953 0.1332252 -0.2935484 0.214948 -0.3816988 -0.06065234 -0.2970105 0.1582939 0.002068878 -0.3024673 -0.02529628 -0.05985538 -0.1952017 
  0.2962207 0.2115596 0.2201707 0.0843276 0.3314883 -0.146435 0.03958533 0.04883847 0.266946 0.0154883 -0.02240964 -0.1931154 0.0550609 -0.385181 0.0797971 0.2147551 ]
<OrthonormalConstraint> -1 <UseNaturalGradient> T <RankInOut> 8 4 <Alpha> 4 <NumSamplesHistory> 2000 <UpdatePeriod> 4 </LinearComponent> 
<ComponentName> tdnn8.affine <NaturalGradientAffineComponent> <MaxChange> 0.75 <L2Regularize> 0.004 <LearningRate> 0.0004991947 <LinearParams>  [
  0.131337 -0.05352316 -0.1167993 0.02857748 -0.0344979 -0.1034831 -0.1973627 0.04966034 -0.04586075 -0.1076482 -0.05367212 0.1979381 -0.09398919 0.04143554 0.06546708 0.2364769 
  -0.3483593 -0.1078764 0.08305997 -0.1271096 -0.2947548 0.02869315 -0.0491862 0.2402103 -0.04120846 0.07802312 0.05454027 0.07316101 0.0006235678 -0.1432109 0.1823073 -0.04008565 
  -0.4780976 0.1871412 0.3489861 0.03903075 -0.144082 0.04466528 -0.03201228 -0.07437588 0.008801206 0.2116031 0.1825265 -0.09689569 0.05230707 -0.01100786 -0.1564717 0.07579409 
  0.04190727 -0.0112435 0.1100033 -0.2174932 -0.269688 -0.2109233 -0.164451 -0.01917561 0.1887283 0.04577821 0.01110135 0.1436681 0.1216712 0.1745277 0.1987989 -0.1816938 
  0.01638887 -0.2114142 -0.01559377 -0.01289101 -0.1509754 0.2718962 0.09554791 0.1420956 -0.2383538 -0.1067125 -0.3305914 0.01181677 -0.1368491 -0.1053863 -0.04625297 0.3028593 
  0.03900624 0.08986088 -0.3631503 0.2431161 0.0807666 -0.3209943 0.1989312 0.1791269 -0.09637973 -0.163059 0.00979179 0.07819665 0.03451376 0.07691917 -0.1032801 0.001214608 
  -0.09019173 0.03254802 0.300423 -0.3516588 0.336534 -0.1727894 0.002482635 0.1054301 -0.1627901 -0.02343011 0.140889 0.2275773 0.01962038 -0.03303419 0.02995168 0.1360425 
  -0.194854 0.3084861 0.1362997 0.1241394 0.2697295 0.01751976 -0.0005673142 -0.08518653 0.04250337 0.0167674 -0.05619998 0.03201582 -0.1064607 -0.3963666 0.08234286 -0.05097019 
  0.1361701 0.03486577 0.08517717 0.1199812 0.09678763 -0.07846349 0.007521139 0.1238006 0.03949648 -0.03087052 0.202881 0.1294818 -0.183696 -0.1076213 -0.04421012 0.2433425 
  -0.3321715 0.03226302 -0.1204186 0.01729281 0.1555326 0.3057118 0.2513483 -0.02306789 -0.0625146 -0.1612115 -0.1370891 0.01201798 0.2040768 -0.1544094 0.111764 0.2599132 
  0.1029426 0.06729142 0.1586283 -0.01400102 0.2283824 0.03618789 -0.159182 0.3376185 -0.05053443 0.005974286 -0.05424409 -0.02676503 0.0602279 -0.0441325 0.1139943 0.1836084 
  -0.005148928 0.07484031 0.007240487 0.1088529 -0.1508679 -0.005794909 -0.05878729 0.4516051 -0.05341848 0.1977492 0.1681367 0.09939925 -0.09754632 -0.2451531 0.06809061 -0.17955 
  0.05448491 0.3124977 0.1436036 0.03388607 -0.006484185 0.0598461 -0.2595719 -0.1468255 0.03079699 -0.009495924 -0.2557856 0.1076493 -0.09831706 0.1553361 -0.08469319 0.3012477 
  0.3424186 0.08490949 0.01981644 -0.06367327 -0.02380534 -0.2118214 -0.3255076 -0.1888717 -0.3791128 0.002429164 0.102466 -0.04947015 0.1662586 0.005532973 0.2105628 0.1212956 
  0.04732578 0.09456843 -0.1424976 -0.0397444 -0.2703543 0.3976914 0.1332737 0.005414839 -0.07072241 0.0576429 0.1213889 0.1662474 -0.01195678 -0.1187301 0.09543359 -0.06677587 
  -0.1258456 0.227543 0.1189649 -0.2310233 0.02949355 0.2427972 -0.1844157 0.05079897 -0.2662224 0.1573128 0.08031205 0.08750273 -0.04210803 -0.1085286 -0.05042666 -0.137813 
  0.00726166 0.1082337 -0.1790222 -0.005319002 0.0860653 -0.1423214 0.07826323 -0.1764531 0.01664457 -0.06546926 0.1569449 0.01343599 -0.1185525 -0.04338748 -0.1677923 0.3117011 
  -0.06961557 0.465001 -0.06926639 0.004804312 0.1534112 -0.1031566 0.01097148 0.1240168 -0.2218854 0.04095611 -0.06804914 -0.1907519 0.09195158 -0.1263829 -0.2424429 0.07712268 
  -0.1307238 0.2445249 -0.1877131 0.04543229 0.1364339 -0.015865 -0.04690202 -0.08267453 0.3024144 0.2008387 0.1353821 -0.04634497 0.04877764 0.1787802 0.1422039 0.1896156 
  -0.09121008 0.03954267 -0.03723303 0.1030356 -0.04068604 -0.03962267 -0.1095625 -0.007715861 0.01113473 0.1240888 -0.1172023 0.09205234 0.03724518 -0.08192991 0.04898274 -0.02273819 
  0.2419744 -0.09173638 -0.08801056 -0.1075573 0.2150848 -0.04181615 -0.1093697 -0.1064457 0.04522187 -0.02290021 -0.1361486 0.004441875 0.0508942 -0.05412018 -0.129127 -0.2133019 
  0.1178136 0.262179 0.1824423 0.07141637 -0.03738533 -0.1800211 0.4681541 0.1180627 0.09304405 -0.2676495 -0.06624451 -0.03177661 0.1171373 0.05675865 -0.2667533 -0.06783359 
  0.003520756 -0.2410136 -0.1237541 0.04645396 0.2647212 0.1933789 0.03642018 -0.1893349 -0.01837712 -0.07302357 -0.2361405 -0.04473746 0.1106035 -0.1819622 -0.1540284 -0.0210063 
  0.04298421 -0.1983935 -0.03627398 0.2429529 0.1545878 0.07756797 -0.04565289 -0.1227828 -0.2161377 -0.1397909 -0.09178508 0.04539562 -0.2138471 0.1425193 0.1416493 0.008379062 
  0.02700903 0.01484862 0.01415382 -0.08522012 0.3113751 -0.1905917 -0.2085638 -0.1298269 0.09194309 -0.01941546 -0.09114301 0.09791779 0.149391 -0.2592739 0.04665906 0.04660822 
  -0.07911265 -0.03200598 0.06573348 -0.1138708 -0.1656237 -0.2027905 0.2327849 -0.01529263 -0.05016988 -0.04632757 -0.002356153 -0.1182397 0.3768543 0.05250495 -0.03005002 0.2577437 
  -0.005949931 -0.06179775 0.3006425 0.09434214 0.0399821 0.03879507 -0.005124937 0.206991 -0.02217727 -0.2291641 0.2292064 0.01469655 0.0969218 -0.1877107 -0.1081843 0.02587127 
  0.03911982 -0.2850101 -0.01186097 0.1249867 -0.2195787 -0.3120103 -0.1637089 0.03984185 -0.03557768 -0.04615109 -0.05303569 -0.1963412 -0.002991505 0.06245737 -0.01365473 -0.003304093 
  -0.1133501 -0.05977668 -0.323548 0.08453298 -0.02087467 -0.2453765 -0.2596324 0.1419287 0.1618772 -0.2245782 0.207672 0.1198964 0.1532582 -0.112257 -0.03462768 -0.1644912 
  0.06698904 -0.1457008 0.1293624 0.2599231 0.2789315 0.07220894 0.123831 0.1230175 -0.1752288 0.01254821 -0.03999986 -0.2226378 -0.2504159 -0.116902 -0.1839827 0.02855158 
  -0.109063 0.07251923 0.08979326 -0.0716723 -0.1858456 0.0305943 -0.2989602 -0.2190764 0.1344474 0.1460968 -0.1182111 0.1780407 0.01359493 -0.01980535 0.3428435 0.01412363 
  -0.1282412 0.1504982 -0.1056691 -0.2703095 -0.06571043 -0.2202919 -0.1896587 0.08989302 0.02764768 -0.132011 0.03733115 -0.1465943 -0.1733043 0.3060029 0.0811091 0.003706659 ]
<BiasParams>  [ 0.1864535 0.4142185 0.224519 0.9312491 0.1183958 -0.4576333 -0.5153114 0.6245291 -0.182529 -0.2220883 -0.3411581 0.1279996 -0.0436722 -0.2815663 -0.3129247 -0.5499121 0.06512457 -0.2219889 1.218992 -0.6312159 0.2022533 0.03459622 -0.5779592 -0.1127275 -0.3004996 -0.1823207 0.2941556 0.832498 -0.4745098 -0.01520046 0.1561559 1.04718 ]
<RankIn> 8 <RankOut> 16 <UpdatePeriod> 4 <NumSamplesHistory> 2000 <Alpha> 4 </NaturalGradientAffineComponent> 
<ComponentName> tdnn8.relu <RectifiedLinearComponent> <Dim> 32 <ValueAvg>  [ 0.305191 0.5299503 0.2924592 1.008425 0.3087992 0.05128277 0.03240712 0.6724589 0.1264533 0.1471653 0.07012117 0.2910199 0.1383849 0.05085665 0.1051707 0.04151151 0.1607827 0.1221574 1.310419 3.391277e-05 0.2688578 0.2522807 0.02012148 0.1004533 0.06878476 0.122464 0.3984763 0.8723918 0.1002757 0.208175 0.3076022 1.099254 ]
<DerivAvg>  [ 0.5906459 0.7771965 0.7517929 0.9700094 0.6351635 0.1710522 0.1043294 0.9846862 0.2363695 0.3694532 0.214123 0.5964639 0.4427148 0.2000713 0.3066975 0.1242249 0.5845385 0.3472597 0.9999948 0.0006239149 0.7431486 0.5265235 0.06869522 0.3740789 0.2467318 0.3354518 0.6582677 0.914158 0.1968975 0.5016186 0.5913706 0.9882734 ]
<Count> 774144 <OderivRms>  [ 0.07574012 0.05702011 0.08703147 0.06106123 0.09266073 0.3208126 0.3485915 0.09987833 0.1172525 0.1681553 0.1721947 0.09086241 0.1809108 0.2552183 0.1231285 0.2037723 0.136011 0.2301445 0.04114948 0.47382 0.07188755 0.1274604 0.3149838 0.1001067 0.1433764 0.1758449 0.04424792 0.04724983 0.1528187 0.11127 0.1335923 0.08488778 ]
<OderivCount> 1121600 <NumDimsSelfRepaired> 1080 <NumDimsProcessed> 6912 <SelfRepairScale> 1e-05 </RectifiedLinearComponent> 
<ComponentName> tdnn8.batchnorm <BatchNormComponent> <Dim> 32 <BlockDim> 32 <Epsilon> 0.001 <TargetRms> 1 <TestMode> T <Count> 12927.67 <StatsMean>  [ 0.3151177 0.5050455 0.2770699 0.951216 0.3071848 0.04356373 0.0402702 0.6352631 0.1356917 0.1389314 0.06425156 0.296447 0.1539425 0.06465117 0.1042233 0.0435494 0.172857 0.1268598 1.23588 3.49417e-06 0.2621004 0.2380165 0.03785894 0.1093418 0.06851649 0.1178395 0.3801649 0.8350707 0.09807827 0.1803502 0.3173216 1.044628 ]
<StatsVar>  [ 0.1434339 0.1839138 0.08879705 0.2376539 0.1137854 0.02588567 0.02323454 0.09569436 0.09286576 0.06970248 0.02525961 0.1089921 0.0650003 0.0309946 0.0461743 0.02278393 0.04253708 0.0620308 0.1825052 1.486562e-07 0.08139779 0.1744006 0.02383017 0.0438746 0.02441221 0.07291721 0.2313364 0.3058862 0.05755659 0.08148681 0.1432314 0.1885415 ]
</BatchNormComponent> 
<ComponentName> tdnn8.dropout <GeneralDropoutComponent> <Dim> 32 <BlockDim> 32 <TimePeriod> 0 <DropoutProportion> 0 <TestMode> <Continuous> </GeneralDropoutComponent> 
<ComponentName> tdnn9l0 <LinearComponent> <MaxChange> 0.75 <L2Regularize> 0.004 <LearningRate> 0.0004991947 <Params>  [
  -0.08134156 -0.08663721 -0.05348196 -0.100543 -0.04154088 0.01454058 0.03126279 0.00596884 -0.1199181 0.1198635 -0.1429377 0.06315882 -0.1753633 0.08330187 0.0151764 0.0253514 0.09723947 -0.3198347 -0.06462045 0.118143 0.2300963 -0.1271264 0.08328295 -0.1347508 0.07957257 0.1580256 -0.1057876 -0.01542003 0.003297157 0.01848748 0.02270878 0.1916001 0.08932149 -0.03014678 0.02891255 -0.05599237 -0.0775514 0.2058088 0.02103864 -0.1449722 -0.1715953 -0.01345822 -0.06975953 -0.07619643 0.0528833 -0.01840393 0.04289758 0.1941146 -0.09340985 -0.1374033 -0.02528396 -0.03733238 -0.2807417 -0.2180879 0.04403325 0.1326995 -0.07559646 -0.04035702 -0.1026337 -0.02233458 -0.153805 -0.1592505 0.07716817 0.06939422 
  0.05033299 0.08566415 0.2684475 0.008894747 0.09976261 -0.2000428 0.2264204 -0.1352863 0.03810771 0.3283467 0.03137738 0.09470574 -0.005151617 0.2135332 0.1502809 0.02194965 0.007526563 0.03490975 -0.02718951 -0.01964081 -0.148698 0.01509784 0.05594943 -0.1969516 -0.1008273 -0.07803633 0.03963081 -0.08119738 -0.00841554 0.06965367 -0.07118113 0.1261316 -0.1146387 0.0736168 -0.1661666 -0.09690261 -0.1685045 -0.01964857 0.03252825 0.1405515 -0.03108957 0.1660856 -0.001502711 0.02060644 -0.0621883 0.1344264 -0.0676801 -0.09082767 -0.06608321 -0.04896216 0.1391212 0.1784414 0.007884425 -0.06625548 -0.02438343 0.0006313613 0.143599 -0.02419654 -0.03598353 0.017102 0.03546084 -0.2227493 -0.1309436 0.06265144 
  -0.08200901 -0.2463531 0.1617182 0.01969171 -0.04910837 -0.1216249 0.2473334 -0.07782543 -0.046516 -0.09547528 0.0221527 -0.1411025 0.1523856 0.1338828 0.03040078 -0.07589211 0.01021658 -0.05945725 0.09792068 -0.1096236 0.1332431 -0.003469115 0.02648714 0.003318629 0.04237488 -0.1005826 -0.03252927 -0.1130552 -0.1507024 -0.1122485 -0.2608513 -0.260279 0.2027837 -0.02828899 -0.03572005 -0.1357902 0.1457313 -0.07469673 0.1513686 0.08751611 -0.1222107 0.03674569 0.03258425 -0.05737896 0.06563967 0.115427 0.1026756 -0.144193 0.01819579 -0.04869336 -0.1376034 -0.0614269 -0.06467169 0.0359877 -0.090294 0.1043056 -0.2243795 0.06694303 -0.01530784 -0.03729787 -0.131614 -0.01080555 -0.03550266 -0.1613482 
  -0.2103962 0.01858924 0.0770147 0.007265128 -0.1023221 -0.1398884 -0.1602551 0.1181969 -0.2235949 -0.1906743 -0.01157128 0.1197061 0.0301061 0.0896121 -0.02395436 0.01708277 0.1208002 0.2264799 0.03575412 0.1417321 -0.1897826 -0.04619103 0.006637559 -0.1715949 -0.003181266 -0.1208613 -0.02640298 -0.1189374 -0.09091356 -0.1385614 0.001986157 0.01236112 -0.04618003 0.1222012 0.02137982 0.02551858 0.06200164 -0.01832682 -0.2984047 -0.01413609 -0.07667472 -0.2010563 -0.1313154 0.1044859 0.02865548 0.02282143 0.1297268 -0.08231249 0.1037503 -0.1385797 -0.07996194 0.06312378 -0.07157535 -0.05930715 0.09095071 0.06586837 -0.0148415 -0.3136242 -0.01248923 -0.06594822 -0.04924092 -0.05810532 -0.1951333 0.02627351 
  0.005392733 0.1253525 -0.1253595 0.1168821 0.1252845 -0.1246464 -0.09653091 -0.001107674 0.08378752 0.02931823 -0.1142624 0.1481132 0.0136735 -0.1172226 0.01508833 -0.04555241 -0.1118482 -0.2542719 0.02879026 -0.06623071 0.1189112 0.02035715 0.1949742 -0.006102814 -0.07960936 0.1401754 -0.08471949 0.02922643 -0.1725031 0.01182637 -0.0361639 0.07453889 0.05463143 0.03986337 -0.01772514 -0.2113543 0.1985935 -0.26525 -0.008701069 0.1596052 0.1647753 0.01498136 -0.01388831 0.08770971 -0.1515018 -0.05234157 -0.06559032 0.1016485 0.1828556 -0.1888366 -0.06803247 0.02531506 -0.01619939 -0.01277249 0.03384749 0.0536568 0.02687416 -0.05390475 0.1476348 0.05740093 -0.1199012 0.1695462 -0.2766685 0.08567466 
  -0.04211716 0.04304188 0.1335168 0.08781558 0.1493554 -0.0588294 0.07114895 0.06513318 -0.1923243 -0.07434579 -0.01337625 0.07701249 0.2293892 -0.00775886 -0.01938351 0.0163907 -0.137056 -0.02111271 0.1260812 0.06527494 -0.03321498 0.2567554 0.1661629 -0.08308826 -0.009131185 0.2461833 0.04839377 -0.1175124 0.1431762 0.03487642 0.1611742 0.07035495 -0.03745991 0.0684966 -0.001788131 0.1167487 -0.006958862 -0.1735628 0.2487312 -0.02004637 -0.02658672 -0.1804142 0.04194201 0.1213383 0.2343001 0.1020828 -0.1645183 0.09989177 -0.1503585 -0.1118187 -0.1347774 0.02962808 -0.00986877 0.06748477 0.05948364 -0.0858633 -0.0513258 0.02537275 -0.1275518 -0.146052 0.05347776 0.05554549 0.1861989 -0.01010561 
  0.103939 0.03931832 0.02139063 -0.1834992 0.01373231 -0.001886257 0.1170048 0.06478675 -0.0170984 -0.07420467 -0.07505003 -0.1375501 0.06821789 0.2039388 0.006107673 0.01286487 -0.06194372 -0.07234 0.005517744 0.1906796 -0.04151431 0.235213 0.08831965 -0.07197801 0.06786814 0.1145458 -0.05095473 -0.05848604 -0.06844775 0.1422613 -0.08818743 -0.06632485 0.1313172 0.05043372 0.01812992 0.01658382 0.001079223 0.03622552 -0.0836471 -0.3124903 0.1405055 -0.05809703 -0.2355145 -0.04406706 -0.1221678 0.01706862 0.1528658 -0.06472671 0.02731995 0.1852611 -0.09347399 0.2455262 -0.1234121 0.01021305 -0.01743948 -0.04719482 0.2536247 0.1859946 0.1209617 0.1008305 -0.009260327 0.1632673 -0.06829339 0.0307866 
  0.1936623 -0.08782126 0.005805826 0.1569052 -0.002103411 -0.2043064 0.05973155 -0.1009085 0.07286839 -0.1107984 0.09274616 -0.1029727 -0.0214821 -0.1749318 0.1354046 -0.0680761 -0.1089098 0.005066851 0.01845902 0.07115081 0.1666068 -0.2578303 -0.02865802 -0.08478109 0.2089286 -0.09895202 0.1025097 0.09813726 0.31659 -0.1743113 -0.1980164 0.1944221 -0.007548319 0.01239125 -0.06151212 0.09915548 -0.03578119 -0.2053059 0.05574959 -0.1988559 0.1322003 -0.05315575 -0.1212778 0.07272746 0.06520418 -0.01847558 0.04505026 -0.04553055 -0.05331796 0.001893797 -0.04965656 0.02260737 -0.03005579 -0.1749771 0.0735423 0.07373523 0.08762155 -0.07840515 0.05085574 -0.03479502 0.1206293 0.008348059 -0.05394516 -0.004102461 ]
<OrthonormalConstraint> -1 <UseNaturalGradient> T <RankInOut> 20 4 <Alpha> 4 <NumSamplesHistory> 2000 <UpdatePeriod> 4 </LinearComponent> 
<ComponentName> tdnn9l <LinearComponent> <MaxChange> 0.75 <L2Regularize> 0.004 <LearningRate> 0.0004991947 <Params>  [
  -0.1198604 0.2894713 -0.2478982 0.2786747 0.2158677 -0.1568263 -0.3282335 -0.06797074 -0.3429131 0.1015659 -0.01417099 0.02601333 -0.1705627 -0.010696 0.1199929 -0.05508502 
  -0.0598004 -0.1246706 0.3320726 0.2021568 -0.206265 0.04771366 0.2479206 -0.06087855 -0.4172187 0.06795004 0.2770508 -0.1022528 -0.1557918 -0.04960291 0.09110538 -0.06426787 
  0.4748054 0.1160792 0.1250073 0.2568139 -0.01944029 0.00666784 0.02402186 -0.3861678 0.09198926 0.0146755 -0.1261334 0.1018412 0.1719991 -0.2271464 0.1013877 -0.1000099 
  0.1933145 -0.001563351 0.1211394 0.214545 -0.08039225 -0.1234119 -0.1418001 0.6079432 -0.001174404 0.07869044 0.0520933 0.1475358 0.2110243 -0.0816718 0.03557486 -0.1337923 
  0.004085137 0.1062746 0.3459986 -0.2028558 0.1429653 -0.424199 -0.1250264 -0.102778 0.02882928 -0.05607292 0.2697229 0.2365761 -0.001288077 -0.02794803 -0.04660402 0.2641968 
  -0.1550517 0.3298151 0.3069043 0.1486257 -0.09974911 0.2504908 -0.07248806 -0.01195582 0.1688557 0.05454796 -0.07986417 0.227341 -0.2077429 0.2370099 -0.2643831 -0.1422394 
  0.1262454 0.3631522 -0.04210008 -0.1794806 -0.001962861 -0.1901503 0.207626 0.05069327 0.05707802 0.2880066 0.1185742 -0.3827755 -0.01341005 -0.02225466 -0.1901221 -0.2090885 
  -0.03985234 -0.2331352 0.01264341 0.04639464 -0.3627854 -0.3157637 -0.1704267 -0.04701356 0.1443864 0.1706362 -0.2463414 -0.04824702 -0.3372391 -0.1630322 -0.1055616 -0.002225519 ]
<OrthonormalConstraint> -1 <UseNaturalGradient> T <RankInOut> 8 4 <Alpha> 4 <NumSamplesHistory> 2000 <UpdatePeriod> 4 </LinearComponent> 
<ComponentName> tdnn9.affine <NaturalGradientAffineComponent> <MaxChange> 0.75 <L2Regularize> 0.004 <LearningRate> 0.0004991947 <LinearParams>  [
  0.05591933 0.02411851 0.1540161 0.1346495 -0.1144565 0.2079732 -0.2338888 -0.2131772 -0.02326218 -0.07251815 0.009722355 0.008481926 -0.07685564 0.01345992 0.2166163 -0.006642425 -0.117002 -0.07583307 -0.09075782 -0.01338039 0.05212899 0.1773017 0.1530369 0.1972527 -0.07516539 0.002964469 -0.02531896 0.1008554 0.03223136 -0.1077702 0.006387413 -0.01232119 0.1503097 0.1355286 -0.09202043 0.2157981 -0.01372074 0.2638521 -0.06632695 0.2728925 
  -0.007782985 -0.1067614 -0.1249391 0.07355861 -0.1113945 -0.1326233 0.02945907 0.1201286 -0.02442629 -0.1582619 -0.1970453 0.004911258 -0.01649986 -0.03832578 -0.2215109 0.1117967 0.04369529 0.01371092 -0.04440707 -0.04388979 0.04023088 -0.07279307 -0.08177246 -0.1358402 0.1090778 0.08711114 -0.04061298 0.02752433 -0.0725725 -0.002946305 -0.127803 0.02990784 -0.08218162 0.008497195 -0.04656821 0.1949485 0.01726973 0.01352585 -0.06029705 -0.03693831 
  0.1352678 -0.2700461 0.02099944 0.2025258 0.00466788 -0.2254252 0.1681578 -0.2424911 -0.003794673 0.07849241 -0.008076983 0.026006 0.2179955 -0.09124831 -0.1424566 -0.2339341 0.1436997 -0.1795159 -0.1681952 0.02251985 0.03564693 -0.1953068 -0.05025716 0.1123193 -0.02032102 -0.06549676 0.06580477 0.09487259 0.1497534 -0.04150037 -0.2276847 -0.04697782 -0.08669276 -0.1015291 0.07801333 -0.07381207 0.1816072 0.2051394 -0.02891097 0.1764046 
  0.131997 0.09499375 0.05690857 -0.04773276 -0.1245621 -0.09704721 -0.1718924 0.03529515 0.2169948 0.03919999 -0.08067437 -0.02073687 -0.1398371 -0.2266034 -0.03518408 0.006927779 -0.1853587 0.1184632 0.03204576 0.0122477 -0.08361047 -0.07707727 -0.1818146 0.1880989 -0.004704743 0.04473541 -0.180503 0.04601106 -0.07897472 0.1254349 -0.01814391 -0.04559028 0.04413237 0.03657598 -0.05644663 -0.050527 -0.02004102 -0.1197025 0.03513658 -0.06997911 
  -0.1037745 -0.2831212 -0.3383842 0.190158 0.06939288 -0.07166709 0.06780683 0.1784399 -0.009557323 0.09953651 0.08224446 -0.1543065 -0.009132038 0.07575018 0.0998602 0.1011557 0.04802832 -0.01983782 -0.1962992 -0.09843199 0.04774205 -0.02732411 0.03414865 0.2213321 -0.05079249 0.0585093 0.07918925 0.04110463 -0.03696295 -0.1652003 -0.03659568 -0.1203973 -0.1000767 -0.06126671 0.04965557 0.04871886 0.1045032 0.06080858 -0.04461456 0.03668682 
  -0.1511685 0.09358434 -0.04959975 -0.1552828 -0.02356012 0.09421795 0.08442841 -0.2577639 0.0008166828 -0.0004381733 0.04275633 0.1075219 0.3280251 0.04522526 -0.248359 0.05649484 0.006652601 0.0563608 -0.08762092 0.05371188 -0.07018206 -0.004787968 -0.05800031 0.03767309 -0.2261494 -0.09464177 -0.06614313 0.02505007 0.006568513 0.02109247 -0.04397684 0.04705511 0.3265785 -0.08147298 0.03011724 0.03107526 -0.1041574 0.002741705 -0.296999 -0.04912064 
  0.001204941 -0.02388096 0.1983661 -0.1735557 -0.155116 -0.06766614 0.04307548 0.09164389 0.1097927 0.09162747 -0.08258498 0.2210473 0.0693993 -0.2132796 -0.1960215 -0.004591964 0.09172127 -0.04964542 0.1626817 -0.1946228 0.06212783 0.01079351 -0.09693487 0.09088874 -0.09974745 0.06693824 -0.01413147 0.01943146 -0.06098519 -0.1588169 -0.09989263 0.1113089 0.08601845 -0.1199646 -0.1979737 -0.1770952 -0.02514311 -0.08219095 -0.04730878 0.081164 
  0.1909058 -0.1091171 0.1446132 0.213845 -0.1294097 -0.008784337 -0.08915967 0.2256787 -0.01824423 0.1240416 -0.1536064 0.02531006 0.1438355 -0.09930252 0.1292397 0.1205751 -0.09600538 0.004482207 -0.1734347 0.2111681 -0.01832341 0.04000531 -0.06887632 -0.05030382 0.1172253 0.1785079 -0.2936115 0.09193141 -0.05362215 -0.09127723 -0.1084505 0.02342835 0.01509589 0.01270812 -0.244726 -0.0976658 -0.1021653 0.002288075 -0.2239541 -0.1568571 
  0.02340699 -0.008865735 0.09823342 0.03525497 0.01857714 -0.03319251 0.02488592 -0.001311351 0.1511187 -0.01022004 -0.1650043 -0.03757019 -0.1633997 -0.107248 -0.04614571 -0.02452556 -0.03043755 0.04397035 0.1494168 -0.02733729 -0.1226294 -0.02247611 -0.003499127 0.04457518 -0.06178405 0.06282065 0.0224331 -0.08624977 0.004130381 0.05480835 -0.008045303 0.005274699 -0.02976388 0.02571912 -0.1183428 0.02972908 0.1180663 -0.01536336 -0.02700919 -0.0342618 
  -0.1171407 -0.1383408 -0.04149087 0.2775962 0.1184533 -0.1720659 0.06646425 0.08836433 0.0190625 -0.02518172 0.09832132 0.1193583 -0.124901 0.02864711 0.02838086 -0.08210843 0.005055614 -0.1461654 -0.05091758 0.01176553 0.07459404 -0.1914439 0.08043659 0.1951847 0.0314602 0.1416365 -0.004618116 0.195373 0.002706486 0.03976781 -0.1127364 0.07160503 0.02851509 -0.1090678 0.2057008 -0.025643 -0.1331536 -0.1382762 -0.00888344 -0.007695017 
  -0.05933235 -0.04675105 -0.06612068 0.226564 0.1897337 -0.1448925 -0.01690178 0.04606191 0.1022093 -0.1108524 0.06309591 -0.07580443 -0.06556409 -0.05806245 -0.0127122 -0.02557778 -0.1282542 0.120067 -0.1043638 -0.01935482 0.06411107 0.1035672 -0.3016883 0.1065946 0.1565344 -0.07665019 -0.1275306 -0.007975766 0.03242821 -0.1169476 0.06905764 -0.0946286 -0.01342222 -0.0152097 0.167238 0.01605561 -0.05980532 -0.0700618 -0.05429928 -0.0254121 
  0.04462202 -0.267421 -0.1123537 -0.07619934 -0.08562029 0.09287743 0.04730847 -0.08037192 0.09323126 0.09445533 0.004467567 0.01453816 -0.1117118 0.05251845 -0.1148467 0.1091144 0.004530065 0.1542686 -0.004417703 -0.1654904 0.01458599 -0.2526343 0.1246819 0.0588561 0.05885717 0.2634954 0.0559372 -0.1749693 -0.1641185 -0.005394686 0.0599234 0.1457718 0.05920089 0.2532341 0.1114219 0.1607529 -0.1741494 0.06120143 -0.2473158 0.1830654 
  -0.02950164 0.005174549 0.01138757 0.09215789 -0.05069542 0.02057042 -0.02743817 0.1200903 0.00621373 0.04288694 -0.01973872 0.0108164 0.03856868 -0.01492038 0.0008210379 -0.02547091 0.05217651 0.01128219 0.06879736 0.08575337 -0.07546485 -0.01687707 -0.1000537 0.03799073 -0.0452616 -0.04870297 0.07286976 -0.1011981 0.03796643 -0.08760905 0.05892117 -0.05305572 -0.02447664 -0.06146795 -0.05892048 0.06820321 0.002031644 -0.00168311 0.0239418 -0.08606311 
  -0.09720717 -0.07289574 -0.1146048 -0.04152072 -0.01494425 0.1227313 -0.1139674 0.01659331 0.3672601 -0.1411457 -0.05031608 0.07908964 0.09470136 0.1050088 -0.09996577 -0.004000393 0.04186903 0.1103088 -0.0428143 0.1820158 0.1208505 -0.1201438 0.0804563 -0.1601828 -0.1192051 0.2117366 -0.0737597 -0.2772256 0.126039 0.01596152 -0.02267771 -0.005096282 -0.01562088 -0.05224741 0.1188854 -0.06681111 -0.1171705 -0.02131851 -0.1551825 0.03723912 
  -0.08802332 0.02273652 0.3162898 0.436429 0.2789342 0.06953191 -0.06511512 0.03530835 0.07446902 0.03362887 0.2446297 0.1908555 -0.007515812 -0.3516058 -0.1767249 -0.333453 0.05496286 -0.1993141 0.1947113 -0.2073413 0.004426329 0.05703414 -0.02893935 0.09558737 -0.06499249 0.02447901 -0.06013564 0.05352654 0.05134653 -0.1071086 0.02468397 0.06251805 -0.0527163 0.1376236 -0.0568745 -0.01035273 0.0002218363 -0.09570086 0.01118517 0.03981619 
  -0.05330617 -0.01784719 -0.02502011 -0.2200006 0.1663545 0.109411 0.01385198 -0.200036 -0.2412465 -0.09840682 0.04938398 0.1063928 0.05909184 0.2343009 -0.02241182 0.06353746 -0.07633749 0.04309327 -0.1165829 0.1200037 -0.07441188 -0.07524043 0.03019938 -0.1058775 0.2160196 -0.1685807 0.01097299 -0.3819495 -0.1425884 -0.1113449 0.2554098 -0.180301 -0.3217344 0.02808514 -0.1917388 -0.08537526 0.2771022 0.1635309 -0.01771685 0.1670801 ]
<BiasParams>  [ 0.8370768 -1.159548 0.4878624 -0.7044316 1.011638 -0.4123734 -0.4811521 -0.3853796 -0.6957493 0.3363027 0.06244563 0.47032 -0.7615355 -0.6155103 -0.4391595 0.0006437114 ]
<RankIn> 20 <RankOut> 8 <UpdatePeriod> 4 <NumSamplesHistory> 2000 <Alpha> 4 </NaturalGradientAffineComponent> 
<ComponentName> tdnn9.relu <RectifiedLinearComponent> <Dim> 16 <ValueAvg>  [ 1.002545 0.02440751 0.6786656 0.07080641 1.057595 0.1651509 0.08413107 0.1908071 0.02035864 0.5065333 0.2766354 0.6535051 3.137398e-06 0.08985752 0.1506669 0.3376013 ]
