<Nnet3> 
input-node name=ivector dim=100
input-node name=input dim=80
component-node name=tdnn1.affine component=lda.tdnn1.affine input=Append(Offset(input, -1), input, Offset(input, 1), ReplaceIndex(ivector, t, 0))
component-node name=tdnn1.relu component=tdnn1.relu input=tdnn1.affine
component-node name=tdnn1.batchnorm component=tdnn1.batchnorm input=tdnn1.relu
component-node name=tdnn1.dropout component=tdnn1.dropout input=tdnn1.batchnorm
component-node name=tdnnf2.linear component=tdnnf2.linear input=tdnn1.dropout
component-node name=tdnnf2.affine component=tdnnf2.affine input=tdnnf2.linear
component-node name=tdnnf2.relu component=tdnnf2.relu input=tdnnf2.affine
component-node name=tdnnf2.batchnorm component=tdnnf2.batchnorm input=tdnnf2.relu
component-node name=tdnnf2.dropout component=tdnnf2.dropout input=tdnnf2.batchnorm
component-node name=tdnnf2.noop component=tdnnf2.noop input=Sum(Scale(0.66, tdnn1.dropout), tdnnf2.dropout)
component-node name=tdnnf3.linear component=tdnnf3.linear input=tdnnf2.noop
component-node name=tdnnf3.affine component=tdnnf3.affine input=tdnnf3.linear
component-node name=tdnnf3.relu component=tdnnf3.relu input=tdnnf3.affine
component-node name=tdnnf3.batchnorm component=tdnnf3.batchnorm input=tdnnf3.relu
component-node name=tdnnf3.dropout component=tdnnf3.dropout input=tdnnf3.batchnorm
component-node name=tdnnf3.noop component=tdnnf3.noop input=Sum(Scale(0.66, tdnnf2.noop), tdnnf3.dropout)
component-node name=tdnnf4.linear component=tdnnf4.linear input=tdnnf3.noop
component-node name=tdnnf4.affine component=tdnnf4.affine input=tdnnf4.linear
component-node name=tdnnf4.relu component=tdnnf4.relu input=tdnnf4.affine
component-node name=tdnnf4.batchnorm component=tdnnf4.batchnorm input=tdnnf4.relu
component-node name=tdnnf4.dropout component=tdnnf4.dropout input=tdnnf4.batchnorm
component-node name=tdnnf4.noop component=tdnnf4.noop input=Sum(Scale(0.66, tdnnf3.noop), tdnnf4.dropout)
component-node name=tdnnf5.linear component=tdnnf5.linear input=tdnnf4.noop
component-node name=tdnnf5.affine component=tdnnf5.affine input=tdnnf5.linear
component-node name=tdnnf5.relu component=tdnnf5.relu input=tdnnf5.affine
component-node name=tdnnf5.batchnorm component=tdnnf5.batchnorm input=tdnnf5.relu
component-node name=tdnnf5.dropout component=tdnnf5.dropout input=tdnnf5.batchnorm
component-node name=tdnnf5.noop component=tdnnf5.noop input=Sum(Scale(0.66, tdnnf4.noop), tdnnf5.dropout)
component-node name=tdnnf6.linear component=tdnnf6.linear input=tdnnf5.noop
component-node name=tdnnf6.affine component=tdnnf6.affine input=tdnnf6.linear
component-node name=tdnnf6.relu component=tdnnf6.relu input=tdnnf6.affine
component-node name=tdnnf6.batchnorm component=tdnnf6.batchnorm input=tdnnf6.relu
component-node name=tdnnf6.dropout component=tdnnf6.dropout input=tdnnf6.batchnorm
component-node name=tdnnf6.noop component=tdnnf6.noop input=Sum(Scale(0.66, tdnnf5.noop), tdnnf6.dropout)
component-node name=tdnnf7.linear component=tdnnf7.linear input=tdnnf6.noop
component-node name=tdnnf7.affine component=tdnnf7.affine input=tdnnf7.linear
component-node name=tdnnf7.relu component=tdnnf7.relu input=tdnnf7.affine
component-node name=tdnnf7.batchnorm component=tdnnf7.batchnorm input=tdnnf7.relu
component-node name=tdnnf7.dropout component=tdnnf7.dropout input=tdnnf7.batchnorm
component-node name=tdnnf7.noop component=tdnnf7.noop input=Sum(Scale(0.66, tdnnf6.noop), tdnnf7.dropout)
component-node name=tdnnf8.linear component=tdnnf8.linear input=tdnnf7.noop
component-node name=tdnnf8.affine component=tdnnf8.affine input=tdnnf8.linear
component-node name=tdnnf8.relu component=tdnnf8.relu input=tdnnf8.affine
component-node name=tdnnf8.batchnorm component=tdnnf8.batchnorm input=tdnnf8.relu
component-node name=tdnnf8.dropout component=tdnnf8.dropout input=tdnnf8.batchnorm
component-node name=tdnnf8.noop component=tdnnf8.noop input=Sum(Scale(0.66, tdnnf7.noop), tdnnf8.dropout)
component-node name=tdnnf9.linear component=tdnnf9.linear input=tdnnf8.noop
component-node name=tdnnf9.affine component=tdnnf9.affine input=tdnnf9.linear
component-node name=tdnnf9.relu component=tdnnf9.relu input=tdnnf9.affine
component-node name=tdnnf9.batchnorm component=tdnnf9.batchnorm input=tdnnf9.relu
component-node name=tdnnf9.dropout component=tdnnf9.dropout input=tdnnf9.batchnorm
component-node name=tdnnf9.noop component=tdnnf9.noop input=Sum(Scale(0.66, tdnnf8.noop), tdnnf9.dropout)
component-node name=tdnnf10.linear component=tdnnf10.linear input=tdnnf9.noop
component-node name=tdnnf10.affine component=tdnnf10.affine input=tdnnf10.linear
component-node name=tdnnf10.relu component=tdnnf10.relu input=tdnnf10.affine
component-node name=tdnnf10.batchnorm component=tdnnf10.batchnorm input=tdnnf10.relu
component-node name=tdnnf10.dropout component=tdnnf10.dropout input=tdnnf10.batchnorm
component-node name=tdnnf10.noop component=tdnnf10.noop input=Sum(Scale(0.66, tdnnf9.noop), tdnnf10.dropout)
component-node name=tdnnf11.linear component=tdnnf11.linear input=tdnnf10.noop
component-node name=tdnnf11.affine component=tdnnf11.affine input=tdnnf11.linear
component-node name=tdnnf11.relu component=tdnnf11.relu input=tdnnf11.affine
component-node name=tdnnf11.batchnorm component=tdnnf11.batchnorm input=tdnnf11.relu
component-node name=tdnnf11.dropout component=tdnnf11.dropout input=tdnnf11.batchnorm
component-node name=tdnnf11.noop component=tdnnf11.noop input=Sum(Scale(0.66, tdnnf10.noop), tdnnf11.dropout)
component-node name=tdnnf12.linear component=tdnnf12.linear input=tdnnf11.noop
component-node name=tdnnf12.affine component=tdnnf12.affine input=tdnnf12.linear
component-node name=tdnnf12.relu component=tdnnf12.relu input=tdnnf12.affine
component-node name=tdnnf12.batchnorm component=tdnnf12.batchnorm input=tdnnf12.relu
component-node name=tdnnf12.dropout component=tdnnf12.dropout input=tdnnf12.batchnorm
component-node name=tdnnf12.noop component=tdnnf12.noop input=Sum(Scale(0.66, tdnnf11.noop), tdnnf12.dropout)
component-node name=tdnnf13.linear component=tdnnf13.linear input=tdnnf12.noop
component-node name=tdnnf13.affine component=tdnnf13.affine input=tdnnf13.linear
component-node name=tdnnf13.relu component=tdnnf13.relu input=tdnnf13.affine
component-node name=tdnnf13.batchnorm component=tdnnf13.batchnorm input=tdnnf13.relu
component-node name=tdnnf13.dropout component=tdnnf13.dropout input=tdnnf13.batchnorm
component-node name=tdnnf13.noop component=tdnnf13.noop input=Sum(Scale(0.66, tdnnf12.noop), tdnnf13.dropout)
component-node name=tdnnf14.linear component=tdnnf14.linear input=tdnnf13.noop
component-node name=tdnnf14.affine component=tdnnf14.affine input=tdnnf14.linear
component-node name=tdnnf14.relu component=tdnnf14.relu input=tdnnf14.affine
component-node name=tdnnf14.batchnorm component=tdnnf14.batchnorm input=tdnnf14.relu
component-node name=tdnnf14.dropout component=tdnnf14.dropout input=tdnnf14.batchnorm
component-node name=tdnnf14.noop component=tdnnf14.noop input=Sum(Scale(0.66, tdnnf13.noop), tdnnf14.dropout)
component-node name=tdnnf15.linear component=tdnnf15.linear input=tdnnf14.noop
component-node name=tdnnf15.affine component=tdnnf15.affine input=tdnnf15.linear
component-node name=tdnnf15.relu component=tdnnf15.relu input=tdnnf15.affine
component-node name=tdnnf15.batchnorm component=tdnnf15.batchnorm input=tdnnf15.relu
component-node name=tdnnf15.dropout component=tdnnf15.dropout input=tdnnf15.batchnorm
component-node name=tdnnf15.noop component=tdnnf15.noop input=Sum(Scale(0.66, tdnnf14.noop), tdnnf15.dropout)
component-node name=prefinal-l component=prefinal-l input=tdnnf15.noop
component-node name=prefinal-chain.affine component=prefinal-chain.affine input=prefinal-l
component-node name=prefinal-chain.relu component=prefinal-chain.relu input=prefinal-chain.affine
component-node name=prefinal-chain.batchnorm1 component=prefinal-chain.batchnorm1 input=prefinal-chain.relu
component-node name=prefinal-chain.linear component=prefinal-chain.linear input=prefinal-chain.batchnorm1
component-node name=prefinal-chain.batchnorm2 component=prefinal-chain.batchnorm2 input=prefinal-chain.linear
component-node name=output.affine component=output.affine input=prefinal-chain.batchnorm2
output-node name=output input=output.affine objective=linear
component-node name=prefinal-xent.affine component=prefinal-xent.affine input=prefinal-l
component-node name=prefinal-xent.relu component=prefinal-xent.relu input=prefinal-xent.affine
component-node name=prefinal-xent.batchnorm1 component=prefinal-xent.batchnorm1 input=prefinal-xent.relu
component-node name=prefinal-xent.linear component=prefinal-xent.linear input=prefinal-xent.batchnorm1
component-node name=prefinal-xent.batchnorm2 component=prefinal-xent.batchnorm2 input=prefinal-xent.linear
component-node name=output-xent.affine component=output-xent.affine input=prefinal-xent.batchnorm2
component-node name=output-xent.log-softmax component=output-xent.log-softmax input=output-xent.affine
output-node name=output-xent input=output-xent.log-softmax objective=linear

<NumComponents> 102 
<ComponentName> tdnn1.relu <RectifiedLinearComponent> <Dim> 32 <ValueAvg>  [ 0.7066182 0.175027 0.262389 0.3345716 3.482968e-06 0.1241625 0 0 0 0.4252147 0.4171406 1.200838 0 5.060689e-05 0 0.0003648464 0 4.411308e-05 0.1149265 0.5693238 0 0.5807365 0.04148678 0.0002830988 6.24233e-05 0.722948 0.4650142 0.09632005 0 1.630044 9.957636e-07 0.5844444 ]
<DerivAvg>  [ 0.9999933 0.8655459 0.981682 0.9965935 0.0002127396 0.7468074 0 0 0 0.9985648 0.9997258 1 0 9.314345e-05 0 0.01252295 0 0.0001583439 0.7687788 0.9999564 0 0.9999884 0.4598537 0.01062543 0.0002034253 0.9999523 0.9999549 0.6393147 0 1 5.886666e-05 0.9999967 ]
<Count> 2684032 <OderivRms>  [ 0.2020096 0.1941602 0.167854 0.2044629 0.7620084 0.1895551 0.5931985 0.5376539 0.4648773 0.1586669 0.1674592 0.1685801 0.6450803 0.4542458 0.3025942 0.5892079 0.3969352 0.501327 0.1727222 0.1781978 0.617635 0.2121718 0.2998332 0.4115986 0.5006973 0.1882199 0.2130267 0.220803 0.3970824 0.1823919 0.5342593 0.2066368 ]
<OderivCount> 4084096 <NumDimsSelfRepaired> 6291 <NumDimsProcessed> 7456 <SelfRepairScale> 1e-05 </RectifiedLinearComponent> 
<ComponentName> tdnn1.batchnorm <BatchNormComponent> <Dim> 32 <BlockDim> 32 <Epsilon> 0.001 <TargetRms> 1 <TestMode> T <Count> 50010.6 <StatsMean>  [ 0.6061859 0.1456584 0.225553 0.285253 2.461337e-06 0.1236078 0 0 0 0.365428 0.3562394 1.039549 0 2.912404e-07 0 0.001411808 1.459986e-28 1.386452e-39 0.1101964 0.4847404 3.573824e-07 0.5040576 0.05495699 0.00114699 2.986009e-10 0.6313759 0.4082194 0.09486206 0 1.409626 1.489882e-06 0.503903 ]
<StatsVar>  [ 0.01599538 0.01841126 0.01773533 0.01773153 6.393105e-08 0.01394593 0 0 0 0.01681699 0.01129228 0.0183202 0 1.220019e-08 0 7.653522e-05 8.297869e-30 1.903664e-40 0.01114856 0.0168504 1.207717e-08 0.02094051 0.005844416 8.139948e-05 3.876058e-12 0.02040598 0.0184999 0.01275875 0 0.02121258 2.831355e-08 0.009186447 ]
</BatchNormComponent> 
<ComponentName> tdnn1.dropout <GeneralDropoutComponent> <Dim> 32 <BlockDim> 32 <TimePeriod> 0 <DropoutProportion> 0 <TestMode> <Continuous> </GeneralDropoutComponent> 
<ComponentName> tdnnf2.linear <TdnnComponent> <MaxChange> 0.75 <L2Regularize> 0.01 <LearningRate> 0.0004997985 <TimeOffsets> [ -1 0 ]
<LinearParams>  [
  0.05858472 0.09728234 0.0524506 -0.1759456 0.09090895 -0.07959566 -0.01494315 -0.01805494 0.08333741 0.01679734 0.005140919 0.01880606 -0.1414425 -0.02864286 -0.01980498 -0.1011894 -0.02551671 0.01094686 -0.09799165 -0.07661407 -0.02802583 -0.01035658 -0.002430742 0.003464651 0.07564361 -0.1123197 0.04923619 0.2073291 0.1072839 -0.03144247 -0.1683318 0.07527397 -0.0490397 0.09967463 -0.02800709 -0.03942261 0.1329533 -0.2122062 0.02599989 -0.144683 -0.06510337 0.02748203 -0.1114692 0.01068905 -0.05265072 -0.004051931 -0.04107561 -0.004934814 0.05469144 -0.06365952 -0.007768791 -0.1093038 -0.02692113 -0.03443878 -0.01931621 -0.2160082 -0.03535168 -0.1301497 0.09864552 0.1151134 -0.02751176 -0.1679392 0.04507539 -0.1437038 
  -0.1447456 -0.2496266 0.1098303 0.00154808 0.05784642 -0.1134235 0.1228952 -0.03265076 0.009712709 0.0209262 0.04488169 0.1648801 -0.01787008 -0.002229795 -0.01634503 -0.1042621 0.07127409 -0.08713986 0.01085433 -0.1173327 -0.110554 0.01654288 -0.07144094 0.03469262 -0.01098768 0.03520633 -0.09546132 -0.1495778 -0.01212941 -0.05327026 -0.09193788 0.06672432 0.1992683 -0.07228193 0.02311103 -0.006173476 0.03830352 -0.04689332 0.1021054 0.008405523 -0.005168139 0.02474085 -0.1277549 0.06255176 0.03334231 -0.1260609 0.02723913 0.08105352 0.1403909 -0.0582369 0.1370687 0.02503967 0.02045435 -0.0124265 -0.1157628 -0.07145545 -0.00016811 0.1506283 0.02700744 -0.1720806 0.05769071 -0.04464279 0.005430654 -0.01973122 
  -0.1851314 0.05262795 -0.04470469 -0.0561375 0.06898721 -0.1828223 -0.008982453 -0.08336253 -0.0181911 -0.09830442 -0.1058912 0.02014138 0.1093994 0.03497268 -0.05315998 0.02895828 -0.02910622 -0.005340562 -0.08003126 0.01991208 -0.02560978 0.1304191 -0.03319437 0.02492152 0.02495221 -0.04242791 -0.02279992 0.007661485 0.04416112 -0.1581551 0.174057 0.002876169 -0.009889856 0.03240088 -0.03929271 -0.2031745 -0.08363814 0.08026953 0.149977 0.02309734 0.1023495 -0.09140372 0.07613236 -0.08725239 -0.187582 0.03315296 0.03854984 0.07267663 -0.005641857 -0.03862635 -0.02287766 -0.06511469 0.09370323 0.003485629 -0.1912972 -0.07029499 -0.0618303 -0.1141803 -0.1137635 -0.01126251 -0.09610126 0.07075848 0.07784801 -0.04229277 
  -0.02932539 -0.07909182 -0.08669615 -0.02144924 -0.04175114 0.169639 -0.03853755 0.09006346 -0.1407437 -0.1605091 0.002485682 -0.03459547 -0.03835243 -0.07829691 0.04832078 0.08292149 0.02890375 -0.1575665 0.01791568 -0.04313849 -0.09654076 -0.01408247 0.1607113 0.006432251 -0.01721245 -0.2072469 -0.03304214 0.1396465 0.05127031 -0.1023157 -0.07359421 -0.04523214 0.07790215 -0.09105266 -0.04950422 -0.1198441 -0.05704171 0.07616401 0.04180631 -0.0550258 0.03260433 0.08804457 -0.09834768 0.192561 0.07449194 0.01613923 -0.02348351 -0.1025955 0.005356958 -0.178208 -0.1008131 0.09848304 -0.07845976 0.1005601 0.004749451 -0.03576491 0.01195483 0.03181063 -0.07975668 0.005467832 -0.1719467 0.03342709 0.01978003 0.03237941 
  -0.05284642 -0.1128698 -0.00460073 -0.07688399 0.02928562 0.0323711 -0.04276698 -0.1362151 0.0156094 -0.09177557 0.06227718 0.09981468 0.02850092 0.1261696 -6.390355e-05 -0.05831983 0.1163746 0.05302113 -0.1502592 0.03232871 0.1879954 -0.0328658 0.2019808 0.04606855 0.1441987 -0.1021099 0.09332723 -0.03787656 -0.09273337 0.09221354 0.08373637 0.1988217 -0.1028008 -0.02859735 -0.04431359 -0.07398809 -0.08852336 -0.0040913 -0.1061543 0.175633 -0.003374971 0.07342222 -0.04648632 0.1260121 -0.004049919 -0.09146643 0.07700477 -0.06177793 -0.01682363 0.09518491 0.05405968 -0.03330962 -0.07068448 0.1180555 0.05480187 0.008279146 -0.09839185 -0.0519714 0.1035903 -0.05533653 -0.02094367 -0.007598721 0.05217897 0.05983771 
  0.1457459 0.05774038 0.1364355 0.08214927 -0.1345907 -0.06896619 0.04522485 0.04018043 0.06126208 0.04167876 -0.1302496 0.1420787 -0.005014056 0.02475895 -0.06703348 -0.05616517 0.057745 -0.08988643 -0.1264663 0.2998644 -0.06737916 -0.171448 -0.02922816 0.01661933 0.02226531 0.09480313 -0.06549854 0.1956714 0.04344293 -0.0897425 0.04077438 0.1684704 -0.003409438 0.08585065 0.05533542 -0.07788707 -0.007218001 -0.05497319 0.05375702 -0.007695168 0.00637265 -0.0575485 -0.03684813 0.1092032 -0.01931423 0.02102566 0.05275028 -0.03997441 -0.03061962 0.03042599 0.02593775 0.08888907 0.003020298 -0.07928959 0.03022472 0.06811351 0.1501678 0.04815147 0.01239613 -0.08112209 -0.0111135 0.07640236 0.07227611 0.02786209 
  0.1430802 -0.1217673 -0.01904834 0.009319777 0.06773547 0.0422158 -0.01165899 -0.06870986 -0.04530417 0.1132213 -0.1427198 -0.05023172 0.06587499 0.04483227 0.04572159 -0.08093494 -0.007573201 0.01712091 0.01672718 0.08700716 -0.008874364 0.05062947 0.1018131 -0.009816119 -0.09862774 0.0008865478 -0.2013054 0.06360902 -0.03644379 -0.04620444 -0.08858567 -0.1583335 -0.1767245 -0.156951 -0.03890583 -0.02424217 -0.003719755 -0.1483406 0.1150707 0.05171508 0.02526143 0.1182508 0.2117303 0.07732001 -0.05764075 -0.08169321 0.01157625 -0.07898109 0.04194568 0.10443 -0.01144554 -0.1080933 -0.06694763 0.01741076 -0.1397589 -0.007657915 0.05381063 -0.0106538 -0.06819079 -0.04693848 0.0907063 -0.1148388 -0.01631374 -0.150248 
  0.1577454 -0.02763567 -0.1112693 0.04782571 -0.1094139 -0.184681 -0.02554718 -0.004293406 -0.1449811 -0.1888018 -0.1455905 0.1726401 0.01440854 0.1270604 0.003084507 -0.03235612 3.006298e-05 0.01446556 -0.07850783 -0.2697576 0.1128669 -0.02412798 -0.1281322 -0.0579051 -0.05214651 -0.0561184 -0.09663868 0.1114305 -0.09325599 -0.04305172 0.02334866 -0.01378773 0.06264994 0.04398922 0.03908244 0.1097293 0.1306698 0.09759915 -0.09383441 0.06026971 -0.0360839 -0.01526601 0.06706005 0.0963499 -0.0008765216 0.01945004 0.04714584 -0.07134002 -0.03351492 0.005920536 -0.04961201 -0.05895666 0.07626869 -0.003536585 0.07064363 -0.02959643 0.04178748 0.03976924 -0.05342607 0.0004353737 -0.02119889 -0.07609002 -0.04459207 -0.04421598 ]
<BiasParams>  [ ]
<OrthonormalConstraint> -1 <UseNaturalGradient> T <NumSamplesHistory> 2000 <AlphaInOut> 4 4 <RankInOut> 20 4 </TdnnComponent> 
<ComponentName> tdnnf2.affine <TdnnComponent> <MaxChange> 0.75 <L2Regularize> 0.01 <LearningRate> 0.0004997985 <TimeOffsets> [ 0 1 ]
<LinearParams>  [
  0.1841988 -0.07172693 0.1213639 -0.04750293 0.2775501 0.007413427 0.04064254 -0.09064627 0.1281527 0.05716355 0.07345212 0.0988861 -0.2678202 -0.1214538 0.1322292 0.2134123 
  -0.2018698 0.2032614 -0.2271743 0.2882077 -0.002615781 0.1158662 -0.1056825 0.2405668 -0.3829302 -0.04548506 -0.1454942 0.106193 0.1278466 0.1588559 -0.08457494 0.02858161 
  -0.04786414 -0.1527334 -0.2198112 0.04767538 -0.03436191 -0.03271455 0.1318727 0.2595477 -0.1268359 0.2078476 -0.08043187 0.1531763 0.1643947 0.2916379 -0.1772639 -0.1017999 
  -0.356388 0.1031206 0.0187136 -0.0166859 -0.3847366 -0.002148389 0.1891185 0.04586657 -0.1634274 0.1721679 -0.02051442 -0.05602919 -0.3637152 0.1651971 -0.1167653 -0.04632331 
  -0.08142262 -0.008682394 0.2511087 -0.203475 -0.01968061 -0.2141187 0.1170297 -0.4495741 0.04736266 -0.003009967 -0.05598013 0.09128138 0.2341782 -0.1545272 0.1455328 -0.2967981 
  0.1629028 0.1260963 0.05937084 -0.09142295 -0.09419368 -0.1165818 0.02176117 -0.2719474 -0.0818688 0.0713015 0.01811448 0.1432991 -0.06185801 -0.04287228 0.1326337 0.004101216 
  0.04401182 -0.1718806 0.1406832 -0.02320299 0.04060381 -0.0995037 -0.07093216 0.02734442 -0.02157139 0.01163766 0.08158999 0.04425828 -0.0006561317 -0.2206994 -0.02084221 0.1387675 
  0.2274149 -0.05233776 0.2871888 -0.002247154 0.1046648 0.1902551 0.136078 -0.0005825196 0.1595524 0.0635024 -0.007081972 -0.1309186 -0.1300909 0.1496954 0.08852871 -0.05112502 
  0.02242876 0.06629054 -0.02751005 -0.1292688 -0.09531917 -0.07805032 -0.1671178 -0.04529786 0.03224922 0.3109587 0.09602176 0.04830275 0.1659345 0.01691387 -0.08863655 0.04292368 
  0.05422276 0.03614802 0.03673243 -0.1016213 -0.1209719 -0.07037396 0.05993116 -0.1571829 -0.07312426 0.003766346 -0.05857782 0.08970025 0.07542931 0.05496112 -0.05093018 0.1389902 
  -0.1304 0.02571365 0.05941796 -0.09187433 0.07765761 0.04499959 -0.0395765 -0.1668352 0.05536473 -0.1778412 -0.06943171 -0.1661203 0.2318636 -0.2243246 -0.07315502 -0.06300418 
  -0.3387077 0.1556406 0.218707 -0.02705629 0.01697527 -0.1623091 -0.02473057 -0.02694273 0.05596782 -0.04645229 0.0816403 -0.1410839 0.031908 0.1251967 -0.4218654 0.0406082 
  -0.1188834 0.03889494 -0.1105963 -0.04844927 -0.1794414 0.1509085 -0.2243917 0.004279273 0.1906773 -0.09454469 0.07000424 0.02459999 -0.08156586 -0.1089668 -0.1167213 -0.20638 
  0.299057 -0.0951322 -8.788304e-05 0.1054307 0.04803406 0.1805171 0.1292142 -0.0390418 0.03085073 -0.2568589 -0.0524127 -0.01525395 0.1278098 0.2436164 -0.002140614 -0.1882337 
  -0.0009087349 -0.3841298 0.111274 0.129676 0.1873911 0.05358926 -0.1736471 -0.05813431 0.1785343 -0.3285394 -0.07687391 0.3152849 0.02341491 -0.01999304 -0.1118775 -0.0006722824 
  -0.04681893 0.1089971 0.1487747 -0.07811696 -0.0214157 0.2381811 0.3047043 -0.08201978 0.156683 0.1514434 0.08889944 0.1855906 -0.2312449 -0.2425805 0.2026044 0.08101547 
  0.03857574 -0.1011193 0.2459927 0.1126776 0.1095255 0.08782416 -0.00974731 0.4514503 -0.06731009 0.153366 0.2798965 -0.1610503 -0.05944618 -0.2097005 0.2107652 -0.188891 
  -0.09445753 -0.2932036 0.1403803 -0.02987706 0.1403763 -0.134181 0.1730437 -0.2816299 -0.2322364 -0.07578616 0.1675285 -0.001219957 0.0129809 -0.1637671 0.1716012 -0.1938081 
  -0.1846458 0.155625 0.09085386 -0.120325 0.1609163 0.2137116 -0.4491815 0.2172063 -0.08962592 -0.1265167 0.4054167 -0.2009048 -0.04039451 0.2210789 0.1928885 -0.004859495 
  0.0002246076 -0.01362286 0.06884549 -0.1809971 -0.1054452 0.05464989 0.1403106 0.1005912 0.1068167 0.156649 0.08880147 -0.09827422 -0.09489695 -0.05425658 0.04741195 0.08317574 
  0.07825138 0.09030043 -0.0332295 -0.2214159 -0.06170052 0.2327593 -0.161819 0.249754 0.1168953 -0.2147164 0.2072016 -0.3337753 -0.01279471 -0.1380627 -0.1755166 -0.1748277 
  0.01630104 -0.0332763 -0.00772211 0.2230588 -0.1094264 -0.08389656 0.1508706 -0.08671409 -0.0638916 0.3608643 0.01666289 -0.05278508 -0.006269558 -0.05793384 0.112661 0.1067827 
  0.1418015 -0.02604354 0.212972 0.1192801 0.02132595 0.01209046 0.07682373 -0.06647615 0.1163291 -0.3691978 -0.05803981 -0.04984681 0.1337883 0.0484079 0.1166691 0.0100942 
  0.07683936 0.1201445 -0.09545717 -0.1443828 0.1397504 -0.09054732 -0.08025165 -0.1095787 0.110048 0.0303292 0.02356144 -0.09657266 -0.196371 0.0506351 0.2029213 0.064701 
  0.1252513 0.1812611 0.04528702 0.09423541 0.1236825 -0.2153865 -0.02980065 0.05122514 -0.2035378 -0.04703347 0.05177956 -0.1373175 -0.03795215 -0.2276255 -0.2982632 -0.1648336 
  0.03335634 0.1175858 0.1657615 -0.02816345 0.04670642 0.03775821 -0.03278688 -0.1307443 0.112533 0.08904336 0.1953611 -0.08442906 0.004061831 -0.2582754 0.03321348 0.04055206 
  -0.1754975 -0.1267743 0.1044552 -0.4005812 0.1343351 -0.1041915 -0.1158098 0.003545636 -0.02847223 0.05859086 -0.02762887 0.09292202 -0.2031119 -0.1435537 -0.05709748 -0.178746 
  -0.009117069 -0.1509014 -0.1313966 -0.08461723 -0.1044174 -0.07488669 0.03124317 0.05357882 -0.07470665 0.2470172 0.06102975 -0.03192041 -0.0549162 0.07687282 -0.1657916 -0.06316241 
  0.0928177 -0.1680067 0.1026271 -0.2400612 -0.08290474 0.05483557 -0.05905965 -0.0008818586 0.09819993 -0.05182111 0.08711465 -0.2499677 -0.108569 0.1541529 0.02501222 0.05089008 
  -0.2154164 -0.2499798 0.009788785 0.06383211 -0.04037627 0.06089561 -0.1865677 -0.3396844 -0.1434212 0.08122239 -0.09166311 0.13015 -0.1964906 -0.1580335 -0.1721563 -0.001915855 
  -0.1272391 -0.05891183 0.08337238 0.003950498 0.07239979 0.1918015 -0.2200381 -0.133683 -0.1453323 -0.03830335 0.1166222 0.3513319 0.0442175 -0.1773807 0.06443506 -0.1287661 
  -0.03828675 -0.1600739 -0.07794566 0.02532737 -0.07079176 0.2698756 -0.2482555 0.1532315 0.06447513 0.09087911 -0.1690797 -0.2314057 0.03005589 0.1027002 0.08447374 -0.02390681 ]
<BiasParams>  [ 0.2270326 -0.4837081 0.8877932 -0.1228852 -0.8099648 0.04353222 0.09228718 -0.07831213 -0.004632147 -0.4501517 0.4393988 0.2286176 0.2872505 -0.09767246 -0.9477718 1.369386 -0.4747704 -0.06636605 -0.1256541 0.6038425 -0.34981 1.04447 1.332424 -0.6039814 -0.1329949 -0.1151094 0.2084664 -0.2669657 -0.1271912 -0.3522184 -0.1936471 0.07298531 ]
<OrthonormalConstraint> 0 <UseNaturalGradient> T <NumSamplesHistory> 2000 <AlphaInOut> 4 4 <RankInOut> 8 16 </TdnnComponent> 
<ComponentName> tdnnf2.relu <RectifiedLinearComponent> <Dim> 32 <ValueAvg>  [ 0.4667913 0.229719 1.058986 0.2640507 0.1289388 0.2349332 0.2056342 0.2052432 0.1440616 8.75104e-06 0.5665513 0.4436263 0.3750022 0.2075427 0.06035635 1.644067 0.09157796 0.3483829 0.2095516 0.6969258 0.09249497 1.257476 1.588542 0.0006956715 0.1323909 0.1161247 0.3538355 0.01813675 0.1382272 0.1177531 0.07248826 0.3309048 ]
<DerivAvg>  [ 0.6668051 0.2757673 0.9622107 0.450925 0.1851768 0.5519149 0.5646067 0.524679 0.4106751 0.0001810653 0.8861727 0.6166934 0.7220051 0.383338 0.1186082 0.9517161 0.2735127 0.4411168 0.4331679 0.9078807 0.230352 0.981037 0.9870387 0.005937448 0.4154433 0.3581598 0.6627769 0.1256231 0.3641424 0.2627048 0.2692142 0.5670744 ]
<Count> 2678592 <OderivRms>  [ 0.05428413 0.02401418 0.02775844 0.04169435 0.058806 0.05017269 0.05686397 0.06271979 0.05670189 0.4773444 0.03040959 0.03206832 0.04690881 0.02752659 0.05264165 0.01168213 0.06332469 0.02191539 0.04749704 0.03458538 0.0507086 0.04548918 0.01693198 0.3046302 0.0577601 0.08617741 0.04215627 0.2033685 0.04820206 0.0485714 0.06449429 0.02606644 ]
<OderivCount> 4058048 <NumDimsSelfRepaired> 1272 <NumDimsProcessed> 6784 <SelfRepairScale> 1e-05 </RectifiedLinearComponent> 
<ComponentName> tdnnf2.batchnorm <BatchNormComponent> <Dim> 32 <BlockDim> 32 <Epsilon> 0.001 <TargetRms> 1 <TestMode> T <Count> 49498.6 <StatsMean>  [ 0.4035705 0.1900532 0.8984287 0.235888 0.1203372 0.2087331 0.2229694 0.1732468 0.1363413 3.791471e-06 0.476595 0.3595825 0.3399992 0.2171511 0.08800453 1.386963 0.07151042 0.294929 0.2005033 0.622142 0.1272698 1.059214 1.339853 0.0002647805 0.1237709 0.1451148 0.3210627 0.0339564 0.142505 0.1043315 0.09650005 0.3027237 ]
<StatsVar>  [ 0.1617397 0.1599497 0.3016993 0.1168089 0.1050809 0.08806034 0.07466988 0.07503931 0.03391927 3.990991e-07 0.1557875 0.181593 0.1169631 0.1404579 0.07066181 0.5528581 0.02793743 0.2413157 0.1146553 0.1395805 0.08925278 0.2941805 0.3337607 3.045219e-05 0.0452024 0.05700262 0.1279199 0.007254789 0.07691933 0.05190095 0.04419292 0.1499196 ]
</BatchNormComponent> 
<ComponentName> tdnnf2.dropout <GeneralDropoutComponent> <Dim> 32 <BlockDim> 32 <TimePeriod> 0 <DropoutProportion> 0 <TestMode> <Continuous> </GeneralDropoutComponent> 
<ComponentName> tdnnf2.noop <NoOpComponent> <Dim> 32 <BackpropScale> 1 </NoOpComponent> 
<ComponentName> tdnnf3.linear <TdnnComponent> <MaxChange> 0.75 <L2Regularize> 0.01 <LearningRate> 0.0004997985 <TimeOffsets> [ -1 0 ]
<LinearParams>  [
  0.01578619 -0.08435185 0.1462113 0.0911054 0.06630503 0.007725657 -0.1363501 0.04917179 0.02338185 0.04474812 0.1055488 0.1337319 0.1015256 0.1172504 -0.05457695 0.06946948 -0.0120198 0.02230769 -0.01783571 -0.06897618 -0.1349046 -0.1255821 -0.04369898 -0.07905377 0.02993345 -0.2056251 0.1261261 0.1427057 0.02131986 0.07806754 -0.04781501 -0.09568032 -0.002707066 0.04959109 0.1943573 -0.1417642 0.0967252 -0.0008002662 -0.04551401 0.0310319 0.07010818 -0.08667396 0.01922119 0.05620409 0.05292948 -0.002050534 -0.1140219 -0.1198574 0.1640565 -0.07166118 0.1672896 0.08665194 -0.05772475 -0.06957787 0.01052339 0.02498158 -0.02724962 0.07845559 -0.01668511 -0.01710937 -0.05455613 -0.02357029 0.01986341 0.02105703 
  0.1284579 0.1565133 0.01784362 -0.06153259 -0.06577595 -0.128001 -0.0155719 0.07660536 -0.1312316 0.1343795 -0.07097892 -0.1251691 0.05843856 0.004190315 0.1122815 0.02590209 0.07526498 -0.01589687 0.08583333 0.0004594531 -0.05610757 -0.1414148 0.05203736 -0.07315193 -0.06861386 0.04284082 -0.05522824 -0.08951803 0.1198291 -0.03724136 -0.1351764 0.07367456 -0.04330088 -0.09009568 0.1373825 0.004531133 -0.01481791 -0.054958 -0.0427352 0.05274563 0.07034858 -0.02433147 0.02061015 -0.06811867 0.03451917 -0.005620228 0.02983515 -0.136254 0.0637607 -0.128225 -0.1534432 0.05617291 -0.1238434 0.05454942 0.03241686 -0.04591492 0.2538236 0.09848201 -0.1157747 -0.01652718 -0.01438587 0.09370205 -0.0615325 -0.0168417 
  -0.002948512 -0.08158183 0.05458809 -0.1234717 -0.1291748 -0.1609963 0.02663301 -0.1145741 -0.08016744 -0.0935037 0.005675352 0.03707719 0.1099063 -0.03075085 0.07176788 -0.01225824 0.02066915 -0.0897064 0.09221693 -0.04500379 0.1224461 0.09359689 -0.06335881 0.04649502 -0.09317676 0.05179438 0.1894978 -0.05677189 -0.006198638 -0.07722386 -0.02847756 -0.1625584 -0.1043972 -0.09773836 0.01148937 -0.04864459 -0.001314227 0.01253095 -0.1229866 0.09326059 -0.01071397 -0.202361 -0.1337014 0.1920725 0.005064412 0.06382469 0.049698 -0.001620782 0.01328955 -0.0677655 -0.01997779 -0.02692288 -0.02817561 -0.0546086 0.06023008 0.06702559 -0.00620075 -0.1061519 0.1095316 0.2067686 -0.07955457 -0.05772756 0.04423628 -0.06398837 
  0.03803268 0.02219963 0.09670767 -0.18569 0.01532764 -0.01330677 0.0581975 0.01508549 -0.03517817 0.005817993 -0.03633351 0.04632078 0.01076675 0.1636153 -0.04414332 0.006256619 -0.04124637 -0.1004617 0.2150391 0.07826097 0.03736394 0.03456976 -0.07607447 -0.01023966 0.07136755 0.07145272 -0.04714421 -0.03821439 0.02689017 -0.01764763 0.02165494 -0.05860772 0.02291804 -0.02024518 -0.04594204 -0.1765631 0.2237326 0.002831144 0.07165504 0.1178813 0.1280901 0.03512655 -0.0390023 -0.1680501 0.0671571 0.1245276 -0.08310188 0.0700934 -0.1602444 -0.01586823 0.03323875 0.08271264 -0.03319819 0.01156194 -0.05865328 -0.08439713 -0.005905889 -0.05609516 0.09375183 -0.1012282 0.16563 -0.08955764 -0.07281736 0.07615761 
  0.1271769 0.04746232 0.04204176 0.04010567 -0.2393898 0.05386529 0.1316316 -0.09640032 0.1176147 -0.1839167 0.004487978 0.1176458 -0.193474 0.04377189 -0.1288453 0.1077872 0.07504908 0.0001290903 0.1410311 -0.1457415 -0.08645178 0.02421061 0.06330796 0.1035672 -0.01909375 -0.0311746 0.02017033 0.04857753 0.118508 0.06711797 0.1249443 0.004144773 -0.00148479 -0.1123278 0.0120499 0.05658401 -0.02306798 0.1079223 0.03361293 -0.04041465 0.02603509 0.008483095 0.03249059 -0.05135302 -0.02162567 0.01988625 -0.03497583 -0.06112867 0.02158889 -0.07677987 -0.06043386 -0.04873538 -0.05044491 -0.1191342 0.05722822 0.03357212 -0.04120066 -0.03874253 -0.1747248 0.04467478 0.1213313 0.07847824 0.1070969 0.06593306 
  0.2086769 0.01329685 -0.02740118 -0.04540694 -0.04856304 0.0881886 -0.006455739 0.0599817 -0.1086859 0.01580379 0.01171653 -0.03260427 -0.0464529 0.06712185 -0.03333667 -0.158386 6.873696e-05 -0.03243947 0.05206028 -0.02944182 0.04044157 -0.01290346 0.01857641 -0.01953306 0.122518 -0.1220518 -0.01615496 -0.007176535 -0.07999907 0.03857864 -0.04338862 -0.0833911 0.159932 0.130258 0.1516594 0.1138058 0.02454657 0.0346836 -0.06493172 0.1329385 0.07753317 0.2057113 -0.1683221 -0.01986339 -0.08716379 -0.06637309 -0.024799 0.09933329 0.02958019 -0.04190737 -0.1866079 -0.04855528 0.001715012 0.07863976 -0.01969796 0.02331131 -0.1722829 0.03455451 -0.04459263 0.1887731 -0.06918103 -0.03721346 -0.02494834 -0.05252441 
  0.07369184 0.04325038 0.04359553 -0.05200074 0.02486624 0.1163551 -0.001160714 0.07009407 0.01930458 -0.1157275 -0.02091783 0.08468857 -0.1246302 -0.09580313 0.02125915 0.001803207 0.02667651 0.1531671 0.06385206 0.03207883 -0.0286715 0.2325707 -0.08832609 -0.09091868 -0.03663009 0.2203884 0.05948254 0.04383556 -0.1014575 0.01241766 -0.173492 -0.08030606 0.008269107 0.003456829 0.0445534 0.05325872 0.1248892 0.1100722 -0.04246581 -0.0260002 -0.1074753 0.02688798 -0.03994613 -0.01318763 -0.08913206 0.02755608 -0.08656146 -0.007449681 -0.03369052 -0.07890501 0.1242801 0.05026543 -0.0958101 0.062737 0.06324524 -0.004261632 0.06848584 0.1195192 -0.003211787 -0.139149 -0.1894573 0.1058096 -0.04422582 -0.1102562 
  0.08250644 0.01508248 -0.2374873 -0.02917057 0.04532658 -0.1605976 0.001727748 0.08238865 0.01095734 -0.09783386 0.06969704 -0.09703641 0.06071691 -0.09186918 -0.0223025 0.0607707 -0.0903279 0.09196576 -0.07080381 -0.01900341 -0.06567381 0.1826356 -0.02597696 0.08196602 0.09461042 -0.04812219 -0.02704862 0.1076099 0.08161101 -0.006352064 -0.05718875 -0.2034127 0.0326324 0.0004594036 -0.0596118 0.09867162 0.04035646 -0.1240405 0.1505182 0.08388948 -0.0009053736 -0.1287089 -0.08850995 -0.0950242 -0.02307104 -0.07726951 -0.0269028 -0.07179404 -0.05143373 0.004371944 0.04236934 -0.006606302 -0.02200525 -0.05693186 -0.08704294 -0.06043668 0.07030064 0.1115597 -0.09296711 0.02396085 0.1046264 -0.1281233 0.1267294 0.05321405 ]
<BiasParams>  [ ]
<OrthonormalConstraint> -1 <UseNaturalGradient> T <NumSamplesHistory> 2000 <AlphaInOut> 4 4 <RankInOut> 20 4 </TdnnComponent> 
<ComponentName> tdnnf3.affine <TdnnComponent> <MaxChange> 0.75 <L2Regularize> 0.01 <LearningRate> 0.0004997985 <TimeOffsets> [ 0 1 ]
<LinearParams>  [
  -0.08984446 0.05008996 0.1369084 -0.04657603 0.02835711 -0.009552082 0.3102487 0.1858265 -0.1597885 0.1417383 -0.2335035 0.09870269 0.1459267 0.0766976 -0.02809592 0.2425131 
  0.005560964 0.05106986 0.1027534 0.1707344 -0.1234626 0.04012349 -0.2527347 -0.2417965 0.100371 0.09682779 0.08903195 -0.03625092 0.02866358 -0.382669 -0.1458687 -0.08638205 
  -0.002682647 0.01982871 -0.1226455 -0.0710485 -0.06193385 0.1307905 0.02610354 0.1621336 -0.02969264 0.07266476 0.01331338 -0.07565843 -0.04404613 -0.1469368 0.1465857 -0.1255459 
  -0.2126461 -0.2752392 0.2175125 0.08311769 -0.1026338 -0.1005797 -0.008813653 -0.04722036 0.1361799 0.02030551 0.1727161 0.01477974 0.0694848 -0.1532022 0.005970823 -0.07995332 
  0.1818158 -0.04310302 0.1831678 -0.05878639 -0.1103546 -0.2615501 -0.1019287 0.1096457 -0.1339394 -0.01179882 0.08473852 -0.10663 -0.1718635 -0.1156784 -0.1132798 0.1559296 
  0.03364802 -0.2111233 0.1401377 -0.002472094 0.1160458 -0.1311964 0.0310523 -0.2703806 0.2517138 0.1790383 0.1886264 0.1950556 -0.1322648 0.1145296 0.2215902 0.1119184 
  -0.004641128 -0.1120955 -0.1035362 -0.1929067 0.2928265 -0.04182945 -0.1319816 0.1556887 -0.09301105 0.003500915 0.1227666 0.1457779 -0.03985642 0.1822216 -0.07367781 -0.1017017 
  0.1676741 0.133819 -0.06767157 -0.08147793 -0.06203572 -0.1210726 -0.1726701 -0.2296587 0.2610588 -0.08560712 -0.0648547 -0.1553822 0.121578 0.2180465 0.08396507 0.03744195 
  0.1539495 -0.01350725 0.1775699 0.01607883 -0.1005575 -0.01742676 0.1584806 0.07571699 0.03011627 -0.0001540873 0.1856971 -0.2059494 0.02449936 -0.02783588 0.01556418 -0.04176767 
  0.04358007 -0.08369009 -0.002811148 -0.05766346 -0.113084 0.114445 0.1685823 -0.2342725 -0.3988724 0.1317842 -0.2948655 0.221769 0.07541215 -0.1446923 0.08203321 0.2367405 
  -0.02628055 -0.007991303 0.01801141 -0.07510858 0.1584846 0.05569339 -0.1867677 -0.0762384 -0.3127687 -0.1844622 -0.1087049 0.01765921 0.2288836 -0.08960421 0.06592722 0.1343821 
  -0.03017276 -0.08647218 0.1339961 -0.06083907 -0.002229528 0.1501067 0.004793031 0.08557556 0.1272418 0.2133398 -0.008484408 -0.04161389 0.06654739 0.07179356 0.06504903 0.1218497 
  -0.03192595 0.05028158 0.02138135 0.06658393 0.09657232 0.04589344 -0.1980446 0.01771064 -0.1199648 0.1595131 -0.02797983 0.02901672 -0.05393662 -0.07824407 -0.01906239 -0.08180409 
  -0.0594536 -0.01906699 -0.003238602 0.2148576 -0.1131809 0.07148839 -0.0732924 0.08643505 0.05950892 0.4841871 -0.06971458 -0.04217376 0.04998734 -0.2715369 -0.1355312 0.2068066 
  0.02539007 0.2378365 0.2308138 0.01262912 0.0009721866 0.1261433 0.07718282 0.08966555 0.02375669 0.09598767 0.07101324 -0.1388357 0.2492196 0.3617252 -0.09215143 0.008719751 
  -0.1690105 0.3050021 0.08425336 0.0694835 -0.03350538 -0.08110785 0.1159536 -0.01978401 0.1094159 0.0435694 -0.07133854 0.1220433 -0.1059418 0.1083179 -0.2109641 0.01228322 
  0.1190718 -0.1301152 -0.121067 0.05761791 0.0636173 -0.02226209 0.1366688 0.16335 -0.2031255 0.002125709 0.01580608 0.08350954 -0.2285145 -0.1817163 0.170632 -0.1792094 
  0.1656649 0.05962614 -0.2072774 0.01940354 0.09114031 0.02256243 -0.0823989 -0.1145142 -0.1139022 -0.1251515 -0.02494338 -0.05169259 0.02833999 -0.2272686 0.07830898 -0.04250592 
  -0.2893048 0.3207795 0.09512991 0.02991141 0.02164953 0.1886526 -0.1291332 -0.2023596 0.2735563 -0.2792429 0.03091788 -0.07880013 -0.1339617 -0.2162334 0.1666084 0.05798369 
  -0.2952127 0.0636884 0.07493155 -0.007410744 0.1089516 -0.04399083 0.08444388 0.4228717 -0.2850707 -0.1344952 0.02989855 0.1629462 -0.2657637 -0.06375028 -0.05665322 0.09497189 
  0.2184902 0.2814523 -0.2088015 0.07850181 0.07393464 0.1665002 -0.1054606 0.1009993 -0.09167849 -0.04971908 -0.1192563 0.1265393 -0.08982208 -0.06482865 -0.09005953 0.08472687 
  -0.1016585 -0.04651457 -0.1042444 0.1036194 -0.1221564 -0.0525644 0.02684973 0.1230062 0.156571 -0.1905734 -0.1583446 -0.1621598 -0.1587697 -0.1206845 -0.008492295 0.07694107 
  0.02449987 0.04635217 0.07844836 0.01575445 -0.02555401 -0.01949988 -0.05634212 0.04760562 -0.270663 0.0175065 0.02042628 -0.04880773 0.07358611 0.07395002 0.06830318 0.2035715 
  0.1526076 0.0978402 0.01112746 0.1014499 -0.1241768 0.009110662 -0.3584029 0.3014447 0.1179349 -0.02447397 -0.1673359 0.1282173 -0.1185828 0.1017867 -0.09560319 0.1230253 
  -0.1160931 0.03612944 -0.004132899 -0.02071541 0.2368433 0.05847181 0.002695001 0.01032224 0.1515875 -0.1407019 0.09935512 -0.3571087 -0.2574505 0.264786 0.112725 -0.156116 
  -0.00227853 0.03317192 -0.3289723 -0.1665642 0.05452356 -0.2913871 0.06044522 0.1044395 0.09138194 -0.02836113 -0.01396861 0.1139791 0.02227362 -0.08431164 0.2201444 -0.1983674 
  -0.07271038 0.1055211 0.01962989 -0.1264123 0.1941584 0.1314693 0.1432429 0.09520498 -0.1773549 0.1256578 -0.2829128 -0.07813102 0.2159178 0.2227723 -0.2056928 0.03577562 
  -0.140275 0.1483717 0.1585138 -0.02748322 0.2044626 0.02706217 0.04469324 -0.1496054 -0.152222 0.1829472 -0.03602267 -0.05305628 -0.17419 0.05755269 -0.1378917 -0.2029053 
  0.09031298 0.02904691 0.08926877 -0.1963565 0.01350383 0.1261551 -0.1548408 0.109745 -0.04189831 0.05709988 -0.03084929 0.1104476 -0.07111 -0.143711 -0.1337777 -0.04374933 
  0.08924002 -0.01675875 -0.04257262 0.07882373 -0.002996965 0.09554597 -0.1835099 0.04861087 0.09052926 0.3151432 -0.2216525 0.02152549 0.1392387 0.1895471 0.1311081 0.1452012 
  -0.127562 0.0862326 0.1105072 0.1289764 -0.02943223 0.07201871 0.09300369 -0.09427439 -0.06367189 -0.05109024 -0.01799945 -0.1010781 -0.07726557 0.1084156 0.05234468 0.09619775 
  -0.09927295 0.0137039 0.217479 0.2412226 0.0233282 0.2336134 0.1598384 0.02111834 0.1739614 -0.01260956 0.1541964 0.005996812 -0.2218163 0.1125348 0.05644753 -0.01056096 ]
<BiasParams>  [ 0.1675098 0.2912082 0.1499503 0.3217368 -0.2637375 0.6933706 -0.05528856 0.6936338 -0.02805495 -0.08486857 -1.032546 0.6361148 0.1787554 -0.5178929 0.709286 0.1063552 -0.7216986 0.1305176 -0.2379426 -0.5636352 -0.3761725 -0.2569896 0.3666924 0.3584065 0.06493085 0.652898 0.8883913 -0.2285182 -0.4057415 0.4838699 0.168845 -0.1626026 ]
<OrthonormalConstraint> 0 <UseNaturalGradient> T <NumSamplesHistory> 2000 <AlphaInOut> 4 4 <RankInOut> 8 16 </TdnnComponent> 
<ComponentName> tdnnf3.relu <RectifiedLinearComponent> <Dim> 32 <ValueAvg>  [ 0.6110054 0.7411773 0.2384499 0.5090057 0.1283968 0.8235912 0.09529115 0.847308 0.2060082 0.3351967 0.0003594164 0.7481776 0.3015051 0.1407979 0.9442235 0.3093661 0.08030728 0.2677478 0.0339445 0.1948602 0.1492384 0.1824102 0.5207105 0.588791 0.2717265 0.7922727 1.147135 0.1089445 0.02991956 0.6713572 0.3062854 0.1409363 ]
<DerivAvg>  [ 0.5911584 0.5550616 0.6618562 0.6635551 0.2723505 0.9030997 0.3907606 0.8988248 0.39717 0.4217282 0.002634968 0.9332436 0.6006871 0.2047054 0.7977247 0.5966341 0.1342795 0.561557 0.1866438 0.333746 0.2782838 0.2813891 0.8268949 0.6639732 0.6126322 0.8448348 0.7989602 0.2770153 0.117517 0.7346656 0.6675388 0.3970631 ]
<Count> 2581056 <OderivRms>  [ 0.03260116 0.01729305 0.03880749 0.0356414 0.06099883 0.0226761 0.06142896 0.0205095 0.03318358 0.02409425 0.4081018 0.02560745 0.03203135 0.02343738 0.01681984 0.02387195 0.04208773 0.03160352 0.08959731 0.0309269 0.03175974 0.05149261 0.03382137 0.0157386 0.02339808 0.02175314 0.01282438 0.0295983 0.09163317 0.01709884 0.03971433 0.05365783 ]
<OderivCount> 3911424 <NumDimsSelfRepaired> 281 <NumDimsProcessed> 7680 <SelfRepairScale> 1e-05 </RectifiedLinearComponent> 
<ComponentName> tdnnf3.batchnorm <BatchNormComponent> <Dim> 32 <BlockDim> 32 <Epsilon> 0.001 <TargetRms> 1 <TestMode> T <Count> 48986.6 <StatsMean>  [ 0.5271193 0.6103414 0.2471233 0.4176114 0.127879 0.722843 0.1467023 0.7656735 0.1776715 0.3281488 0.0002936844 0.653133 0.2986833 0.1121496 0.839504 0.2581279 0.1010644 0.2409384 0.04680871 0.257405 0.1179741 0.1352541 0.4795382 0.5060858 0.2438414 0.7174996 0.9773501 0.1064826 0.06370319 0.5652445 0.3046261 0.1313601 ]
<StatsVar>  [ 0.37761 0.6093644 0.07150587 0.2134947 0.09622754 0.3013259 0.05126309 0.5199957 0.07455644 0.2703776 5.72637e-05 0.1512129 0.1538025 0.09221491 0.4462578 0.1196099 0.08544984 0.09668619 0.02217632 0.1750222 0.08348735 0.1147904 0.1762611 0.4635908 0.09737997 0.3659392 0.5854343 0.05783225 0.02855766 0.3177198 0.1037085 0.07016173 ]
</BatchNormComponent> 
<ComponentName> tdnnf3.dropout <GeneralDropoutComponent> <Dim> 32 <BlockDim> 32 <TimePeriod> 0 <DropoutProportion> 0 <TestMode> <Continuous> </GeneralDropoutComponent> 
<ComponentName> tdnnf3.noop <NoOpComponent> <Dim> 32 <BackpropScale> 1 </NoOpComponent> 
<ComponentName> tdnnf4.linear <TdnnComponent> <MaxChange> 0.75 <L2Regularize> 0.01 <LearningRate> 0.0004997985 <TimeOffsets> [ -1 0 ]
<LinearParams>  [
  0.007671203 0.04501047 0.00695898 0.04717979 -0.002860964 -0.1325624 0.1503277 -0.0869149 -0.07257311 0.02586124 0.07585149 -0.1247387 0.03420579 0.06224904 0.09897593 0.02270784 0.06059175 -0.09403875 0.02196245 0.0942373 0.01891434 -0.0342861 0.05048626 -0.101782 0.02231586 0.1995794 0.06632148 0.007938182 0.1087229 -0.05634843 0.09383383 -0.1256686 -0.05103013 -0.03733754 0.01345127 0.005739289 -0.08587328 -0.03930269 0.07250231 -0.06536735 0.1364366 -0.06964317 0.1122813 -0.0588255 -0.05794162 0.02883214 -0.03409398 -0.03686034 -0.01466842 -0.005987179 0.1337348 -0.093667 0.1452709 0.04152497 -0.136195 0.1695611 0.06591155 0.04041881 0.05039228 0.06338344 -0.08754463 -0.175494 -0.03763109 0.005659142 
  0.04667111 -0.1397675 -0.07058324 0.005502936 -0.07965443 0.02661713 0.007577387 0.01744651 -0.05520493 0.07624967 -0.07866696 -0.03959145 -0.1204496 -0.0255799 0.05317114 0.03509177 0.006330364 0.131303 0.2206708 0.08260282 0.1572253 0.1514231 0.04649011 0.03948453 0.04362986 0.06425036 -0.07332838 0.0532506 -0.03681408 0.04650975 -0.009380199 0.09305043 0.2693657 -0.1981125 0.1027515 -0.0256643 0.04095849 0.002900896 0.04720675 -0.05989439 -0.02280584 0.1713205 -0.04361286 -0.05622565 0.03808267 -0.01481407 0.07674138 -0.006888213 0.03796328 -0.03701979 0.08970143 -0.02843523 0.05372738 0.1141283 0.02290614 0.06884828 0.05680959 -0.02502473 0.01551083 -0.05632948 0.0383409 -0.02981517 -0.006067258 0.02390832 
  0.1948631 -0.01596823 0.001781083 0.004609474 -0.07258843 0.1532499 0.1492533 -0.008937329 0.0275964 0.02723297 0.08188102 0.08569671 0.009130893 0.05891142 -0.1285316 0.07043215 0.06489283 0.07658827 -0.01029083 -0.05948539 -0.07287207 0.1142508 0.0001066698 0.07777416 -0.02649887 -0.09849492 0.01657766 -0.02796982 0.00162379 0.02417933 0.1474549 -0.02995148 -0.02924695 0.1111735 -0.02642949 -0.04556037 -0.110188 0.05888926 -0.05258054 -0.1005985 0.0317714 0.05015425 -0.1030135 0.01524447 -0.1338335 -0.19576 0.001108354 0.1393636 0.05422517 0.08551571 -0.02488106 0.05813639 0.01304729 0.1799216 -0.07973325 0.1427309 -0.1131 -0.01992846 -0.03537806 0.008865577 -0.009691449 -0.1137046 0.03135784 0.01162988 
  0.0485819 -0.04341163 -0.007795081 -0.1363616 0.004092044 -0.1554152 0.1761213 0.05536151 -0.03986479 0.05078354 -0.1886916 -0.02478888 -0.02318173 0.001467067 0.06656671 -0.04494762 -0.07823333 0.0008610982 -0.1568668 -0.06223139 0.009750541 0.08831894 0.102618 0.05109832 -0.02478946 -0.09463044 0.08673119 0.01137583 0.09946182 0.007624719 -0.01120896 -0.1168351 -0.05665059 -0.1167545 0.1270643 -0.07737957 -0.06042821 0.0248664 0.1413241 0.08625447 0.04080153 -0.03189441 -0.09704952 -0.02763564 -0.07678387 0.05811661 0.01369855 0.05524399 -0.03507403 0.05128948 -0.1807263 0.1068695 0.1514709 0.03797783 0.04260699 -0.08625068 0.109175 0.01538023 -0.1220775 -0.003413023 0.04677542 0.04383752 0.06632955 -0.01555312 
  0.1647585 0.07264353 -0.05455803 0.02133157 -0.06857829 -0.07339048 -0.004575714 0.0699512 -0.003704655 0.03623354 0.05874299 0.003225926 0.09991831 0.1109023 -0.03001146 0.0784043 -0.05823966 -0.04518665 0.08763358 -0.005550163 0.1901609 -0.1626719 0.06598487 0.03594847 0.02515306 -0.2084193 -0.005508943 -0.02983669 -0.07470343 -0.03680834 0.008779692 -0.1457907 0.101076 -0.03100505 -0.03057741 -0.1360201 -0.09962767 -0.1804477 -0.03373018 0.04965909 0.01429719 -0.02025599 0.046013 0.1024898 -0.05296388 0.1109305 -0.03747652 0.02891107 0.1433047 -0.1242014 0.03781772 -0.01498944 -0.00516665 -0.05641321 0.1796784 -0.0150626 -0.07180281 -0.02163661 0.02214142 0.03476045 -0.0141982 -0.04946034 0.00184403 -0.1054671 
  0.05685797 -0.1055777 0.02136312 -0.1559814 -0.1164536 0.007288118 0.05417546 0.02857468 0.0628468 -0.04504542 0.016656 0.06719264 0.01161892 0.02332189 0.05370538 -0.01149042 0.2336285 -0.1037482 0.09712186 -0.05401157 0.01970939 0.04316386 0.07200991 0.05637634 0.0926005 0.08687065 0.04558892 -0.1245868 0.07758491 0.004376993 -0.0003234842 0.05330367 -0.04024674 0.1621363 0.01415283 -0.03716929 -0.08549204 0.01060703 0.1014704 -0.05695764 -0.05688284 0.004523925 -0.1235303 0.04559013 0.002709063 0.000737794 -0.04042466 -0.06534699 0.100697 0.02997504 0.1391013 0.006126513 -0.01019245 -0.1045421 -0.002740386 -0.1402666 0.1214233 0.05354407 0.09794985 -0.005014313 0.02582414 0.1423985 -0.0858627 -0.2043025 
  -0.08211602 -0.06121176 0.1189131 0.07365574 -0.1056144 0.09464827 -0.02607419 0.01852887 -0.01585484 0.1662409 0.01501331 -0.2015106 0.08245345 0.0917047 0.07466532 -0.0974282 -0.08610481 -0.1185915 -0.04361286 0.05974573 -0.0337693 -0.1066793 -0.07343666 0.05218288 -0.026645 -0.06698371 -0.07752161 0.04523618 0.09801307 0.1046955 -0.1167488 0.05044586 -0.07030345 0.03663116 0.1308097 -0.07659042 -0.1304136 0.03295786 -0.04548316 0.08946632 0.004874551 0.1244072 -0.08355495 -0.0634773 -0.09363237 -0.02654313 -0.05858127 -0.04367082 0.08574024 -0.07095348 -0.03025693 -0.001243927 -0.03356093 0.06798098 -0.1090064 0.0462837 0.007470757 -0.1109438 0.01892823 -0.08602853 -0.1105875 0.09627367 -0.1365497 -0.02104553 
  0.05842057 0.01216889 0.04382784 -0.1417492 -0.2109737 0.012391 -0.08695985 0.05656795 -0.04418368 0.06658535 -0.08208996 -0.09601654 0.003770611 0.02729405 -0.04582435 -0.03389386 -0.07343457 0.01410941 -0.0906004 0.03547535 -0.1034764 0.03133154 -0.02544582 -0.0009924489 0.1150559 0.1102145 -0.009755042 0.002270644 0.04022397 -0.1391207 -0.1199656 0.1431785 0.08168768 0.0369967 -0.09348249 -0.01322009 0.04610742 -0.1632666 0.009049086 -0.03199957 -0.1350595 0.09129876 0.08457587 0.01915186 -0.1569331 -0.01968306 -0.162166 -0.00234958 -0.02886037 0.1011493 -0.02059227 0.00344125 0.05610192 0.01220733 0.001497209 -0.08379912 -0.09474725 0.131126 -0.02620988 0.1588281 -0.04523241 -0.11907 0.04452933 0.04976292 ]
<BiasParams>  [ ]
<OrthonormalConstraint> -1 <UseNaturalGradient> T <NumSamplesHistory> 2000 <AlphaInOut> 4 4 <RankInOut> 20 4 </TdnnComponent> 
<ComponentName> tdnnf4.affine <TdnnComponent> <MaxChange> 0.75 <L2Regularize> 0.01 <LearningRate> 0.0004997985 <TimeOffsets> [ 0 1 ]
<LinearParams>  [
  0.1774219 0.02499044 0.02467984 0.2528712 0.1872364 0.04397456 0.01389311 0.1276259 -0.002272023 -0.07553977 -0.02381671 -0.1849734 0.166141 0.06952054 0.06991158 0.1446887 
  0.0647354 0.1465842 -0.2822616 -0.1194589 0.118635 -0.3460678 -0.03841008 0.08272867 0.003059234 -0.1506681 -0.08151127 -0.1259922 0.1057955 -0.04434191 -0.006018521 -0.02276146 
  -0.2112846 0.01274335 -0.1223112 -0.1634716 -0.198682 -0.08832233 -0.2649948 0.0006863429 -0.1673453 -0.06710544 -0.174513 0.1047325 0.1972106 0.0818987 -0.01889509 -0.05660601 
  0.02408818 -0.1486298 -0.1275192 0.05337247 -0.01998707 0.08769495 -0.1494482 0.1333523 0.08813407 -0.1892269 0.004522047 -0.05664936 -0.05485662 -0.07915722 0.0292954 0.007063 
  -0.07591244 0.0162372 -0.1055537 -0.1140805 0.1701778 -0.2496947 0.1116779 0.07189871 0.0746185 -0.123018 -0.02663072 0.1240485 0.2825471 -0.06552323 0.1930546 -0.05365514 
  0.1362569 0.2562537 -0.009190652 -0.1507051 -0.04717583 0.02072921 -0.1764724 -0.08577322 -0.09337137 0.07947684 0.04968804 0.02461814 0.1212001 0.2274436 -0.2126949 0.0212939 
  -0.04880959 0.1309257 0.05465088 -0.2479739 0.2023048 -0.09857728 -0.06036378 0.001480842 0.1472228 -0.1083365 0.08562844 -0.2050394 -0.2191572 0.09336913 -0.01046098 0.04132424 
  -0.261322 -0.07330264 0.1109291 -0.1858557 0.09221231 0.04910833 0.2277243 0.2213887 0.08089226 -0.1712271 -0.1814987 0.1399463 0.2173763 -0.04665694 -0.1019372 0.05266761 
  0.1862193 0.1482372 -0.08907963 0.1439878 0.1526539 0.06206699 -0.2850538 -0.2432987 -0.1284816 -0.003459264 0.164345 0.05517433 0.2254062 -0.2530483 0.1050001 0.1167421 
  -0.009360182 -0.1080304 -0.05507849 -0.2099395 -0.199435 -0.06054841 0.07926425 -0.1010213 -0.1644159 -0.06505809 -0.04440647 0.09465795 0.07005437 0.1620838 -0.1719074 -0.1693461 
  -0.09149322 0.1578228 0.06667152 -0.1892383 -0.1332708 0.2327181 0.04486834 0.1018164 0.1427743 0.1254672 -0.05028691 0.05168061 0.3005161 0.006033417 -0.107726 -0.1286839 
  -0.04860048 -0.1201968 -0.1775517 0.04346195 -0.01843369 0.1335344 0.4754178 -0.1747498 -0.03959385 -0.08778553 0.1354005 -0.08802144 -0.1016455 0.1833817 0.1411942 0.01583761 
  0.09108583 -0.07040443 -0.0430472 0.04781871 0.2298067 0.06401494 0.2595629 -0.03788736 -0.08505476 -0.03202715 -0.02168686 -0.04234651 0.04855496 0.1182056 0.102368 -0.1155922 
  -0.3275783 -0.0251439 0.1478688 0.1245542 -0.1606243 0.0575851 0.01400144 0.2353193 0.2418766 -0.04133159 0.07269043 -0.2114166 -0.0397203 0.04462133 -0.2031938 0.1975341 
  -0.1614146 0.01750243 0.09135199 0.1147858 0.009512422 0.004957415 0.04353192 -0.09054669 -0.02191784 -0.006221058 -0.24982 0.02170028 0.07862322 0.07891092 0.2046601 0.1019915 
  -0.0258869 0.195178 0.1218406 -0.05669248 0.1884771 -0.08198175 0.2132433 -0.03822433 -0.02832035 -0.002717195 -0.06656054 0.2085378 0.2975937 0.2473561 0.01212443 -0.1799047 
  0.07123965 -0.06201509 0.01096455 -0.2999596 0.01479357 0.2172275 -0.03541322 -0.007164505 0.02793481 -0.07475188 0.01083821 -0.09904016 -0.01865825 0.04840499 -0.03348904 0.2022911 
  -0.05684389 -0.1807524 -0.08129249 -0.0592812 -0.005020389 -0.1073403 0.1540467 -0.08760229 -0.07108311 -0.117452 0.1487731 0.03751267 -0.06726719 0.07670425 0.09731835 -0.07105903 
  -0.1255941 -0.09810489 -0.02192546 0.002796287 0.2126519 -0.02576143 -0.1039266 0.04910471 0.2432768 -0.3164775 0.07689765 -0.05375543 -0.001138771 0.1485383 0.1137506 -0.1748259 
  0.1553335 0.09544226 0.1854669 -0.2756475 -0.1506873 -0.04200397 -0.02753852 0.1065234 0.04125765 -0.08522437 0.1288715 0.2080129 -0.04668666 -0.1287069 0.04030243 -0.09428247 
  0.01594502 -0.21775 -0.1523651 -0.2966687 0.1776548 -0.02765305 0.07852497 -0.09873863 0.05602135 0.1677531 0.2011377 0.06404578 -0.1614398 -0.004313518 -0.1035235 -0.09030887 
  0.2375144 0.1869635 0.01634217 0.02772759 -0.08863138 -0.06622689 0.1971297 0.02949659 -0.1033478 0.1089418 -0.06765861 0.0160394 -0.1575799 0.1114372 0.05523732 0.2180172 
  -0.03142406 -0.1035311 -0.0228833 -0.09281803 0.1606042 0.1271611 -0.0808771 0.01655463 0.02504376 0.09126406 -0.2615767 0.2989486 0.03452452 -0.1335073 0.0497553 -0.04552803 
  0.304332 -0.02309463 0.06558167 -0.0356647 -0.09212645 -0.1526382 0.08679233 0.3252517 -0.1009667 -0.3266071 0.06502572 0.1045853 -0.1745327 -0.2052128 0.00078951 0.1722596 
  -0.151415 -0.05858484 -0.08040532 -0.06311276 0.005956889 -0.2099567 0.04439189 -0.03268616 -0.06813633 -0.187328 0.1774038 -0.009131104 -0.3120852 0.2356805 0.02906343 0.02888318 
  -0.1869605 -0.09708306 0.0248747 -0.0110517 -0.09601764 -0.1301506 0.01197033 0.1262543 -0.0561629 0.1129677 0.09737183 -0.0582154 -0.01045307 -0.253151 -0.08499631 -0.0207912 
  -0.1099728 -0.3338799 0.02842943 0.1061564 0.0998628 -0.1065922 -0.02956069 -0.1632764 0.06249291 -0.001943777 -0.1077503 0.05263853 0.1216756 0.1273404 0.01166315 -0.09875806 
  0.09422448 0.01605976 -0.0776163 -0.08590697 -0.2995028 -0.001198299 0.08500873 -0.1796984 0.02130767 0.08705983 0.1813774 -0.05744044 0.08057141 0.1258187 0.04002247 0.02131235 
  0.07146189 0.08470855 -0.07255106 0.222265 0.09148508 -0.02782499 0.1654938 0.2147149 0.08791068 0.1182445 0.0187216 0.01736876 -0.03843419 0.15761 -0.1845586 0.1855612 
  0.1555558 0.0508457 0.05586304 -0.1317983 -0.004627643 0.2159966 0.03630047 0.318469 0.1192053 0.01261184 0.08071911 -0.02593653 0.0987612 -0.002763888 -0.1305953 0.347187 
  -0.2702255 0.1568137 -0.005376767 0.01716163 -0.02475451 -0.1450855 -0.005213184 -0.03677606 -0.1231456 0.2148835 0.07603497 -0.09370566 -0.05872361 -0.14606 0.087187 0.1484703 
  0.06517359 0.009001895 0.2295763 -0.09894905 -0.366463 -0.08208549 0.06816008 0.178918 0.1488988 0.002824393 0.04138179 0.1904373 -0.01334842 -0.2459553 -0.1026358 0.1458398 ]
<BiasParams>  [ 0.3966263 0.5350528 -0.7024429 0.08503003 -0.04528238 -0.1468693 -0.4215294 0.4193434 -0.3941864 -0.4658791 0.8676262 -0.1888302 -0.4977193 0.4514603 0.7195316 -0.08827789 0.8650688 0.2597821 0.411167 -0.05531716 0.4576135 -0.320013 0.02161488 0.3534403 0.06542766 0.7115212 0.1432544 1.166405 1.043688 -0.3170098 -0.04639396 -0.8661321 ]
<OrthonormalConstraint> 0 <UseNaturalGradient> T <NumSamplesHistory> 2000 <AlphaInOut> 4 4 <RankInOut> 8 16 </TdnnComponent> 
<ComponentName> tdnnf4.relu <RectifiedLinearComponent> <Dim> 32 <ValueAvg>  [ 0.6309058 0.6943228 0.0213308 0.3271742 0.4205782 0.2128986 0.1658624 0.5961708 0.3345091 0.1770586 1.025575 0.2819854 0.107768 0.7092089 0.8393715 0.6006151 1.026878 0.5023718 0.6619296 0.295231 0.586109 0.1430874 0.3673045 0.6838177 0.4453751 0.8664643 0.4815229 1.369728 1.29117 0.2504337 0.3384007 0.1297585 ]
<DerivAvg>  [ 0.6656648 0.8455007 0.05748137 0.5373158 0.4519912 0.326919 0.3331725 0.7848837 0.3862822 0.2802096 0.973662 0.373874 0.2058494 0.7471746 0.9184059 0.4691635 0.8872982 0.6254557 0.7330223 0.489557 0.7462665 0.223872 0.4830089 0.6832261 0.5057033 0.9239858 0.67026 0.9941002 0.85199 0.3382657 0.4186593 0.1574405 ]
<Count> 899648 <OderivRms>  [ 0.06023864 0.04831667 0.1787548 0.07812467 0.03589626 0.05404466 0.056551 0.05564998 0.03529697 0.05018103 0.03367556 0.04860834 0.09279276 0.02705312 0.04039659 0.02344002 0.0190433 0.04269396 0.02507648 0.0537275 0.03886659 0.08789915 0.0377597 0.02583187 0.03255269 0.04957132 0.04130081 0.03027401 0.02878673 0.05254762 0.05928019 0.05966003 ]
<OderivCount> 1312960 <NumDimsSelfRepaired> 478 <NumDimsProcessed> 7648 <SelfRepairScale> 1e-05 </RectifiedLinearComponent> 
<ComponentName> tdnnf4.batchnorm <BatchNormComponent> <Dim> 32 <BlockDim> 32 <Epsilon> 0.001 <TargetRms> 1 <TestMode> T <Count> 16328.87 <StatsMean>  [ 0.5526501 0.6155329 0.02094125 0.2905055 0.3636208 0.2447232 0.1507458 0.5294376 0.3018333 0.1562178 0.8711146 0.2938131 0.08781144 0.624591 0.743812 0.4770299 0.9096637 0.4543265 0.5818698 0.2433939 0.4856541 0.1749583 0.3304431 0.5565329 0.3820859 0.7459272 0.455707 1.17057 1.12496 0.2446321 0.2852386 0.136978 ]
<StatsVar>  [ 0.3173102 0.2803397 0.01293402 0.1251069 0.3270217 0.1758066 0.07490431 0.1980912 0.2880818 0.1003649 0.274839 0.2302223 0.06054457 0.3888373 0.2218353 0.5390654 0.4659532 0.2485874 0.2308935 0.1615425 0.2159114 0.1671649 0.2623875 0.2680119 0.2604807 0.2054811 0.305542 0.4049631 0.6786394 0.2584911 0.2464505 0.1537328 ]
</BatchNormComponent> 
<ComponentName> tdnnf4.dropout <GeneralDropoutComponent> <Dim> 32 <BlockDim> 32 <TimePeriod> 0 <DropoutProportion> 0 <TestMode> <Continuous> </GeneralDropoutComponent> 
<ComponentName> tdnnf4.noop <NoOpComponent> <Dim> 32 <BackpropScale> 1 </NoOpComponent> 
<ComponentName> tdnnf5.linear <TdnnComponent> <MaxChange> 0.75 <L2Regularize> 0.01 <LearningRate> 0.0004997985 <TimeOffsets> [ 0 ]
<LinearParams>  [
  0.1707881 -0.148112 -0.006859162 -0.05610801 -0.1386545 -0.06903636 -0.008251995 0.002234949 0.07633302 -0.1148309 -0.03854087 -0.03604985 -0.009853923 -0.03017746 0.1169522 -0.05889734 -0.06191595 0.2825105 0.05205468 -0.1748868 -0.2020983 -0.0203246 -0.06139063 -0.04707015 0.07898986 -0.1959965 -0.06340818 0.02909242 -0.01348391 0.04083546 0.09803045 -0.1767581 
  0.1080098 -0.05501332 -0.06297903 -0.01194513 0.03338694 -0.08363084 0.130222 -0.1111438 -0.05037213 0.05725596 -0.01806123 -0.1718541 0.1710805 -0.1379341 0.09165587 -0.08221788 -0.1527354 -0.07191887 -0.02850846 0.1873966 0.0585261 -0.06243722 0.218051 0.07593108 0.007647586 -0.1666479 0.1502042 -0.01847504 0.02523452 0.1172852 -0.1184503 -0.07382606 
  0.2739791 0.1462918 0.07085107 0.1018326 -0.07250389 0.2219737 0.09754982 0.08169152 -0.07917244 -0.1194575 0.08481773 -0.186999 -0.001859024 -0.0004000911 0.05356902 0.09253547 0.00880286 -0.005326218 -0.00855525 -0.07304284 0.1212942 0.08415206 -0.07157152 -0.02910155 -0.1119079 0.04346352 0.01538812 -0.1727504 0.1650266 0.05293359 -0.003639134 -0.03871825 
  0.06428641 0.02091388 0.09060369 -0.1466812 -0.07356764 -0.02470962 0.1270195 0.1791357 0.1134557 0.01020697 -0.1049847 0.1941398 -0.07134248 -0.07915729 0.2469651 -0.005761158 -0.07656533 -0.09189133 0.08850006 0.09822585 -0.01718878 -0.06245491 0.03382913 -0.07546139 -0.147323 -0.05528135 0.03511605 -0.1238647 -0.02009821 -0.1042306 0.1310704 0.1814715 
  0.04558984 -0.1651659 -0.06631102 -0.04664263 -0.04704047 0.115548 -0.0479538 -0.204114 -0.07758647 0.1492665 0.1806176 0.03454854 -0.1651898 -0.03711482 -0.06186815 -0.1572127 0.07004186 -0.001611511 -0.02762566 0.043347 -0.06184856 0.2267349 0.1116751 -0.1004516 -0.09356255 -0.1146495 -0.03745079 -0.1079889 0.05675717 -0.02901644 0.09773766 0.1163509 
  -0.1184521 0.1292173 -0.09319086 -0.0290822 0.02407845 -0.02363632 -0.0007996759 -0.1297955 0.08744493 0.07202186 -0.06661996 -0.009338129 -0.001061793 -0.1648236 -0.03658867 -0.07265598 0.1079636 0.04115088 0.04147354 -0.09474465 0.09174341 -0.1446034 0.03205254 0.1208464 -0.1416102 0.04674374 -0.1132119 -0.3022999 -0.02461164 -0.01427344 0.124891 -0.211412 
  0.1912897 0.02664042 -0.1016046 -0.09403721 0.1119782 0.03761399 -0.0737394 0.01845242 0.1717655 0.1425165 -0.09467971 0.009055833 0.05433002 0.1103114 -0.06315085 0.1435714 0.05441995 0.1116095 -0.1721635 0.06213193 -0.08327653 -0.01631035 0.1016826 0.08945273 -0.08315961 0.0819951 0.04403064 0.0776867 0.09750234 0.1881682 0.2101892 0.06559965 
  -0.00841854 0.2152362 -0.05327192 0.09161726 -0.1487269 0.1120941 -0.0268228 -0.1191216 -0.05229594 -0.07298241 -0.02918974 0.1692313 0.05884443 0.03070026 0.05630105 -0.2703957 -0.0716246 0.08229163 0.08136661 -0.07768478 0.03764102 -0.08156984 0.1160442 -0.07224331 0.03328078 0.1218253 0.08366005 0.12009 0.0335536 0.1798534 0.06487127 0.1116924 ]
<BiasParams>  [ ]
<OrthonormalConstraint> -1 <UseNaturalGradient> T <NumSamplesHistory> 2000 <AlphaInOut> 4 4 <RankInOut> 16 4 </TdnnComponent> 
<ComponentName> tdnnf5.affine <TdnnComponent> <MaxChange> 0.75 <L2Regularize> 0.01 <LearningRate> 0.0004997985 <TimeOffsets> [ 0 ]
<LinearParams>  [
  0.09591713 0.4989939 -0.04905817 0.03339647 0.05003316 0.5163383 0.09022189 -0.02576735 
  -0.06822415 -0.02484454 0.0385318 -0.1515185 -0.3100873 0.1622197 -0.2449506 0.1103704 
  -0.1407075 0.1439835 0.1116009 -0.2030993 0.2580663 -0.1896065 -0.1901006 -0.02227066 
  0.1994122 -0.01626126 -0.3226811 0.04509522 -0.3181124 -0.0892313 -0.2233645 0.1415686 
  -0.1149753 0.1952642 -0.0814553 -0.2214006 0.06797703 0.1090406 -0.146976 0.02310541 
  0.04591586 -0.133807 -0.1276369 -0.07223958 -0.09650468 -0.03267428 -0.1289648 0.01231624 
  0.1077798 -0.5551473 -0.1446095 -0.1583992 -0.09227201 0.03367096 -0.2637892 -0.09693066 
  -0.04351827 -0.2302969 -0.3353184 -0.06428026 -0.2742853 0.2501397 -0.131513 -0.159418 
  -0.2551512 -0.1330896 -0.04806945 -0.4319741 0.04079336 0.02377199 -0.1069446 -0.274754 
  0.005709892 0.2319748 -0.07848105 0.04748704 -0.268716 -0.1320443 0.1625296 0.01559988 
  0.009297747 -0.125545 -0.2734468 0.01641849 0.07354698 -0.3598168 -0.6287209 0.0139241 
  -0.412485 0.2850583 0.2273683 -0.2688514 -0.2175724 0.1981431 -0.1309775 0.1206278 
  -0.4531748 0.0607208 0.3575994 -0.0458563 -0.1693818 -0.171013 -0.1848385 -0.2019381 
  -0.1456334 0.1922423 0.0291199 -0.09267514 0.1871305 -0.1121211 -0.01104164 -0.05936984 
  -0.09608268 0.04503134 -0.2796391 -0.253718 0.2906716 0.02303915 0.120472 -0.09073419 
  -0.3033236 0.3690612 0.02167146 -0.1250163 -0.02624611 -0.2776488 0.06013614 -0.1268933 
  -0.1710567 0.6151745 -0.3487194 0.3201741 0.05695663 0.05589266 0.1404624 -0.4977182 
  0.1275866 0.106518 -0.1849662 -0.1496844 -0.2915344 0.1059885 -0.1057648 -0.1284284 
  0.1602031 -0.03722209 -0.03042578 -0.1888032 0.6009989 0.1630983 0.4638082 -0.07804162 
  -0.1508634 0.1327608 -0.02735532 -0.4792989 0.2632497 0.2785352 0.09816474 0.1961661 
  -0.1380116 -0.2076853 -0.3183187 0.01409993 -0.4444706 -0.2360961 0.1219441 0.02706946 
  -0.01380112 0.13197 0.2303577 0.09648672 -0.09658256 -0.1643201 0.1721698 -0.001966044 
  -0.1763391 -0.2934773 0.2082465 0.1222171 0.08751422 0.2900655 -0.4623931 0.2257889 
  -0.1261255 -0.1002736 -0.00909133 -0.03170086 0.1749993 -0.4080932 0.2465042 -0.08572233 
  -0.3144832 -0.3373457 -0.08536956 0.5495289 0.1191884 0.05054415 0.02438521 -0.359682 
  -0.139288 0.3464217 0.1048504 0.2035117 0.03520241 -0.04608781 0.09982401 -0.3515466 
  -0.07516164 0.1603403 -0.1622028 0.0863692 -0.088462 0.1121144 -0.2342681 0.142556 
  0.186116 -0.04554819 0.0692474 -0.01310093 -0.2995291 0.09482142 -0.004607589 0.2375184 
  0.2666602 -0.1689098 -0.002212975 0.01299229 -0.09307503 0.06269244 0.05980375 -0.0863433 
  -0.09310225 0.05259348 0.08321408 0.06315517 0.1770704 -0.325454 0.4878084 -0.07769249 
  -0.2222073 -0.05292181 0.2405713 -0.1635281 0.1202324 -0.1957666 -0.02213594 -0.07991042 
  -0.2126267 -0.2257649 0.26354 -0.1359683 -0.01715072 0.2784346 -0.2394481 -0.2165731 ]
<BiasParams>  [ 0.824106 -0.4664185 -0.04137559 0.07658748 -0.1252581 0.4213207 -0.06977051 -0.6943809 0.5892943 -0.4690128 -0.6705559 -0.671472 0.1596438 -0.7534671 -0.1314364 -0.01272012 0.1419594 0.3917812 -0.526242 0.4132268 0.5627399 -0.6117528 0.5699438 -0.7619042 -0.5445442 -0.5478548 1.00267 0.5454503 -0.7653326 -0.2199409 0.5075833 0.7298169 ]
<OrthonormalConstraint> 0 <UseNaturalGradient> T <NumSamplesHistory> 2000 <AlphaInOut> 4 4 <RankInOut> 4 16 </TdnnComponent> 
<ComponentName> tdnnf5.relu <RectifiedLinearComponent> <Dim> 32 <ValueAvg>  [ 1.018432 0.2519482 0.2360999 0.5388179 0.08839478 0.5308452 0.5023305 0.08115213 0.7553623 0.144164 0.1713741 0.1519166 0.3335393 0.02466992 0.2249422 0.3432069 0.7449989 0.6228217 0.4296499 0.6435905 0.7638257 0.09313481 0.9277894 0.1705965 0.07296281 0.2304112 1.196205 0.7548532 4.512948e-05 0.5364619 0.5902174 0.8869475 ]
<DerivAvg>  [ 0.8547999 0.3396709 0.4016812 0.5505694 0.3212712 0.8050647 0.4819809 0.2304655 0.8094976 0.1753576 0.3173142 0.176098 0.5443631 0.06528757 0.3102518 0.4566216 0.5212509 0.7885351 0.3181032 0.6707747 0.7194104 0.1985919 0.6549487 0.1577124 0.1330243 0.3079648 0.9017169 0.8430594 0.0006506814 0.451307 0.8648583 0.919921 ]
<Count> 925184 <OderivRms>  [ 0.03963754 0.07649288 0.06446462 0.06228941 0.1551228 0.049116 0.0342882 0.1753642 0.03535129 0.03634361 0.06642622 0.04778353 0.05172822 0.1499017 0.04402384 0.03147128 0.01775639 0.07310361 0.01908364 0.04344097 0.03171998 0.07884122 0.0146414 0.03853804 0.0609039 0.06275734 0.04855165 0.02693522 0.6844157 0.02865699 0.05757438 0.04379623 ]
<OderivCount> 1305920 <NumDimsSelfRepaired> 248 <NumDimsProcessed> 7616 <SelfRepairScale> 1e-05 </RectifiedLinearComponent> 
<ComponentName> tdnnf5.batchnorm <BatchNormComponent> <Dim> 32 <BlockDim> 32 <Epsilon> 0.001 <TargetRms> 1 <TestMode> T <Count> 16328.87 <StatsMean>  [ 0.890821 0.2022028 0.214502 0.4811974 0.0896119 0.4762485 0.4528298 0.1337591 0.6961458 0.1325728 0.1238732 0.1274039 0.3064789 0.03419481 0.2292533 0.2956953 0.6114218 0.5614897 0.391454 0.5784222 0.6751172 0.08890166 0.7334276 0.1521961 0.09101346 0.2136025 1.034893 0.67099 2.961369e-10 0.4302692 0.5320005 0.7680501 ]
<StatsVar>  [ 0.5087212 0.111405 0.1772049 0.32302 0.03328568 0.192662 0.362725 0.05352656 0.4350616 0.1437386 0.06983893 0.1421213 0.2051847 0.0183006 0.2181379 0.2404714 0.7607582 0.1675985 0.5983562 0.4127708 0.4057661 0.0791854 0.534354 0.2032433 0.0672805 0.2013664 0.3309768 0.308726 2.244311e-11 0.4926524 0.4074814 0.2599656 ]
</BatchNormComponent> 
<ComponentName> tdnnf5.dropout <GeneralDropoutComponent> <Dim> 32 <BlockDim> 32 <TimePeriod> 0 <DropoutProportion> 0 <TestMode> <Continuous> </GeneralDropoutComponent> 
<ComponentName> tdnnf5.noop <NoOpComponent> <Dim> 32 <BackpropScale> 1 </NoOpComponent> 
<ComponentName> tdnnf6.linear <TdnnComponent> <MaxChange> 0.75 <L2Regularize> 0.01 <LearningRate> 0.0004997985 <TimeOffsets> [ -3 0 ]
<LinearParams>  [
  -0.08762065 0.1076765 0.1214482 0.2043587 -0.02154343 0.06537592 0.144592 0.1220688 0.008578695 -0.1476199 0.03250294 0.2036607 -0.05756308 -0.1129364 -0.09325147 0.003884518 0.0216909 0.08670223 0.08353624 0.08257543 -0.08551834 -0.01960695 -0.01979149 0.1021782 0.1281863 -0.09267201 0.1178135 0.08761105 0.004085242 -0.07026145 -0.03193671 -0.07624961 -0.0749011 -0.05013653 0.005619245 -0.03966376 -0.06098806 0.04321014 0.07261162 0.05654824 0.01853376 -0.1400352 -0.06506247 -0.06213454 0.08211347 -0.04607258 -0.05916277 0.09716034 -0.009198171 -0.100503 -0.07020175 -0.08506427 0.08585351 0.1114689 0.02561912 0.1252812 -0.0999357 0.09968352 -0.09446628 0.008623119 -0.02269706 0.06520948 -0.05756697 0.06053649 
  0.1792485 -0.1755925 0.09338193 -0.08489966 -0.1616675 -0.01619016 0.01665181 -0.03687683 -0.0771089 -0.07004302 0.1053065 0.06687918 -0.08658701 0.02420327 0.01265123 -0.002298244 0.05563537 -0.02809735 0.0192472 -0.1062567 -0.1967583 0.08526506 0.07003049 -0.08880722 0.00150109 0.09054475 -0.1536967 -0.0970178 0.0947316 0.05037206 -0.02094312 -0.1658185 0.01679675 0.1383051 0.04444175 0.1566473 -0.1593041 0.00709577 0.006852609 -0.05643075 -0.08191679 -0.06797965 -0.06815276 -0.02980799 -0.004880775 0.1005676 -0.006171404 -0.01266005 -0.05220604 0.07232547 -0.01738038 0.07264087 0.05444139 0.06527871 0.01079305 0.1118121 -0.09277359 0.1377802 0.0006106663 0.06694173 -0.05754041 -0.07716308 -0.01766852 0.07663377 
  -0.03312777 -0.03872221 0.040735 -0.0379963 -0.06003024 -0.05290325 -0.004133404 -0.01178439 0.04971145 -0.007377838 0.04321004 -0.02931457 -0.02472063 0.0682077 0.02034535 -0.05919876 -0.1660033 -0.2091573 -0.09889288 0.06053241 0.02862582 0.0668195 -0.0568082 0.06698098 -0.04212034 -0.04402571 0.01377251 0.1584578 0.05962551 -0.01881229 0.06253725 -0.05057853 -0.1280659 0.008427037 0.01840842 0.04798527 -0.05970811 -0.04230307 0.0005519176 0.2417428 0.1165212 0.08929761 0.1110057 0.07092673 -0.114377 -0.003300026 0.1123801 -0.1377969 0.2133354 0.04279532 -0.07266068 -0.06146355 0.02641042 -0.07522369 -0.05222857 0.03740092 -0.05954125 0.1567248 -0.08677656 -0.02102083 -0.1592418 0.05955287 -0.04136531 0.1272992 
  0.01270287 -0.02205853 -0.006614877 0.006927642 0.01469878 -0.06135947 -0.01781284 -0.02407734 0.007674857 -0.04501071 -0.0009708712 0.1070524 0.04753249 -0.006695153 0.07491044 0.1377818 -0.07495281 0.07191414 -0.01811608 -0.1951037 -0.01870424 -0.055475 -0.004033636 0.1383861 -0.0707873 -0.04568492 -0.03629676 -0.04465336 -0.04591795 -0.09545231 -0.03929578 -0.06156828 -0.2535517 0.1411155 -0.01005468 0.09294112 0.133734 -0.04071709 0.07197122 0.06635589 0.2188514 -0.00552622 0.01816953 -0.02039627 0.1332701 0.009768863 -0.1864645 0.001327436 -0.07886943 0.08923979 0.03212463 0.0618333 0.1585301 -0.06041893 0.01358984 -0.1259872 0.08880179 -0.06988662 0.006938293 -0.0810949 0.006950092 -0.0570031 0.09842476 0.1293289 
  -0.1261351 -0.004932158 -0.07040424 -0.1078642 0.1779231 0.07289628 0.06565907 -0.1041923 0.1132931 -0.1165517 -0.03788574 0.04867886 -0.02133068 0.03307121 -0.08606436 -0.07568936 -0.07639382 0.08264511 0.08625415 0.1322511 -0.02560423 0.009974244 -0.02535421 0.03283693 -0.1156688 0.08768787 -0.1160584 -0.06814703 0.01208757 -0.08426263 0.1017091 0.1714978 -0.09698334 0.03344183 0.04773507 0.1703515 -0.129867 -0.07906264 0.03151667 -0.02713274 0.001078344 0.0004147093 0.08412997 0.04702074 0.1345855 -0.02444249 0.1164919 0.07063574 -0.05855788 0.09950574 -0.02267789 -0.1075801 0.01214366 0.08610325 0.01370464 0.08492789 0.01456085 -0.027364 0.207008 0.0265147 -0.1247785 -0.01219664 -0.01558529 -0.08364975 
  0.104525 0.02216922 0.08043232 0.1526082 0.0930161 0.09428071 0.03302927 -0.0922281 0.1115957 -0.01221816 0.06681606 -0.1514006 -0.1471874 0.01093978 -0.06857764 0.02323448 0.1104961 -0.1378577 -0.03495513 0.1453579 -0.1035747 -0.05789377 0.03480321 -0.0786739 -0.05169776 0.04146824 0.07822739 0.006301251 0.01743446 0.09737493 -0.129455 0.03044892 -0.07502378 -0.07569017 -0.04645062 -0.0377149 0.2216801 0.05769661 -0.06785634 -0.06449202 0.05866693 0.07459072 -0.05198276 -0.04791002 0.1019604 -0.005229196 0.04910028 -0.01309629 -0.09631869 0.1722001 0.004133663 -0.1279228 0.07795426 -0.102439 0.002626162 0.05024921 0.05971897 0.137073 0.07109258 0.04707996 0.04568478 -0.08089216 0.007215816 0.1304277 
  0.01724711 0.04588927 0.04771827 0.01355997 -0.02490261 -0.09558769 -0.07156133 0.1147234 0.02317614 0.09590522 0.06346773 -0.0971654 0.08812208 -0.01498444 -0.161741 -0.05158856 -0.2995254 0.02349272 -0.04574925 -0.01394747 -0.05882253 0.02071051 0.08515631 -0.1038509 -0.1194409 -0.01044859 -0.04218138 -0.1077426 -0.03688785 -0.06961198 -0.1288161 -0.1018809 0.124216 -0.06321159 0.02236505 0.03060806 -0.05968166 0.031238 0.01414261 0.02561287 -0.05867305 0.009820773 -0.04270286 0.08400936 0.1117322 -0.008599172 -0.03974248 -0.001000706 -0.02688561 0.0638556 0.006696849 -0.1917216 0.1735376 0.0184494 0.07573476 -0.1009034 -0.01480464 -0.07928983 -0.01509744 0.03187151 0.06888246 0.1966493 -0.1411521 0.01000542 
  -0.08900874 -0.1150875 -0.2271964 0.02268287 0.1055895 -0.002403549 -0.006527278 -0.03050274 -0.001664976 0.0150352 -0.01378597 0.06999647 -0.04194908 -0.09408388 -0.06717735 -0.135634 -0.05434584 0.1341066 -0.1154379 -0.1476332 0.01926078 0.0769425 0.02743389 -0.04551688 0.02215347 -0.01157136 0.07317781 -0.050241 0.04005646 -0.119473 -0.1712716 0.01123453 -0.08632296 -0.1490888 0.09141286 -0.08088343 -0.02318931 0.04511161 -0.1633379 -0.008570185 -0.06316745 0.1071425 0.07872799 -0.03253445 -0.09746627 0.110732 0.1194174 -0.02267713 -0.171777 -0.02377504 -0.02315166 0.03392232 0.02850075 0.05951116 0.02880566 -0.02508964 -0.001610373 0.1332732 -0.09604029 -0.129104 -0.03036599 -0.08308549 0.03919326 0.07407311 ]
<BiasParams>  [ ]
<OrthonormalConstraint> -1 <UseNaturalGradient> T <NumSamplesHistory> 2000 <AlphaInOut> 4 4 <RankInOut> 20 4 </TdnnComponent> 
<ComponentName> tdnnf6.affine <TdnnComponent> <MaxChange> 0.75 <L2Regularize> 0.01 <LearningRate> 0.0004997985 <TimeOffsets> [ 0 3 ]
<LinearParams>  [
  0.01150817 -0.2147208 0.006445837 0.1781255 0.05704675 0.08875564 0.2143388 -0.2225747 -0.03164834 -0.311566 0.1336465 -0.2361257 -0.134071 -0.04730174 0.04552978 -0.05688733 
  -0.01159824 0.4431412 0.01257198 0.1787957 -0.1876403 0.02572736 -0.006019514 0.1265988 0.01489602 -0.05978687 -0.1730122 0.1148489 -0.1273351 0.01232587 -0.0002979117 0.1297782 
  0.09676623 -0.2154332 0.005350889 -0.1945455 0.3571282 0.02434678 -0.03188168 0.08553932 -0.07916692 -0.1005346 -0.08865982 -0.2444026 0.1171889 -0.1414909 0.1175554 0.03099015 
  0.2035834 -0.2388701 0.1174477 0.1677252 -0.06870468 0.09300108 0.01460829 0.1212045 0.1408982 0.08637975 0.1201659 0.04640212 0.1080913 -0.007357361 0.08947063 0.07843947 
  -0.02817377 -0.01469971 0.06139742 -0.1762267 0.01277173 -0.2895456 0.05419205 0.06042629 0.1585217 0.1111087 -0.231918 -0.2403314 -0.1272424 0.278328 0.21963 -0.08036941 
  -0.09395725 0.2591252 0.1151361 -0.2117756 0.2405468 -0.02363549 0.01845947 -0.05279889 -0.08547045 -0.1164686 -0.2195476 0.105003 -0.09244325 -0.0050424 -0.3607813 0.05837637 
  0.05583331 0.4221361 0.07464106 0.2181587 -0.2953254 -0.03976909 -0.1555099 0.1864822 0.1324497 -0.2379773 -0.2238275 -0.01791868 -0.1378526 0.1583976 -0.0006697231 -0.08143629 
  0.1765459 -0.2370433 -0.01524873 -0.2183077 -0.2243187 0.1749052 -0.01343704 0.01936657 0.0785438 0.0120717 -0.4322915 -0.05536482 -0.3116479 -0.2014293 0.03198513 -0.002561433 
  0.2007466 0.1887823 0.1588402 0.0326821 0.02138706 0.07272427 0.02916336 -0.05725899 -0.08801668 0.1511407 0.04388646 0.09051902 0.1116969 0.1480077 -0.07528364 0.1289535 
  0.05736494 0.07183727 -0.008505522 -0.08050687 0.07278252 -0.07685272 -0.2211625 -0.243293 -0.07239965 0.07038773 -0.02760078 -0.07219713 0.2388606 -0.2136654 -0.08955774 0.06535698 
  0.1797561 0.1353359 0.130533 0.01008542 -0.1320797 -0.1170548 -0.2004923 -0.09561285 -0.2067688 0.03889396 -0.1309136 0.04078817 0.1425182 0.09079923 0.1410576 0.06337079 
  -0.1156319 0.09800906 -0.007874324 0.1298465 -0.2580071 -0.1529847 0.04450515 0.149147 0.1012718 0.2994959 0.012559 0.06430504 0.09930943 -0.09172989 -0.08409553 -0.1643163 
  -0.09388246 0.1768356 -0.1680741 0.04237728 -0.07209326 -0.2580561 -0.05453019 -0.2594126 -0.1103974 0.1727744 0.1325538 -0.07179424 -0.0253989 0.167926 -0.1084834 -0.05733207 
  -0.1752582 0.1694321 -0.03271151 0.1135371 -0.09599133 -0.1584005 0.1014895 -0.0386705 -0.05229662 -0.2281104 -0.08563074 0.04756177 0.05037323 -0.04049498 -0.06234709 0.1783983 
  0.0137205 0.03673956 -0.0003329818 0.01130584 -0.2132601 -0.1237734 0.1859588 0.1280094 0.01117727 0.0199788 0.03580334 -0.1649529 0.05130147 0.3514445 -0.1584687 0.03672519 
  -0.1379116 0.4237263 -0.09303193 0.1370659 0.06911988 0.07357944 -0.1362179 -0.2018785 -0.2765255 0.1579228 -0.02396192 -0.01762735 -0.2118087 -0.2268079 -0.006200727 0.060235 
  -0.1416822 -0.1218948 -0.1373453 0.04469953 0.05579 -0.01728234 0.03633382 0.09816249 0.05361078 -0.03582388 -0.0684684 -0.04977595 0.08534791 0.01565056 -0.009313596 0.3033544 
  0.07449843 -0.06042639 -0.009305316 0.1856644 -0.2006661 0.02250478 0.1026345 0.09924673 -0.1698857 0.05235764 -0.08599997 0.09415455 -0.02158401 -0.1163917 0.07996889 0.003381231 
  -0.05846094 0.1732856 0.1275783 -0.008757217 -0.03124257 -0.07927819 0.2507234 -0.09912118 -0.1858801 -0.04963465 0.02919859 0.1023651 0.1112673 0.06463443 0.08342529 0.09197593 
  -0.3746912 0.2426689 -0.4189324 -0.1117485 -0.2708268 0.0258849 -0.3198824 0.1047918 -0.2288276 0.03764285 -0.2075525 -0.1412558 -0.1445812 -0.1289418 -0.01501925 -0.1629111 
  0.0006987982 -0.1999364 0.04878507 -0.0762876 0.01071508 -0.09831397 -0.0640414 -0.05154052 -0.08907488 -0.03685813 -0.1858265 -0.01826124 -0.280818 -0.1409426 0.02517271 0.06577698 
  -0.2133896 0.02990965 0.2096051 0.1351086 -0.1511158 -0.1676637 -0.002518561 0.235034 -0.1437252 0.05184344 0.07266417 0.1880818 0.006700165 0.01941434 0.06448052 -0.3426568 
  0.1773413 -0.06170274 0.03010422 0.1580027 0.06596471 0.05097217 0.04987022 0.1105193 0.08254033 -0.285699 -0.03841495 0.135441 0.1455636 -0.06669089 0.2290899 -0.04295805 
  -0.2728687 0.06426803 0.006514471 0.0350634 -0.0167747 -0.13305 -0.1631294 -0.1237168 0.1332495 0.1891289 0.178064 -0.1275346 0.2734509 -0.2225746 0.0978655 0.243539 
  -0.1179153 -0.04321992 0.009012173 -0.03176972 -0.08813096 -0.08842348 0.06475205 -0.06971538 -0.1912933 0.05580643 -0.1136475 0.3253399 0.001725078 0.06819665 0.1408806 -0.1632391 
  0.06584911 -0.01177335 -0.01906248 0.2165887 -0.04355891 0.05963598 -0.1119598 0.4506476 -0.3852898 -0.01266005 0.07638638 -0.008998471 0.0009064926 -0.01187622 -0.2499449 0.104535 
  -0.09360081 0.1006773 0.117461 -0.0765172 0.003992697 0.2512674 -0.01641553 -0.202227 -0.1871731 0.1107063 -0.05619784 0.03848374 0.09026825 0.1235647 0.07439478 0.003873234 
  0.01792812 0.1053174 -0.01835412 0.1553883 -0.08803747 0.2143736 0.1024142 0.215951 -0.0425971 0.01899351 -0.03988294 -0.1642324 0.09133556 -0.188614 -0.1701026 -0.07112618 
  0.1575314 -0.3346222 0.06606852 -0.08323632 0.1782803 -0.04126547 0.06225248 0.1491581 0.06745379 0.08364651 -0.120368 -0.08904685 -0.2173076 0.01605048 0.2168935 0.03319453 
  0.09018461 0.03377382 -0.04905396 0.08839244 0.2094973 0.04810521 0.008967253 0.02223729 -0.05410306 0.1853882 0.03970835 -0.0271963 0.005852977 -0.09445301 0.1288498 0.03613485 
  0.2204697 -0.2426562 -0.1181011 -0.1057393 -0.1211253 0.07309321 -0.00120867 -0.03246266 -0.09246171 0.1152524 0.04030364 -0.0249693 0.1155883 -0.09902262 -0.05657132 0.1018439 
  -0.2288756 -0.06989301 0.1118925 -0.1529884 -0.2358521 0.07174464 0.1738783 0.2920355 -0.05525821 0.08881988 -0.07749072 -0.04695988 -0.05857374 -0.03305875 0.2237121 -0.03218413 ]
<BiasParams>  [ 0.03779481 -0.4068314 -0.1916154 -0.1744939 -0.1755273 -0.9846109 0.02491704 0.6376207 0.3317804 0.2142643 0.08025955 -0.513341 0.3574174 -0.5160508 -0.3417744 -0.3186801 -0.0920039 0.3945602 0.6358391 -0.741728 -0.4696575 0.3803691 -0.3291974 0.3064241 -0.1220958 0.05027747 0.2159294 -0.3302414 -0.4770921 -1.285381 -0.06168728 -0.8500246 ]
<OrthonormalConstraint> 0 <UseNaturalGradient> T <NumSamplesHistory> 2000 <AlphaInOut> 4 4 <RankInOut> 8 16 </TdnnComponent> 
<ComponentName> tdnnf6.relu <RectifiedLinearComponent> <Dim> 32 <ValueAvg>  [ 0.453244 0.0693127 0.1977302 0.4395119 0.2117071 0.06970019 0.287399 0.9183061 0.5103154 0.3996035 0.1906802 0.1112799 0.7258688 0.03389229 0.0753518 0.4064097 0.135209 0.5273173 0.7562533 0.5997677 0.1402749 0.5808679 0.5565588 0.5608046 0.3226997 0.3948958 0.3836769 0.1067074 0.1895181 1.153523e-07 0.1057094 0.1335449 ]
<DerivAvg>  [ 0.5175481 0.1801055 0.3212841 0.388335 0.4074983 0.1017237 0.590812 0.7043978 0.635337 0.5154349 0.474287 0.2475255 0.6163549 0.1278469 0.210982 0.4849297 0.4172617 0.8053033 0.9069301 0.463273 0.3122221 0.7915292 0.3910919 0.6518135 0.437749 0.471548 0.6364085 0.2173371 0.3056968 2.22325e-06 0.344099 0.2898762 ]
<Count> 899584 <OderivRms>  [ 0.0373997 0.07446811 0.06607995 0.04987043 0.07678628 0.1061057 0.07437839 0.0299428 0.03569644 0.0201878 0.06650914 0.07466111 0.03191526 0.1462623 0.09790257 0.03579614 0.09731162 0.05952827 0.04094111 0.02849252 0.06715337 0.04617113 0.01850616 0.03146969 0.03483477 0.04786833 0.08041175 0.06803314 0.05048569 0.7509506 0.19306 0.06424857 ]
<OderivCount> 1315264 <NumDimsSelfRepaired> 245 <NumDimsProcessed> 7840 <SelfRepairScale> 1e-05 </RectifiedLinearComponent> 
<ComponentName> tdnnf6.batchnorm <BatchNormComponent> <Dim> 32 <BlockDim> 32 <Epsilon> 0.001 <TargetRms> 1 <TestMode> T <Count> 15816.87 <StatsMean>  [ 0.4152306 0.1240001 0.2167436 0.380297 0.2425625 0.05932911 0.2858652 0.821505 0.4464458 0.3560771 0.1928992 0.1114827 0.6382192 0.05116362 0.07404698 0.3588306 0.1480887 0.5137684 0.6791782 0.540548 0.1306631 0.5147115 0.4769823 0.5015333 0.2744506 0.3967224 0.3613145 0.07304993 0.1572498 2.364649e-38 0.157429 0.1067833 ]
<StatsVar>  [ 0.4286187 0.08236624 0.2102486 0.3511679 0.14074 0.05010904 0.2320866 0.7370262 0.19578 0.426768 0.06621745 0.0686003 0.4965287 0.02635211 0.03933654 0.2278009 0.06110249 0.1778961 0.2168062 0.5724633 0.07848313 0.2707156 0.5498301 0.2823141 0.2344253 0.3587593 0.2000005 0.03713917 0.1599836 1.650767e-39 0.1159229 0.04533549 ]
</BatchNormComponent> 
<ComponentName> tdnnf6.dropout <GeneralDropoutComponent> <Dim> 32 <BlockDim> 32 <TimePeriod> 0 <DropoutProportion> 0 <TestMode> <Continuous> </GeneralDropoutComponent> 
<ComponentName> tdnnf6.noop <NoOpComponent> <Dim> 32 <BackpropScale> 1 </NoOpComponent> 
<ComponentName> tdnnf7.linear <TdnnComponent> <MaxChange> 0.75 <L2Regularize> 0.01 <LearningRate> 0.0004997985 <TimeOffsets> [ -3 0 ]
<LinearParams>  [
  0.08056069 0.07218942 0.1444206 -0.09195464 0.01581505 0.09811001 0.05990975 0.008905881 0.02271311 -0.02563607 0.1728981 0.03028041 0.0840417 -0.06634124 0.03893781 0.09643848 0.1266717 -0.05816587 0.1144904 -0.06473687 0.199606 -0.0315395 0.07259934 0.04089982 -0.1272449 -0.1916905 -0.02285686 -0.07173593 -0.08141146 -0.1188296 0.02152333 -0.01716079 0.1781875 0.02880218 0.06156758 -0.03848365 -0.06477031 -0.1584858 0.1401881 -0.0789462 0.07937294 0.04766713 0.1151385 -0.1142441 -0.02366297 0.04580856 0.09218346 -0.07973808 -0.02337764 0.1128912 -0.1738102 -0.02502109 0.05051444 0.01140611 0.04418933 -0.1255132 -0.07608983 -0.0824765 0.0578768 -0.03703052 0.09437729 -0.06562602 0.1959951 0.001091721 
  0.061084 -0.1402716 0.03088014 -0.01369529 0.2362939 -0.01336206 -0.1013286 -0.01813961 -0.008612496 -0.1196045 -0.05118794 0.02221415 -0.08324859 -0.02732433 0.03839813 -0.1607732 0.05234802 -0.01705622 -0.06198788 0.02931681 -0.05819918 0.0501106 -0.06214928 -0.1159676 -0.01996864 0.09493146 -0.1288554 -0.09483558 -0.03420043 -0.04687574 0.09584974 0.03320646 0.05523329 -0.01786991 -0.1509423 0.1751855 -0.08474523 -0.09745417 -0.05448359 -0.08558372 0.1740773 0.09730306 -0.04866152 -0.1193441 0.1078691 0.05923684 -0.1421919 0.02664848 -0.06203895 0.09389717 -0.1158244 0.1380268 -0.1073783 0.0310527 -0.1494147 0.0387356 0.1256991 -0.05316593 0.1402463 -0.1280826 0.1130158 -0.03802351 -0.05413586 -0.02743212 
  -0.1340967 0.07090902 -0.04411072 0.03981259 -0.1283197 0.1630488 -0.102672 0.1253598 0.1359055 -0.01952961 -0.05625352 -0.01824503 0.0001549841 0.09532077 0.07214605 0.1567642 -0.04952645 0.1068924 -0.1767485 0.05455038 0.01482277 -0.01497244 -0.02625628 0.0323137 0.1285845 0.04996891 -0.158683 0.1362995 -0.2660509 -0.003645884 -0.1121475 -0.009759349 0.01345558 0.001169826 -0.08139042 0.0858828 0.02479469 -0.06654968 -0.1072849 0.06213894 -0.004728908 0.03444112 0.05388464 0.09755339 0.03619731 0.08502109 0.03800785 -0.06131469 -0.1851766 0.008207127 -0.02046756 -0.05351938 0.1163055 -0.04359327 0.008027244 -0.1196271 0.1487504 -0.05801192 0.1175587 -0.03261389 -0.0007365537 -0.1464552 0.02099478 0.0951927 
  0.1997805 0.0806983 -0.1071654 0.09215881 0.08897202 0.090997 -0.2505876 -0.1137375 0.006176915 0.0588298 0.01574873 -0.03320672 -0.1012832 0.02836566 0.1147069 0.04119818 0.1459504 -0.1277918 -0.04471024 0.2176742 0.01790939 -0.06921294 0.1062955 0.1284529 -0.009666454 -0.1383752 0.2145434 -0.07943729 -0.01070666 -0.03256643 0.0211705 -0.01358957 -0.1132726 -0.04826538 0.09015006 0.1109124 -0.1326263 0.09624879 -0.0860972 -0.03933397 -0.01356688 -0.1002816 0.02703325 0.07459113 -0.0008035253 0.1101407 -0.07753561 0.0913315 -0.02322411 0.02501735 0.103963 -0.1058211 0.04623369 0.05589063 -0.03681726 -0.07973239 0.05181278 0.002877565 -0.05193602 0.0008858452 -0.007799592 -0.09465986 0.03576958 -0.0218796 
  0.03943947 0.1271891 -0.002518602 -0.1131055 0.1345469 0.08107843 -0.007110591 -0.03547557 0.152024 0.06667074 0.1185163 -0.05408785 0.02684286 0.0241204 -0.1301547 0.05294158 -0.2271469 -0.1121704 0.0002702097 0.1105034 -0.1043063 0.08391932 -0.1237162 0.1644293 0.03404998 -0.09517132 0.04318429 0.03484926 0.02648839 -0.02886349 -0.2588898 0.07008983 0.08047958 -0.070567 -0.07950574 -0.02818738 -0.1147353 -0.1736078 0.02679481 0.04450618 -0.02789154 0.1069665 -0.1171577 0.04122634 -0.09712096 -0.1018747 -0.04431232 0.04806845 0.1558599 0.02106982 -0.005368 -0.04392688 -0.1281886 -0.0495301 -0.04801019 0.05559809 0.01851463 0.1401676 0.03495877 -0.06450073 0.09461662 -0.04552486 -0.02736603 0.02959744 
  0.1294314 -0.1360617 -0.05657513 0.1027222 -0.04500151 -0.01245356 0.08976921 0.207857 -0.09366518 -0.03763876 -0.02896382 0.01826665 0.1746793 0.006496528 0.09029223 0.0775028 -0.1236935 0.05545396 -0.007440922 -0.02982202 0.1042073 -0.1343567 0.02279641 -0.1356955 -0.1162518 -0.1565136 0.1362652 0.04744423 0.01295371 0.06004122 -0.1803597 -0.1567816 -0.04988176 -0.06528131 -0.08869526 0.04391621 -0.177535 0.1460164 -0.007092034 0.05098927 0.04234923 0.05018664 -0.1073527 0.03137464 0.1239865 0.008701274 0.09547577 -0.06716023 0.09949654 0.04139706 0.02750428 0.08217047 -0.09974892 -0.1052196 -0.02037763 0.07110737 0.06922086 -0.09040788 -0.002841811 -0.06523827 -0.006796978 -0.1605851 0.02417913 -0.05767364 
  -0.1632622 -0.1548702 -0.01397289 0.07268073 0.01895589 0.06495581 -0.03734905 -0.0968395 0.006498024 -0.02719404 0.02500587 -0.03258782 0.1535043 0.01964912 -0.1620225 0.01682778 0.04429225 -0.06270961 0.1270036 0.05177837 0.003884177 0.01428861 0.08301852 0.09885707 -0.05320887 0.005676892 0.2090135 -0.07991759 -0.07784623 0.07302378 -0.1923528 0.03961684 -0.03586328 0.07971618 -0.18945 0.1223238 0.165305 0.03176681 -0.1478015 -0.03151587 0.01145953 0.04593979 0.1103814 -0.07771477 -0.04339008 -0.0179052 -0.04816737 -0.1197993 -0.01267518 0.1634361 -0.08474386 0.01742558 -0.002593853 -0.1276736 -0.05370347 -0.1122599 -0.04807725 -0.05878881 0.03550083 0.1665216 -0.1009513 0.1169467 -0.08880487 -0.07476376 
  0.02486218 0.004521027 -0.020342 0.1696883 0.1177665 0.08634671 -0.2071967 -0.01686303 0.004711929 -0.06784805 -0.06402687 0.005290307 0.1136796 -0.07474991 0.02266744 0.0005241593 0.06902959 0.1026647 -0.05032811 -0.1533493 0.1048535 -0.1621692 0.01936063 0.04930089 0.1227275 0.06985392 -0.1829505 0.06486203 0.001583725 -0.1023616 -0.09521431 -0.0217719 0.01471613 -0.1132257 0.1364463 -0.04947869 -0.00405214 -0.006469919 -0.1885416 -0.02762408 -0.0614009 -0.07501734 -0.06796481 -0.06387761 -0.07114492 -0.04296257 0.03847343 0.1674384 0.1976279 0.1496594 -0.1827581 0.02038113 -0.03677659 -0.1220525 0.01960772 0.0350882 -0.1545928 0.01782876 -0.1248315 -0.03816913 -0.02114973 0.06298784 -0.03573314 -0.001498514 ]
<BiasParams>  [ ]
<OrthonormalConstraint> -1 <UseNaturalGradient> T <NumSamplesHistory> 2000 <AlphaInOut> 4 4 <RankInOut> 20 4 </TdnnComponent> 
<ComponentName> tdnnf7.affine <TdnnComponent> <MaxChange> 0.75 <L2Regularize> 0.01 <LearningRate> 0.0004997985 <TimeOffsets> [ 0 3 ]
<LinearParams>  [
  -0.003346512 -0.1381134 0.1800551 0.02221378 -0.08546471 0.1003967 0.036813 -0.1848258 -0.01962725 0.08466202 0.2739641 -0.04573514 0.1166207 -0.09560271 -0.0358168 -0.09912634 
  -0.1014234 0.04898196 0.05107297 0.1357792 -0.04631208 0.2132226 0.1143294 -0.07581822 -0.0588857 0.07963331 0.02255355 -0.03761383 0.04536647 0.1381564 0.0599833 -0.07848331 
  0.007600172 0.1918213 -0.1451731 -0.08862157 -0.1390497 -0.2207832 -0.182054 0.04411578 -0.1232839 0.03664151 0.05106852 0.02665165 -0.07154443 -0.0985365 -0.1369028 0.2060745 
  -0.0769538 -0.1436846 -0.1120647 0.04004659 -0.1928057 0.005128221 0.1884523 -0.07006743 -0.07043514 -0.04982036 0.157705 0.2206426 -0.3721834 -0.05216393 0.0581668 0.05812319 
  -0.1639152 -0.1395334 0.1477865 -0.3153561 0.1397329 0.009083761 -0.06884831 -0.1279246 0.2316822 0.1143212 -0.06073198 0.1981522 0.04361222 0.007088845 0.1293165 0.1360786 
  -0.06655324 0.1944801 0.01517606 0.008427028 -0.01990519 -0.5395886 0.04495749 0.0122934 -0.1102603 -0.009835945 -0.1031572 0.1876132 0.08070086 0.1789082 -0.1127704 -0.07468832 
  -0.03023914 0.3188549 -0.2025555 -0.04908317 0.101803 -0.1544509 -0.1229774 0.1264632 0.06484908 -0.05592338 0.01474426 0.218752 0.08710106 -0.009952356 0.07942297 -0.1312978 
  -0.001117458 0.03566381 -0.04370897 -0.2160571 -0.05349213 0.2650129 0.01872884 -0.1050049 -0.3331987 0.003361362 0.11239 -0.06776157 -0.01836191 -0.1428476 -0.2722482 0.05732755 
  0.1910127 -0.2316212 0.1007661 -0.04693142 0.2157979 0.06103448 0.07396865 -0.09053695 0.1661084 0.03219154 -0.05849453 -0.3301961 -0.1737535 -0.0941923 0.001705038 -0.1780235 
  -0.2449843 0.09468365 0.07965919 0.149321 0.1332229 -0.2728403 -0.1663901 0.03103032 -0.2391735 -0.06551942 -0.1760349 -0.03074091 -0.09608728 -0.03491454 -0.02219429 -0.04887418 
  0.0832375 -0.05926704 0.1726033 -0.1846066 -0.1070421 0.04563399 -0.1239266 -0.01658935 0.006774222 0.1547111 0.01442827 -0.08309802 0.1613542 -0.05639704 -0.1434793 -0.1189469 
  -0.2789796 -0.02357312 0.1154007 0.1234095 0.005514932 -0.05726665 -0.0003787428 0.4029089 0.109725 0.07793865 0.1111551 -0.05868658 0.2018306 -0.02225623 0.1395239 -0.01280869 
  0.08195751 0.008828022 -0.1943655 -0.3223945 -0.08754366 0.07413353 -0.1224254 -0.03447311 -0.01073761 -0.04134765 -0.02388523 0.05993374 -0.125946 0.002477801 0.03117376 0.05937019 
  -0.1572879 0.119934 -0.07879031 -0.0987405 -0.1521866 -0.1266767 -0.03260451 -0.1203135 0.2696242 -0.1751385 -0.1527213 -0.06859179 0.09860768 0.1422701 -0.06991984 0.1585998 
  0.07516673 -0.2852209 0.248235 -0.07412333 0.08439523 0.1042491 0.07505191 0.07371029 0.06340301 0.1699086 -0.02852921 0.01652415 -0.0001728259 -0.08017253 -0.150497 -0.1662932 
  0.09473629 -0.05434184 0.146772 0.153572 0.02424469 -0.1766587 0.1322279 0.2980346 -0.2448005 -0.2806205 -0.2291272 0.2144529 0.001023008 0.0292618 -0.2472205 -0.08530775 
  0.0340638 -0.0774212 0.09324946 0.1305514 -0.06076613 0.1564949 -0.1122788 0.1584095 -0.01716922 -0.2444786 -0.207146 -0.1527383 -0.0001344508 -0.1730838 0.03284918 -0.05299719 
  0.06436802 -0.2016915 -0.01554664 -0.02751182 0.2259954 0.08341716 -0.1219562 0.3983572 0.1532267 0.2632187 -0.02188754 -0.1753548 -0.07727458 0.08807093 -0.18776 -0.1390239 
  -0.1262374 0.1217612 0.2357747 0.000982328 -0.1706105 0.0006401339 -0.03924732 -0.08894701 0.08493187 0.05778384 0.1853838 0.14868 -0.03713404 -0.1350447 -0.03659014 -0.1544816 
  0.2683998 -0.323506 0.1806185 -0.1759017 -0.1107109 -0.1783322 -0.0683205 0.0633391 0.1026628 -0.09059414 -0.1781694 -0.1265199 0.2266749 -0.2081669 0.2404773 0.07859413 
  -0.1653103 0.07219821 0.08196335 -0.2010671 -0.1298749 -0.1797706 0.1003603 0.1959034 -0.16529 0.08983413 -0.06949145 -0.1325454 -0.0144084 -0.06475904 0.09747286 0.148432 
  0.2535691 -0.04802896 -0.05640909 -0.2937094 -0.07423892 0.4206237 0.1709155 0.05906389 0.05207693 -0.1413087 -0.05166946 0.1026067 0.01794237 -0.03218986 0.07106838 0.05694427 
  -0.1880163 0.2409049 0.009397429 0.06789334 -0.09656393 0.1507658 0.2148825 0.07650588 -0.1540032 -0.05745743 0.03724307 0.01278124 -0.2843455 -0.05079707 0.01154126 0.1865047 
  0.231274 -0.006462443 -0.02624144 -0.1694369 0.0634804 0.3807227 -0.2604426 -0.02698625 -0.00970251 0.005904633 0.1983385 -0.2470893 0.0003735558 0.0172863 0.0206215 0.1234591 
  0.03208851 -0.347318 0.09560571 -0.2197889 -0.2718189 0.1220224 -0.2015592 -0.06181815 -0.1872939 0.03134991 0.04013509 -0.1685858 -0.1396487 -0.02066997 -0.3191714 0.09509963 
  -0.1407875 -0.1752016 0.1777237 -0.1011914 -0.01057048 0.01694222 -0.09265022 -0.02644436 -0.1305114 0.1296063 -0.1279607 -0.04839236 0.05426083 -0.1710943 -0.1008741 -0.1124037 
  0.1172202 0.01866271 0.1086326 0.1152584 -0.02917457 -0.1080502 0.01334609 0.0211954 0.2712517 0.1014217 -0.06918021 0.07437698 -0.01664433 0.1674942 -0.2219468 0.08392571 
  0.1162014 0.007685448 0.08131723 -0.1128454 -0.2769524 -0.006005097 -0.2263434 0.0742005 -0.143981 0.04539208 -0.1257352 0.03831676 -0.1014891 -0.09320443 0.1061322 -0.2068273 
  0.1795205 0.145697 -0.1120251 -0.003273165 0.07319136 -0.1859962 -0.09107992 0.004961113 0.02751069 0.02210783 -0.1354234 0.1477141 0.06919092 0.1157692 -0.1062443 -0.04582325 
  -0.05285101 0.1812944 -0.1433919 -0.2863903 0.1040116 0.01230286 0.05119223 -0.0130519 -0.2091337 0.001092552 -0.02193151 -0.0905968 0.01616465 0.1841985 0.07508505 0.09912627 
  -0.06973691 0.1310983 0.03987665 -0.1177486 -0.1768924 0.008306855 -0.1885247 0.1374105 0.02328142 0.009835194 -0.001570647 0.1164288 0.1755502 0.005472054 0.1611419 -0.09429456 
  0.2482267 -0.1028611 -0.04626767 -0.2091207 -0.002238136 -0.06529383 0.2026829 0.05682247 0.05214696 -0.02022167 -0.1511903 -0.008679254 -0.2115596 0.12446 -0.07572202 -0.1484472 ]
<BiasParams>  [ -0.05126573 -0.1164188 -0.277536 -0.001969442 -0.00546155 0.01287075 0.150101 -0.007421339 0.1201877 -0.9741823 -0.05979806 -0.1542221 0.570541 0.1484919 -0.60001 -0.2685561 0.9133939 0.129467 -0.2292295 -1.049008 0.1687202 0.3091385 -0.1231055 0.05683537 0.004140318 0.09662382 -0.2249795 0.1174812 0.9698491 -0.09807726 -0.1473295 -0.692995 ]
<OrthonormalConstraint> 0 <UseNaturalGradient> T <NumSamplesHistory> 2000 <AlphaInOut> 4 4 <RankInOut> 8 16 </TdnnComponent> 
<ComponentName> tdnnf7.relu <RectifiedLinearComponent> <Dim> 32 <ValueAvg>  [ 0.1778603 0.1578718 0.2298968 0.3183229 0.2084051 0.3583044 0.4201667 0.3209169 0.3681317 0.0808889 0.2050588 0.1548219 0.6981122 0.3741911 0.04459208 0.1234931 1.075009 0.54892 0.115863 0.04269531 0.4023525 0.5856259 0.260355 0.4035195 0.521936 0.3831056 0.2007035 0.3995382 1.154229 0.1521912 0.1240372 0.05639058 ]
<DerivAvg>  [ 0.3737638 0.3729164 0.3969909 0.4130937 0.4907545 0.462172 0.5764006 0.5070649 0.5393299 0.149388 0.4528969 0.3616604 0.8976911 0.6352068 0.1030251 0.2203546 0.985058 0.5493429 0.2840258 0.07200661 0.6624129 0.6360142 0.4165709 0.5053303 0.4765471 0.4933638 0.3057738 0.6217498 0.9280721 0.4563843 0.3100093 0.1009872 ]
<Count> 876864 <OderivRms>  [ 0.06216329 0.07135423 0.05110183 0.03200372 0.09112709 0.0412857 0.0329376 0.05076009 0.0381714 0.05649969 0.05776819 0.08067151 0.04172838 0.05214642 0.07488783 0.05600294 0.02371637 0.03619409 0.05129271 0.08680921 0.05640542 0.03335391 0.04266276 0.02593626 0.01885543 0.03770287 0.04861547 0.05003121 0.02639401 0.0747233 0.1629148 0.08307356 ]
<OderivCount> 1324736 <NumDimsSelfRepaired> 407 <NumDimsProcessed> 7360 <SelfRepairScale> 1e-05 </RectifiedLinearComponent> 
<ComponentName> tdnnf7.batchnorm <BatchNormComponent> <Dim> 32 <BlockDim> 32 <Epsilon> 0.001 <TargetRms> 1 <TestMode> T <Count> 15304.87 <StatsMean>  [ 0.192942 0.1799101 0.2406039 0.282934 0.1908248 0.3603863 0.4319463 0.2507075 0.3392529 0.06388471 0.1986354 0.1366912 0.5997622 0.3221044 0.05224141 0.1280737 0.923756 0.4882059 0.1530218 0.03605007 0.3765466 0.5542679 0.2430815 0.3432177 0.4795238 0.3085975 0.1632594 0.3429278 1.017298 0.1287871 0.1611447 0.06185156 ]
<StatsVar>  [ 0.09220175 0.0747216 0.217602 0.220723 0.1155703 0.2947593 0.2992938 0.1770751 0.2423285 0.04408661 0.1046933 0.05445575 0.1902561 0.1788458 0.03542585 0.1070395 0.2081519 0.5100825 0.07638082 0.03372934 0.2016326 0.3021832 0.1823478 0.2351222 0.5836858 0.213273 0.162566 0.2851909 0.3722368 0.03750002 0.1072379 0.04908714 ]
</BatchNormComponent> 
<ComponentName> tdnnf7.dropout <GeneralDropoutComponent> <Dim> 32 <BlockDim> 32 <TimePeriod> 0 <DropoutProportion> 0 <TestMode> <Continuous> </GeneralDropoutComponent> 
<ComponentName> tdnnf7.noop <NoOpComponent> <Dim> 32 <BackpropScale> 1 </NoOpComponent> 
<ComponentName> tdnnf8.linear <TdnnComponent> <MaxChange> 0.75 <L2Regularize> 0.01 <LearningRate> 0.0004997985 <TimeOffsets> [ -3 0 ]
<LinearParams>  [
  0.092301 0.09727668 -0.02734093 0.05695927 0.004792243 0.04362759 -0.1548323 -0.02759467 0.08632132 -0.07662006 0.04571337 0.02597237 0.04302213 -0.01953341 -0.01663837 0.0342005 -0.05473943 0.05708916 -0.01547796 -0.0317121 -0.05125445 -0.2744195 0.1139497 -0.07193043 0.1080293 -0.02816351 0.02698359 0.02960712 0.08863454 -0.136075 -0.03682759 0.07111156 0.1131642 -0.1011965 -0.1244382 0.1642396 0.05181812 -0.08355465 0.03657522 0.002340295 -0.05394442 -0.03178541 0.05490016 0.2122496 -0.09396847 -0.01118429 -0.03063785 0.02038476 -0.008017757 0.02533202 0.0004393777 -0.1316523 -0.05078397 -0.0706519 0.0282698 -0.07123505 0.2020565 -0.09234653 0.02792536 -0.05152995 0.009957227 -0.01971419 -0.1454093 -0.01838624 
  0.05411212 0.08302421 0.08107083 -0.126211 0.1268437 -0.1191494 0.08932436 -0.2438137 0.1859817 -0.09866243 0.02302137 -0.04175858 -0.01374766 0.01378116 -0.1846084 0.06060592 0.04768264 0.1346778 0.04398846 -0.08321314 0.002247248 0.01138153 0.04767054 -0.03312655 0.005379505 -0.04753512 -0.02000602 -0.1110069 0.0886324 -0.02510203 -0.01622481 -0.0357411 -0.06148297 -0.06360491 -0.01387888 -0.1139216 -0.04542898 0.03576332 -0.1073035 0.009461501 0.1490358 -0.05161861 -0.08661807 -0.04653714 0.0407625 -0.006897223 -0.0321456 0.0006222702 0.07736678 -0.08537393 -0.007342306 -0.01597985 0.04103078 -0.1993081 -0.1385586 0.0112141 -0.0233725 -0.04999916 -0.1261924 -0.1254898 -0.003101098 -0.09107221 -0.005922333 0.02489095 
  0.02692815 0.06232847 -0.06886573 -0.03384003 0.06509192 -0.08440229 0.1235699 0.09958134 -0.01152149 -0.1148128 -0.01343137 -0.1835943 -0.08367851 0.08555847 -0.02077801 -0.08145606 -0.0455551 0.01063393 0.02497115 0.06427912 -0.2079814 -0.001083661 -0.04410458 0.08324978 -0.1508133 -0.08941034 -0.004053571 -0.02644977 0.02511727 -0.02120335 -0.1781239 0.09918429 -0.08271263 0.04982888 0.01509512 0.1097774 0.01176094 0.0028799 0.007014399 0.02861731 0.01514732 -0.09663939 0.0606623 0.120235 0.1724509 0.08999656 0.02249005 0.06793063 0.08758281 -0.02228373 -0.07001057 0.004128825 0.006527694 0.04511966 0.1469225 -0.01990568 0.007258021 0.1505064 -0.08017862 0.07701115 -0.03766654 -0.06511018 -0.1424417 0.1536192 
  -0.1010241 0.0413952 0.02146137 0.03960513 -0.0390823 0.1563523 0.02890569 -0.1303497 0.1229905 -0.08866347 0.1077644 -0.03899994 -0.1409243 -0.005445483 -0.0175959 -0.1922605 0.05532738 -0.178145 -0.12095 -0.06777577 0.04911896 -0.02692773 0.01135325 0.003992151 -0.08148994 0.0852 -0.2050742 0.01616754 -0.104802 -0.02407903 0.0257331 0.03662961 0.06942523 -0.1157616 0.009562847 -0.0497136 -0.0275938 0.112835 0.02749979 -0.02954285 0.1006698 0.07018907 0.1475912 0.005480314 -0.004656878 -0.07512407 -0.01135061 -0.03128298 -0.003501537 -0.1076117 -0.02861246 -0.0356345 0.1875062 0.005333807 0.08341209 0.04244814 0.04003067 0.07406645 0.08048367 -0.06636399 -0.0668266 0.1225203 -0.1031551 0.02332233 
  0.0148453 -0.02705523 -0.04697754 0.07384043 0.07876842 -0.0215464 -0.006800673 0.1139311 0.1150204 0.001093076 0.0743726 0.0001333659 -0.2160429 -0.07758194 -0.06127265 0.07357314 -0.01914832 -0.04776806 -0.02339637 -0.034504 -0.008052462 -0.008730095 0.1453258 -0.06795973 -0.05552098 -0.06018139 -0.02240201 0.1486688 -0.1443009 -0.0971519 0.1323564 -0.005574483 0.1510956 -0.03700322 0.1703913 -0.108359 0.1094649 0.01452838 -0.03417999 0.2728655 -0.0169434 -0.05798083 0.03503812 -0.01904081 0.06277589 0.04452041 0.04491518 0.1257674 0.06689116 0.0268816 -0.0151098 0.05448603 -0.08798233 -0.05722286 -0.01596713 -0.1320361 -0.02593599 -0.02774076 -0.004544764 0.08565004 0.05826087 -0.06997101 0.1074769 -0.004350193 
  -0.05395925 -0.02452457 0.01148822 0.02888051 0.1306223 -0.1192342 -0.01646996 -0.02615669 0.03682295 -0.08592614 0.05970228 -0.0688027 0.07072143 0.04250145 -0.01161912 -0.04296307 0.03652924 0.08156613 0.06586721 -0.01878968 -0.08961995 0.06445972 -0.1481085 -0.0192347 0.01323324 -0.07358348 -0.06921149 0.2277937 0.04598118 -0.03042797 0.3433142 -0.04811805 -0.04120032 -0.02976197 -0.1249471 -0.03878096 0.2237466 -0.06566482 0.106125 -0.1196405 0.007870328 0.04757956 0.006756133 0.01091713 -0.03326485 0.05480084 0.02840331 -0.08659925 -0.06454032 0.06160307 0.02672631 -0.04719742 0.06421282 -0.01852926 0.06252726 0.01776838 0.0624433 0.1432547 -0.04177272 0.04892365 -0.02644406 -0.02304109 0.06754065 0.01433016 
  0.09597929 0.04089189 -0.2578744 0.02146367 -0.04788353 -0.0375273 -0.154845 -0.1431109 0.03653953 -0.0253118 0.001455831 0.05448156 -0.06121691 -0.1897798 -0.02933909 0.08792216 -0.05065782 -0.1253698 -0.05893238 0.06166301 -0.09465475 0.01804068 0.002672289 0.01567097 -0.06505436 0.006511499 -0.008937053 -0.05874334 0.001096687 0.174621 -0.04883183 0.03457945 -0.05461767 -0.05612452 0.0586214 -0.1778042 -0.003883015 -0.009703835 0.06520366 0.03470927 -0.0649766 0.06557734 -0.1205437 0.150778 -0.06872375 0.03991123 0.04734646 -0.0822612 -0.00905754 0.0656575 0.08877974 -0.06216789 0.009198208 0.01743555 0.01050705 0.1574333 -0.007426464 0.1681487 -0.08083469 0.01015379 -0.0317942 -0.118003 0.002364917 -0.09147292 
  0.01858248 0.1725027 0.2086528 0.03703605 0.008599758 0.05647625 0.01700815 0.004726022 -0.07676779 0.001935317 0.004995984 0.1646896 -0.02906883 0.03283464 0.06639881 0.01561252 0.009525331 -0.1292905 -0.05209301 -0.07838745 -0.1206788 -0.02299922 0.05286219 -0.05173627 0.04745886 -0.09748858 -0.09170973 -0.00243569 0.04100407 0.1313101 0.08304939 0.06073581 0.03428459 0.01529632 0.01338783 -0.2017566 -0.01061825 -0.1024695 0.00263886 -0.1551682 -0.024975 -0.05581927 -0.156192 -0.04552416 0.0348433 0.1351553 -0.01065579 0.06086048 -0.03862231 0.02359148 -0.006386191 0.08053137 -0.1124809 -0.05019657 0.1391391 -0.07102265 -0.1060923 -0.06706572 0.01583875 0.01784637 -0.05394599 -0.004850237 -0.2192718 0.06155767 ]
<BiasParams>  [ ]
